tree
version=v4
num_class=1
num_tree_per_iteration=1
label_index=0
max_feature_idx=23
objective=regression
feature_names=Column_0 Column_1 Column_2 Column_3 Column_4 Column_5 Column_6 Column_7 Column_8 Column_9 Column_10 Column_11 Column_12 Column_13 Column_14 Column_15 Column_16 Column_17 Column_18 Column_19 Column_20 Column_21 Column_22 Column_23
feature_infos=[0:1] [0:1] [0:1] [0:1] [0:1] [0:1] [0:1] [0:1] [0:1] [0:1] [0:1] [0:1] [0:1] [0:1] [0:1] [0:1] [0:1] [0:1] [0:1] [0:1] [0:1] [0:1] [0:1] [0:1]
tree_sizes=1023 1073 1071 1066 1069 1069 1070 1065 1073 1068 1064 1066 1074 1061 1069 1068 1062 1064 1068 1069 1067 1064 1067 1066 1064 1061 1069 1062 1066 1064 1063 1066 1069 1070 1063 1064 1063 1064 1067 1070 1067 1059 1067 1069 1062 1060 1065 1061 1065 1071 1067 1065 1061 1063 1070 1069 1066 1067 1070 1064 1063 1064 1073 1065 1066 1070 1067 1068 1068 1066 1069 1066 1068 1070 1066 1071 1066 1072 1065 1072 1066 1073 1075 1070 1067 1070 1072 1070 1069 1071 1072 1073 1073 1076 1076 1070 1065 1074 1072 1069

Tree=0
num_leaves=10
num_cat=0
split_feature=23 23 23 23 23 23 23 23 23
split_gain=407.196 91.2075 54.9668 16.1968 14.7022 7.8162 7.50394 3.51405 2.2335
threshold=0.40160034602076128 0.24935121107266439 0.60099480968858143 0.18144463667820071 0.31898788927335647 0.50367647058823539 0.73378027681660907 0.12954152249134951 0.21604671280276819
decision_type=2 2 2 2 2 2 2 2 2
left_child=1 3 5 7 -3 -2 -4 -1 -5
right_child=2 4 6 8 -6 -7 -8 -9 -10
leaf_value=0.29170797880407817 0.29511712323598405 0.29347695760033998 0.29722744011379743 0.2926831468644403 0.29418176527317585 0.29613478094338885 0.29862484480040924 0.29229935335883162 0.29300772036632544
leaf_weight=1295 2034 7855 1072 4051 4749 1200 599 4484 4448
leaf_count=1295 2034 7855 1072 4051 4749 1200 599 4484 4448
internal_value=0.293606 0.293123 0.296256 0.292575 0.293743 0.295495 0.297728 0.292167 0.292853
internal_weight=0 26882 4905 14278 12604 3234 1671 5779 8499
internal_count=31787 26882 4905 14278 12604 3234 1671 5779 8499
is_linear=0
shrinkage=1


Tree=1
num_leaves=10
num_cat=0
split_feature=23 23 23 23 23 23 23 23 23
split_gain=399.092 89.3927 53.873 15.2263 15.0903 7.66066 7.35462 3.13257 2.38138
threshold=0.40160034602076128 0.24718858131487892 0.60099480968858143 0.17755190311418687 0.31639273356401393 0.50367647058823539 0.73378027681660907 0.12175605536332181 0.21128892733564017
decision_type=2 2 2 2 2 2 2 2 2
left_child=1 3 5 7 -3 -2 -4 -1 -5
right_child=2 4 6 8 -6 -7 -8 -9 -10
leaf_value=-0.0019448441278520237 0.0014959887144839871 -0.00014913787867552164 0.0035852022975015998 -0.00095688384862696639 0.00055370379002613892 0.0025034698445349935 0.0049686329845395035 -0.0013325242884241379 -0.00062305956014237869
leaf_weight=1036 2034 7907 1072 3866 4978 1200 599 4317 4778
leaf_count=1036 2034 7907 1072 3866 4978 1200 599 4317 4778
internal_value=0 -0.000478631 0.00262315 -0.00103191 0.000122398 0.00186982 0.00408112 -0.00145103 -0.000772361
internal_weight=0 26882 4905 13997 12885 3234 1671 5353 8644
internal_count=31787 26882 4905 13997 12885 3234 1671 5353 8644
is_linear=0
shrinkage=0.01


Tree=2
num_leaves=10
num_cat=0
split_feature=23 23 23 23 23 23 23 23 23
split_gain=391.15 87.6329 52.8009 15.5619 14.1416 7.52205 7.20826 3.38257 2.34843
threshold=0.40160034602076128 0.24935121107266439 0.60099480968858143 0.18144463667820071 0.32158304498269902 0.49026816608996543 0.73378027681660907 0.12954152249134951 0.2848183391003461
decision_type=2 2 2 2 2 2 2 2 2
left_child=1 3 5 7 8 -2 -4 -1 -3
right_child=2 4 6 -5 -6 -7 -8 -9 -10
leaf_value=-0.0018608404631550249 0.0014345121590448764 -0.00027149840370524388 0.0035493503961322916 -0.00073805412358851424 0.00058312133745810609 0.0024094198497521722 0.0049189468118702633 -0.0012806350617095444 7.0406637146969302e-05
leaf_weight=1295 1852 4414 1072 8499 4503 1382 599 4484 3687
leaf_count=1295 1852 4414 1072 8499 4503 1382 599 4484 3687
internal_value=0 -0.000473844 0.00259692 -0.00101029 0.000133846 0.00185112 0.00404031 -0.00141065 -0.000115888
internal_weight=0 26882 4905 14278 12604 3234 1671 5779 8101
internal_count=31787 26882 4905 14278 12604 3234 1671 5779 8101
is_linear=0
shrinkage=0.01


Tree=3
num_leaves=10
num_cat=0
split_feature=23 23 23 23 23 23 23 23 23
split_gain=383.366 85.8995 51.7502 14.8164 14.3887 7.37516 7.07841 2.84344 2.54782
threshold=0.40160034602076128 0.24632352941176475 0.60099480968858143 0.31379757785467133 0.17106401384083048 0.50367647058823539 0.7182093425605538 0.21128892733564017 0.11699826989619379
decision_type=2 2 2 2 2 2 2 2 2
left_child=1 4 5 -3 8 -2 -4 -6 -1
right_child=2 3 6 -5 7 -7 -8 -9 -10
leaf_value=-0.0019459958546815465 0.0014658114258767699 -0.0001614128842448246 0.0034567488552955201 0.00052715420940451212 -0.0009651746297464289 0.0024543408645937839 0.0047797979297165274 -0.00061405309739649195 -0.0013553622767165554
leaf_weight=908 2034 7802 985 5213 4578 1200 686 4648 3733
leaf_count=908 2034 7802 985 5213 4578 1200 686 4648 3733
internal_value=0 -0.000469106 0.00257095 0.000114384 -0.00101675 0.00183261 0.0039999 -0.000788282 -0.00147092
internal_weight=0 26882 4905 13015 13867 3234 1671 9226 4641
internal_count=31787 26882 4905 13015 13867 3234 1671 9226 4641
is_linear=0
shrinkage=0.01


Tree=4
num_leaves=10
num_cat=0
split_feature=23 23 23 23 23 23 23 23 23
split_gain=375.738 84.2056 50.7204 14.9636 13.6096 7.25299 6.9387 3.0574 2.34044
threshold=0.40160034602076128 0.24935121107266439 0.60099480968858143 0.17884948096885814 0.32158304498269902 0.47902249134948099 0.73378027681660907 0.12954152249134951 0.21128892733564017
decision_type=2 2 2 2 2 2 2 2 2
left_child=1 3 5 7 -3 -2 -4 -1 -5
right_child=2 4 6 8 -6 -7 -8 -9 -10
leaf_value=-0.0018245371443194312 0.001352856917831106 -0.00011371798320393551 0.0034782155744953829 -0.0009244687088001759 0.0005720185775745073 0.0023003258054691647 0.0048219593070783278 -0.0012686976745504501 -0.00059425251577819151
leaf_weight=1295 1659 8101 1072 3728 4503 1575 599 4196 5059
leaf_count=1295 1659 8101 1072 3728 4503 1575 599 4196 5059
internal_value=0 -0.000464415 0.00254524 -0.000990263 0.000131273 0.00181429 0.0039599 -0.00139979 -0.000734351
internal_weight=0 26882 4905 14278 12604 3234 1671 5491 8787
internal_count=31787 26882 4905 14278 12604 3234 1671 5491 8787
is_linear=0
shrinkage=0.01


Tree=5
num_leaves=10
num_cat=0
split_feature=23 23 23 23 23 23 23 23 23
split_gain=368.301 88.684 42.8377 15.935 14.6065 6.11489 5.97507 3.1905 2.43018
threshold=0.41587370242214539 0.25367647058823534 0.60878027681660907 0.18144463667820071 0.32763840830449836 0.73378027681660907 0.50367647058823539 0.12954152249134951 0.21691176470588239
decision_type=2 2 2 2 2 2 2 2 2
left_child=1 3 6 7 -3 -4 -2 -1 -5
right_child=2 4 5 8 -6 -7 -8 -9 -10
leaf_value=-0.0018062917924410588 0.0015293772937758647 -6.9403302747933872e-05 0.0034919782471014068 -0.00087418506098198192 0.00064566123811625063 0.0047737397390335348 0.0024413490838741869 -0.0012427995046625623 -0.00054577170096570683
leaf_weight=1295 1623 8004 983 4180 4442 599 1289 4484 4888
leaf_count=1295 1623 8004 983 4180 4442 599 1289 4484 4888
internal_value=0 -0.000436785 0.00265268 -0.000958691 0.000185805 0.0039773 0.00193306 -0.00136907 -0.000697158
internal_weight=0 27293 4494 14847 12446 1582 2912 5779 9068
internal_count=31787 27293 4494 14847 12446 1582 2912 5779 9068
is_linear=0
shrinkage=0.01


Tree=6
num_leaves=10
num_cat=0
split_feature=23 23 23 23 23 23 23 23 23
split_gain=361.034 80.8933 48.7311 14.002 13.5841 7.47716 6.22415 2.66603 2.41973
threshold=0.40160034602076128 0.24632352941176475 0.59277681660899662 0.31379757785467133 0.17106401384083048 0.7182093425605538 0.47902249134948099 0.21128892733564017 0.11180795847750864
decision_type=2 2 2 2 2 2 2 2 2
left_child=1 4 6 -3 8 -4 -2 -6 -1
right_child=2 3 5 -5 7 -7 -8 -9 -10
leaf_value=-0.0019363821890869862 0.0013262238486200088 -0.00015711604158556686 0.0033048263672815015 0.00051226115527145647 -0.00093598095281883695 0.0046393727817445034 0.0022185770259900411 -0.00059598946524854098 -0.0013254196916965854
leaf_weight=779 1659 7802 1082 5213 4578 686 1478 4648 3862
leaf_count=779 1659 7802 1082 5213 4578 686 1478 4648 3862
internal_value=0 -0.000455237 0.00249494 0.000110995 -0.00098668 0.00382264 0.00174666 -0.000764695 -0.00142797
internal_weight=0 26882 4905 13015 13867 1768 3137 9226 4641
internal_count=31787 26882 4905 13015 13867 1768 3137 9226 4641
is_linear=0
shrinkage=0.01


Tree=7
num_leaves=10
num_cat=0
split_feature=23 23 23 23 23 23 23 23 1
split_gain=353.866 83.7654 42.79 15.3196 13.4491 6.22526 5.87885 3.5835 2.31879
threshold=0.4115484429065745 0.25367647058823534 0.60878027681660907 0.1883650519031142 0.32763840830449836 0.50367647058823539 0.73378027681660907 0.13775951557093427 0.2848183391003461
decision_type=2 2 2 2 2 2 2 2 2
left_child=1 3 5 7 8 -2 -4 -1 -3
right_child=2 4 6 -5 -6 -7 -8 -9 -10
leaf_value=-0.0016970187917193574 0.0014743479652177852 -0.00021458152969965592 0.0034228290418884884 -0.00065437770767306244 0.00062308430101429399 0.0023931823756409946 0.0046796087062418567 -0.0011630554053722142 0.00012968427714179394
leaf_weight=1696 1723 4599 983 8297 4342 1289 599 4854 3405
leaf_count=1696 1723 4599 983 8297 4342 1289 599 4854 3405
internal_value=0 -0.000433672 0.00256701 -0.000939785 0.000174967 0.00186757 0.00389869 -0.00130132 -6.81266e-05
internal_weight=0 27193 4594 14847 12346 3012 1582 6550 8004
internal_count=31787 27193 4594 14847 12346 3012 1582 6550 8004
is_linear=0
shrinkage=0.01


Tree=8
num_leaves=10
num_cat=0
split_feature=23 23 23 23 23 23 23 23 23
split_gain=346.882 77.7938 46.8238 15.2719 11.5743 7.18767 5.98411 2.76102 2.28654
threshold=0.40160034602076128 0.24070069204152253 0.59277681660899662 0.30730968858131497 0.16717128027681663 0.7182093425605538 0.47902249134948099 0.34926470588235298 0.20263840830449828
decision_type=2 2 2 2 2 2 2 2 2
left_child=1 4 6 -3 -1 -4 -2 -5 -6
right_child=2 3 5 7 8 -7 -8 -9 -10
leaf_value=-0.0014293208046359089 0.001299813946707914 -0.00020691427720589151 0.0032393197536248158 0.00027742585372398987 -0.00097215887931988956 0.0045477767796975183 0.0021747907022762847 0.00071746722721079982 -0.00064828167823789999
leaf_weight=4239 1659 8008 1082 3324 3950 686 1478 2497 4864
leaf_count=4239 1659 8008 1082 3324 3950 686 1478 2497 4864
internal_value=0 -0.000446226 0.00244556 7.64126e-05 -0.000999936 0.00374701 0.00171206 0.000466188 -0.000793427
internal_weight=0 26882 4905 13829 13053 1768 3137 5821 8814
internal_count=31787 26882 4905 13829 13053 1768 3137 5821 8814
is_linear=0
shrinkage=0.01


Tree=9
num_leaves=10
num_cat=0
split_feature=23 23 23 23 23 23 23 23 1
split_gain=340.008 83.2932 38.0642 16.1494 12.7653 5.66916 5.16674 3.4917 2.25316
threshold=0.4197664359861592 0.25843425605536335 0.60878027681660907 0.1883650519031142 0.3336937716262976 0.74978373702422152 0.52357266435986172 0.13256920415224915 0.2848183391003461
decision_type=2 2 2 2 2 2 2 2 2
left_child=1 3 6 7 8 -4 -2 -1 -3
right_child=2 4 5 -5 -6 -7 -8 -9 -10
leaf_value=-0.0017123092842177027 0.0015638381065749332 -0.00017547912429981058 0.0034081390711551062 -0.00062170803501163238 0.00066798901879533618 0.0046882786746127733 0.0024571626259398366 -0.0011535473118046225 0.00016516728795555811
leaf_weight=1431 1810 4311 1071 8920 4073 511 1008 5119 3533
leaf_count=1431 1810 4311 1071 8920 4073 511 1008 5119 3533
internal_value=0 -0.000414547 0.00258027 -0.000898575 0.000213792 0.00382164 0.00188338 -0.00127562 -2.20493e-05
internal_weight=0 27387 4400 15470 11917 1582 2818 6550 7844
internal_count=31787 27387 4400 15470 11917 1582 2818 6550 7844
is_linear=0
shrinkage=0.01


Tree=10
num_leaves=10
num_cat=0
split_feature=23 23 23 23 23 23 23 2 23
split_gain=333.398 70.2884 50.9096 13.4961 10.3835 9.0557 5.25836 2.44494 2.08165
threshold=0.3912197231833911 0.23724048442906578 0.5659602076124568 0.30125432525951562 0.16717128027681663 0.6926903114186852 0.46777681660899656 0.32893598615916958 0.11180795847750864
decision_type=2 2 2 2 2 2 2 2 2
left_child=1 4 6 -3 8 -4 -2 -5 -1
right_child=2 3 5 7 -6 -7 -8 -9 -10
leaf_value=-0.001868631835735196 0.0011657148214489167 -0.00024022922986619195 0.0029590479249106201 0.00022949981854093111 -0.0007941702158800253 0.004307854739806492 0.0019774275624577366 0.00064332276796528272 -0.0012964575577828752
leaf_weight=779 1858 7850 1178 3707 8372 862 1399 2322 3460
leaf_count=779 1858 7850 1178 3707 8372 862 1399 2322 3460
internal_value=0 -0.000457963 0.00229025 3.30537e-05 -0.000998351 0.00352898 0.00151437 0.000388879 -0.00140161
internal_weight=0 26490 5297 13879 12611 2040 3257 6029 4239
internal_count=31787 26490 5297 13879 12611 2040 3257 6029 4239
is_linear=0
shrinkage=0.01


Tree=11
num_leaves=10
num_cat=0
split_feature=23 23 23 23 23 23 23 2 23
split_gain=326.763 68.8936 49.8965 13.4857 9.96726 8.87549 5.15372 2.52796 2.04022
threshold=0.3912197231833911 0.23637543252595158 0.5659602076124568 0.29865916955017308 0.16717128027681663 0.6926903114186852 0.46777681660899656 0.31293252595155713 0.11180795847750864
decision_type=2 2 2 2 2 2 2 2 2
left_child=1 4 6 -3 8 -4 -2 -5 -1
right_child=2 3 5 7 -6 -7 -8 -9 -10
leaf_value=-0.0018499455427863326 0.0011540576950140673 -0.00025243196048576092 0.0029294574274626168 0.00018941102186606447 -0.00079092732153022776 0.0042647762078005308 0.0019576533003480543 0.00059193529480330636 -0.001283492955449172
leaf_weight=779 1858 7706 1178 3452 8246 862 1399 2847 3460
leaf_count=779 1858 7706 1178 3452 8246 862 1399 2847 3460
internal_value=0 -0.000453384 0.00226735 2.81218e-05 -0.000993511 0.0034937 0.00149923 0.000371343 -0.00138759
internal_weight=0 26490 5297 14005 12485 2040 3257 6299 4239
internal_count=31787 26490 5297 14005 12485 2040 3257 6299 4239
is_linear=0
shrinkage=0.01


Tree=12
num_leaves=10
num_cat=0
split_feature=23 23 23 23 23 23 23 23 1
split_gain=320.288 77.3211 37.3078 13.9194 12.7617 5.39925 5.22532 2.83399 2.22153
threshold=0.41587370242214539 0.25367647058823534 0.60878027681660907 0.18144463667820071 0.32893598615916958 0.74978373702422152 0.52357266435986172 0.12954152249134951 0.28352076124567477
decision_type=2 2 2 2 2 2 2 2 2
left_child=1 3 6 7 8 -4 -2 -1 -3
right_child=2 4 5 -5 -6 -7 -8 -9 -10
leaf_value=-0.0016902641045886116 0.0014939579357854836 -0.00020595865830090682 0.0033063758444997556 -0.00065021235863245614 0.00061179137372812666 0.0045556696648700367 0.0023843645312572044 -0.0011591867633815272 0.00012777809234044011
leaf_weight=1295 1904 4567 1071 9068 4338 511 1008 4484 3541
leaf_count=1295 1904 4567 1071 9068 4338 511 1008 4484 3541
internal_value=0 -0.000407321 0.00247375 -0.000894646 0.000174016 0.00370991 0.00180218 -0.00127819 -6.02061e-05
internal_weight=0 27293 4494 14847 12446 1582 2912 5779 8108
internal_count=31787 27293 4494 14847 12446 1582 2912 5779 8108
is_linear=0
shrinkage=0.01


Tree=13
num_leaves=10
num_cat=0
split_feature=23 23 23 23 23 23 23 2 3
split_gain=314.038 66.2591 47.9473 12.9669 9.57927 7.19624 6.212 2.33492 2.03247
threshold=0.3912197231833911 0.23637543252595158 0.58369377162629765 0.30125432525951562 0.16717128027681663 0.7182093425605538 0.46777681660899656 0.32893598615916958 0.44139273356401393
decision_type=2 2 2 2 2 2 2 2 2
left_child=1 4 6 -3 -1 -4 -2 -5 -8
right_child=2 3 5 7 -6 -7 8 -9 -10
leaf_value=-0.0013604996359891054 0.0011313901219889924 -0.00023680745029294796 0.0030410012956263673 0.0002219717931764966 -0.00077556539307938944 0.0043305858743781598 0.0015965651171933476 0.00062637680373982447 0.0023158400309897364
leaf_weight=4239 1858 7976 1172 3707 8246 686 729 2322 852
leaf_count=4239 1858 7976 1172 3707 8246 686 729 2322 852
internal_value=0 -0.000444468 0.00222276 2.77415e-05 -0.000974167 0.00351713 0.00152344 0.000377724 0.00198418
internal_weight=0 26490 5297 14005 12485 1858 3439 6029 1581
internal_count=31787 26490 5297 14005 12485 1858 3439 6029 1581
is_linear=0
shrinkage=0.01


Tree=14
num_leaves=10
num_cat=0
split_feature=23 23 23 23 23 23 23 23 2
split_gain=307.788 64.9443 47.0007 11.6864 10.2716 8.40185 4.85328 2.14621 2.0368
threshold=0.3912197231833911 0.24070069204152253 0.5659602076124568 0.30730968858131497 0.16717128027681663 0.6926903114186852 0.46777681660899656 0.20263840830449828 0.32893598615916958
decision_type=2 2 2 2 2 2 2 2 2
left_child=1 4 6 -3 -1 -4 -2 -6 -5
right_child=2 3 5 8 7 -7 -8 -9 -10
leaf_value=-0.0013468946312980626 0.001120076216672085 -0.00019482896880623565 0.002841784972412882 0.00024895955737460658 -0.00092101549431210076 0.0041409858324826451 0.0018998972675347003 -0.00060723437997978636 0.00064481490954928123
leaf_weight=4239 1858 8008 1178 3273 3950 862 1399 4864 2156
leaf_count=4239 1858 8008 1178 3273 3950 862 1399 4864 2156
internal_value=0 -0.000440023 0.00220053 4.79925e-05 -0.000942395 0.00339076 0.00145504 -0.000747856 0.000406164
internal_weight=0 26490 5297 13437 13053 2040 3257 8814 5429
internal_count=31787 26490 5297 13437 13053 2040 3257 8814 5429
is_linear=0
shrinkage=0.01


Tree=15
num_leaves=10
num_cat=0
split_feature=23 23 23 23 23 23 23 23 1
split_gain=301.737 74.1909 33.8474 14.9544 11.0198 5.12606 4.58767 3.63861 2.08241
threshold=0.4197664359861592 0.26016435986159175 0.60878027681660907 0.19485294117647062 0.3371539792387544 0.74978373702422152 0.52357266435986172 0.13992214532871974 0.29865916955017308
decision_type=2 2 2 2 2 2 2 2 2
left_child=1 3 6 7 8 -4 -2 -1 -3
right_child=2 4 5 -5 -6 -7 -8 -9 -10
leaf_value=-0.0015571717392427143 0.0014724621315440421 -0.00012871230078468599 0.003208119202784352 -0.00055236311824517325 0.00065325071573737298 0.0044253971572024951 0.0023142390859328091 -0.0010417907682720375 0.00020660958111522318
leaf_weight=1829 1810 4874 1071 8417 3823 511 1008 5457 2987
leaf_count=1829 1810 4874 1071 8417 3823 511 1008 5457 2987
internal_value=0 -0.00039052 0.00243072 -0.00083948 0.00021287 0.00360131 0.00177357 -0.00117117 -1.29766e-06
internal_weight=0 27387 4400 15703 11684 1582 2818 7286 7861
internal_count=31787 27387 4400 15703 11684 1582 2818 7286 7861
is_linear=0
shrinkage=0.01


Tree=16
num_leaves=10
num_cat=0
split_feature=23 23 23 23 23 23 23 23 3
split_gain=295.794 62.476 45.1599 12.5898 8.76762 6.80973 5.84941 2.35583 1.98486
threshold=0.3912197231833911 0.23507785467128031 0.58369377162629765 0.29865916955017308 0.16327854671280279 0.7182093425605538 0.46777681660899656 0.34926470588235298 0.44139273356401393
decision_type=2 2 2 2 2 2 2 2 2
left_child=1 4 6 -3 -1 -4 -2 -5 -8
right_child=2 3 5 7 -6 -7 8 -9 -10
leaf_value=-0.0013478042840540394 0.0010981058208843287 -0.00024529791863764838 0.00295024631856448 0.00021730821713399361 -0.00077240179872013195 0.0042047214038865559 0.0015425848511184358 0.00062729236459288463 0.0022533853739902308
leaf_weight=3857 1858 7885 1172 4194 8449 686 729 2105 852
leaf_count=3857 1858 7885 1172 4194 8449 686 729 2105 852
internal_value=0 -0.000431364 0.00215723 2.09861e-05 -0.000952747 0.00341342 0.00147854 0.000354317 0.00192563
internal_weight=0 26490 5297 14184 12306 1858 3439 6299 1581
internal_count=31787 26490 5297 14184 12306 1858 3439 6299 1581
is_linear=0
shrinkage=0.01


Tree=17
num_leaves=10
num_cat=0
split_feature=23 23 23 23 23 23 23 23 3
split_gain=289.945 65.3083 39.1953 12.6844 9.63135 5.651 5.45285 3.07743 1.90369
threshold=0.40160034602076128 0.25367647058823534 0.60099480968858143 0.1883650519031142 0.32158304498269902 0.50367647058823539 0.73378027681660907 0.13256920415224915 0.4115484429065745
decision_type=2 2 2 2 2 2 2 2 2
left_child=1 3 5 7 -3 8 -4 -1 -2
right_child=2 4 6 -5 -6 -7 -8 -9 -10
leaf_value=-0.0015906666561825798 0.00098126638635351185 -7.9241625933634713e-05 0.0030524442050216807 -0.00059203142252714589 0.00050536074774909035 0.0021375211470449967 0.0042436563665162342 -0.0010660982242610554 0.0015938982473181148
leaf_weight=1431 1068 7532 1072 8297 4503 1200 599 5119 966
leaf_count=1431 1068 7532 1072 8297 4503 1200 599 5119 966
internal_value=0 -0.000407964 0.00223586 -0.000851733 0.000139492 0.0015933 0.00347946 -0.0011807 0.00127222
internal_weight=0 26882 4905 14847 12035 3234 1671 6550 2034
internal_count=31787 26882 4905 14847 12035 3234 1671 6550 2034
is_linear=0
shrinkage=0.01


Tree=18
num_leaves=10
num_cat=0
split_feature=23 23 23 23 23 23 23 23 1
split_gain=284.227 69.9605 31.8868 14.1358 10.3763 4.87212 4.33025 3.45067 2.02281
threshold=0.4197664359861592 0.26016435986159175 0.60878027681660907 0.19485294117647062 0.3371539792387544 0.76578719723183397 0.52357266435986172 0.14424740484429069 0.29865916955017308
decision_type=2 2 2 2 2 2 2 2 2
left_child=1 3 6 7 8 -4 -2 -1 -3
right_child=2 4 5 -5 -6 -7 -8 -9 -10
leaf_value=-0.0014762869872909068 0.0014287676026231678 -0.00012648346146137287 0.0031595177927886062 -0.00053584398146893112 0.00063424394196504128 0.004412442756430158 0.0022465871682479269 -0.00099769011371346147 0.00020400477208014941
leaf_weight=2128 1810 4874 1158 8417 3823 424 1008 5158 2987
leaf_count=2128 1810 4874 1158 8417 3823 424 1008 5158 2987
internal_value=0 -0.00037902 0.00235914 -0.000814992 0.000206915 0.00349532 0.0017213 -0.00113747 -9.055e-07
internal_weight=0 27387 4400 15703 11684 1582 2818 7286 7861
internal_count=31787 27387 4400 15703 11684 1582 2818 7286 7861
is_linear=0
shrinkage=0.01


Tree=19
num_leaves=10
num_cat=0
split_feature=23 23 23 23 23 23 23 2 23
split_gain=278.689 58.0181 43.8767 11.4423 8.27748 7.69334 4.65582 2.1865 1.74579
threshold=0.3886245674740485 0.23507785467128031 0.5659602076124568 0.29865916955017308 0.16327854671280279 0.6926903114186852 0.46777681660899656 0.31163494809688591 0.20134083044982701
decision_type=2 2 2 2 2 2 2 2 2
left_child=1 4 6 -3 -1 -4 -2 -5 -6
right_child=2 3 5 7 8 -7 -8 -9 -10
leaf_value=-0.0013091016058163661 0.0010531751729711185 -0.00023794160748763282 0.0027010173541580679 0.00016528237930516328 -0.00089572876900119805 0.0039442327577110785 0.0018081417773518074 0.00054269694124725815 -0.00060821188051199155
leaf_weight=3857 1963 7885 1178 3386 4167 862 1399 2808 4282
leaf_count=3857 1963 7885 1178 3386 4167 862 1399 2808 4282
internal_value=0 -0.000423676 0.00206936 1.4729e-05 -0.000925245 0.00322634 0.00136733 0.00033638 -0.000750014
internal_weight=0 26385 5402 14079 12306 2040 3362 6194 8449
internal_count=31787 26385 5402 14079 12306 2040 3362 6194 8449
is_linear=0
shrinkage=0.01


Tree=20
num_leaves=10
num_cat=0
split_feature=23 23 23 23 23 23 23 1 2
split_gain=273.15 57.8009 41.6966 11.1164 8.54099 7.54025 4.30991 2.02615 1.90798
threshold=0.3912197231833911 0.23724048442906578 0.5659602076124568 0.30730968858131497 0.16717128027681663 0.6926903114186852 0.46777681660899656 0.27054498269896199 0.32893598615916958
decision_type=2 2 2 2 2 2 2 2 2
left_child=1 4 6 7 -1 -4 -2 -3 -5
right_child=2 3 5 8 -6 -7 -8 -9 -10
leaf_value=-0.0012702947390191284 0.0010551892696961007 -0.00033165627162010168 0.0026740071701173668 0.00023167109583809177 -0.00071938230043099049 0.0039047903289236214 0.00179006038796825 -1.921211783897527e-05 0.00061480421090489873
leaf_weight=4239 1858 4784 1178 3273 8372 862 1399 3666 2156
leaf_count=4239 1858 4784 1178 3273 8372 862 1399 3666 2156
internal_value=0 -0.000414524 0.00207301 3.07444e-05 -0.000904563 0.00319407 0.00137084 -0.000196104 0.000383823
internal_weight=0 26490 5297 13879 12611 2040 3257 8450 5429
internal_count=31787 26490 5297 13879 12611 2040 3257 8450 5429
is_linear=0
shrinkage=0.01


Tree=21
num_leaves=10
num_cat=0
split_feature=23 23 23 23 23 23 23 23 1
split_gain=267.75 66.02 30.1305 13.5483 9.62706 5.79933 3.35945 3.31152 1.87005
threshold=0.4197664359861592 0.2610294117647059 0.63602941176470607 0.19485294117647062 0.3371539792387544 0.52357266435986172 0.7824394463667822 0.13992214532871974 0.29779411764705888
decision_type=2 2 2 2 2 2 2 2 2
left_child=1 3 5 7 8 -2 -4 -1 -3
right_child=2 4 6 -5 -6 -7 -8 -9 -10
leaf_value=-0.0014727999660211421 0.0013864080841905174 -0.00012065966129284981 0.0032610233275242794 -0.00051734006162940365 0.00061671673057720779 0.0022660854638811199 0.0044171418904554874 -0.00098112935775135574 0.00019784637529072667
leaf_weight=1829 1810 4729 972 8528 3823 1279 339 5457 3021
leaf_count=1829 1810 4729 972 8528 3823 1279 339 5457 3021
internal_value=0 -0.00036787 0.00228974 -0.000787887 0.000206066 0.00175064 0.00355997 -0.00110455 3.49605e-06
internal_weight=0 27387 4400 15814 11573 3089 1311 7286 7750
internal_count=31787 27387 4400 15814 11573 3089 1311 7286 7750
is_linear=0
shrinkage=0.01


Tree=22
num_leaves=10
num_cat=0
split_feature=23 23 23 23 23 23 23 2 23
split_gain=262.526 54.7065 41.3154 10.7965 7.81227 7.26093 4.38118 2.11966 1.7016
threshold=0.3886245674740485 0.23507785467128031 0.5659602076124568 0.29779411764705888 0.16327854671280279 0.6926903114186852 0.46777681660899656 0.31163494809688591 0.097102076124567491
decision_type=2 2 2 2 2 2 2 2 2
left_child=1 4 6 -3 8 -4 -2 -5 -1
right_child=2 3 5 7 -6 -7 -8 -9 -10
leaf_value=-0.0018080314091639593 0.0010224757795623005 -0.0002347422713038003 0.0026208139538562557 0.00015586798162087965 -0.00072801489521526002 0.0038285856002513879 0.0017548373726604667 0.00052445213423013743 -0.0011889897284664559
leaf_weight=512 1963 7778 1178 3458 8449 862 1399 2843 3345
leaf_count=512 1963 7778 1178 3458 8449 862 1399 2843 3345
internal_value=0 -0.000411207 0.00200846 1.45027e-05 -0.000898251 0.00313116 0.00132723 0.000322172 -0.00127116
internal_weight=0 26385 5402 14079 12306 2040 3362 6301 3857
internal_count=31787 26385 5402 14079 12306 2040 3362 6301 3857
is_linear=0
shrinkage=0.01


Tree=23
num_leaves=10
num_cat=0
split_feature=23 23 23 23 23 23 23 2 23
split_gain=257.302 53.6179 40.4933 10.5836 7.65966 7.11643 4.294 2.03685 1.82954
threshold=0.3886245674740485 0.23507785467128031 0.5659602076124568 0.29865916955017308 0.16717128027681663 0.6926903114186852 0.46777681660899656 0.31163494809688591 0.11180795847750864
decision_type=2 2 2 2 2 2 2 2 2
left_child=1 4 6 -3 8 -4 -2 -5 -1
right_child=2 3 5 7 -6 -7 -8 -9 -10
leaf_value=-0.0016712696643711208 0.0010122510172916321 -0.00022864700600045199 0.0025946058230458778 0.00015856528740705196 -0.00070841734212718957 0.0037902997202497071 0.0017372889919812294 0.00052283522038359715 -0.0011348612715269444
leaf_weight=779 1963 7885 1178 3386 8067 862 1399 2808 3460
leaf_count=779 1963 7885 1178 3386 8067 862 1399 2808 3460
internal_value=0 -0.000407095 0.00198837 1.43577e-05 -0.000889269 0.00309985 0.00131395 0.000323704 -0.00123344
internal_weight=0 26385 5402 14079 12306 2040 3362 6194 4239
internal_count=31787 26385 5402 14079 12306 2040 3362 6194 4239
is_linear=0
shrinkage=0.01


Tree=24
num_leaves=10
num_cat=0
split_feature=23 23 23 23 23 23 23 23 1
split_gain=252.234 62.3018 28.4365 12.8289 9.10585 5.45702 3.22903 3.12284 1.78818
threshold=0.4197664359861592 0.2610294117647059 0.63602941176470607 0.19485294117647062 0.3371539792387544 0.52357266435986172 0.7824394463667822 0.13992214532871974 0.2848183391003461
decision_type=2 2 2 2 2 2 2 2 2
left_child=1 3 5 7 8 -2 -4 -1 -3
right_child=2 4 6 -5 -6 -7 -8 -9 -10
leaf_value=-0.0014308158951893473 0.0013453606191549184 -0.00013799796672740421 0.0031633267090215114 -0.00050180496021978477 0.00059986757616336834 0.0021986809518534847 0.0042967816273019729 -0.0009533572934031355 0.00016656813876826264
leaf_weight=1829 1810 4150 972 8528 3823 1279 339 5457 3600
leaf_count=1829 1810 4150 972 8528 3823 1279 339 5457 3600
internal_value=0 -0.000357052 0.0022224 -0.000765071 0.000200488 0.00169868 0.00345642 -0.00107321 3.4779e-06
internal_weight=0 27387 4400 15814 11573 3089 1311 7286 7750
internal_count=31787 27387 4400 15814 11573 3089 1311 7286 7750
is_linear=0
shrinkage=0.01


Tree=25
num_leaves=10
num_cat=0
split_feature=23 23 23 23 23 23 23 2 3
split_gain=247.283 51.5719 38.9196 10.175 7.37182 5.80526 5.15309 2.01226 1.91221
threshold=0.3886245674740485 0.23507785467128031 0.58369377162629765 0.29779411764705888 0.16327854671280279 0.7182093425605538 0.46777681660899656 0.31163494809688591 0.4621539792387544
decision_type=2 2 2 2 2 2 2 2 2
left_child=1 4 6 -3 -1 -4 -2 -5 -8
right_child=2 3 5 7 -6 -7 8 -9 -10
leaf_value=-0.0012342234832467211 0.00099248022549385732 -0.00022772152955478927 0.0026939072681164988 0.00015088973986114218 -0.00070660710075053101 0.0038521722819297721 0.0014040206765025892 0.0005100151724821985 0.0020997468703472526
leaf_weight=3857 1963 7778 1172 3458 8449 686 773 2843 808
leaf_count=3857 1963 7778 1172 3458 8449 686 773 2843 808
internal_value=0 -0.00039909 0.00194928 1.42433e-05 -0.000871975 0.00312156 0.00133469 0.000312926 0.00175958
internal_weight=0 26385 5402 14079 12306 1858 3544 6301 1581
internal_count=31787 26385 5402 14079 12306 1858 3544 6301 1581
is_linear=0
shrinkage=0.01


Tree=26
num_leaves=10
num_cat=0
split_feature=23 23 23 23 23 23 23 23 3
split_gain=242.384 54.8514 32.8606 10.7132 8.13232 4.73611 4.70107 2.69455 1.81982
threshold=0.40160034602076128 0.25367647058823534 0.60099480968858143 0.1883650519031142 0.32288062283737029 0.50367647058823539 0.76578719723183397 0.12175605536332181 0.4115484429065745
decision_type=2 2 2 2 2 2 2 2 2
left_child=1 3 5 7 -3 8 -4 -1 -2
right_child=2 4 6 -5 -6 -7 -8 -9 -10
leaf_value=-0.0015499533610022899 0.00087750952344645887 -6.8624380109111381e-05 0.0028736610815777433 -0.00054102808720437711 0.00047113394300133884 0.0019541467760379118 0.0040925682427467042 -0.00099411221789273826 0.0014764945521009759
leaf_weight=1036 1068 7635 1247 8297 4400 1200 424 5514 966
leaf_count=1036 1068 7635 1247 8297 4400 1200 424 5514 966
internal_value=0 -0.000373006 0.00204427 -0.000779699 0.000128711 0.00145592 0.00318295 -0.00108203 0.00116198
internal_weight=0 26882 4905 14847 12035 3234 1671 6550 2034
internal_count=31787 26882 4905 14847 12035 3234 1671 6550 2034
is_linear=0
shrinkage=0.01


Tree=27
num_leaves=10
num_cat=0
split_feature=23 23 23 23 23 23 2 2 23
split_gain=237.614 49.5998 37.4102 9.79126 7.1009 6.6274 3.97857 1.96799 1.73251
threshold=0.3886245674740485 0.23507785467128031 0.5659602076124568 0.29779411764705888 0.16717128027681663 0.6926903114186852 0.4115484429065745 0.32893598615916958 0.11180795847750864
decision_type=2 2 2 2 2 2 2 2 2
left_child=1 4 6 -3 8 -4 -2 -5 -1
right_child=2 3 5 7 -6 -7 -8 -9 -10
leaf_value=-0.0016124070584965303 0.00091109877115392939 -0.00022321477288119983 0.0024915380464749746 0.00017033374310436827 -0.00068083523333626347 0.003645416949367855 0.0015992660850208376 0.00053544034093467219 -0.0010904164132312199
leaf_weight=779 1645 7778 1178 3940 8067 862 1717 2361 3460
leaf_count=779 1645 7778 1178 3940 8067 862 1717 2361 3460
internal_value=0 -0.00039121 0.00191079 1.41434e-05 -0.000854965 0.00297911 0.00126255 0.00030714 -0.00118634
internal_weight=0 26385 5402 14079 12306 2040 3362 6301 4239
internal_count=31787 26385 5402 14079 12306 2040 3362 6301 4239
is_linear=0
shrinkage=0.01


Tree=28
num_leaves=10
num_cat=0
split_feature=23 23 23 23 23 23 23 23 2
split_gain=233.024 57.6329 26.3594 11.9162 8.45009 5.56445 2.91251 2.66029 1.77044
threshold=0.4197664359861592 0.2610294117647059 0.64770761245674757 0.19485294117647062 0.3388840830449828 0.52357266435986172 0.13992214532871974 0.7824394463667822 0.28352076124567477
decision_type=2 2 2 2 2 2 2 2 2
left_child=1 3 5 6 8 -2 -1 -4 -3
right_child=2 4 7 -5 -6 -7 -8 -9 -10
leaf_value=-0.0013779485223233343 0.0012925631864130168 -0.00012681318733078197 0.0030956223598615925 -0.00048189019417616778 0.00058612594523261468 0.0021374824972397398 -0.00091684959788576506 0.0041379122660223358 0.00017527472436612402
leaf_weight=1829 1810 4370 882 8528 3714 1369 5457 339 3489
leaf_count=1829 1810 4370 882 8528 3714 1369 5457 339 3489
internal_value=0 -0.000343186 0.0021361 -0.000735619 0.000193056 0.00165642 -0.0010326 0.00338501 7.29862e-06
internal_weight=0 27387 4400 15814 11573 3179 7286 1221 7859
internal_count=31787 27387 4400 15814 11573 3179 7286 1221 7859
is_linear=0
shrinkage=0.01


Tree=29
num_leaves=10
num_cat=0
split_feature=23 23 23 23 23 23 23 23 2
split_gain=228.387 56.486 25.8349 11.6791 8.28193 5.45371 2.859 2.60735 1.73569
threshold=0.4197664359861592 0.2610294117647059 0.64770761245674757 0.19485294117647062 0.3388840830449828 0.52357266435986172 0.13256920415224915 0.7824394463667822 0.29260380622837373
decision_type=2 2 2 2 2 2 2 2 2
left_child=1 3 5 6 8 -2 -1 -4 -3
right_child=2 4 7 -5 -6 -7 -8 -9 -10
leaf_value=-0.0014229608294869702 0.0012796375753553533 -0.00011441774771218343 0.0030646661219615786 -0.00047707129714388846 0.00058026467826541902 0.0021161076761754957 -0.00092434228408722215 0.004096533209525027 0.00018878407966821327
leaf_weight=1431 1810 4706 882 8528 3714 1369 5855 339 3153
leaf_count=1431 1810 4706 882 8528 3714 1369 5855 339 3153
internal_value=0 -0.000339754 0.00211474 -0.000728263 0.000191125 0.00163985 -0.00102227 0.00335116 7.22564e-06
internal_weight=0 27387 4400 15814 11573 3179 7286 1221 7859
internal_count=31787 27387 4400 15814 11573 3179 7286 1221 7859
is_linear=0
shrinkage=0.01


Tree=30
num_leaves=10
num_cat=0
split_feature=23 23 23 23 23 23 23 2 4
split_gain=223.916 46.8429 35.2556 9.87771 6.21619 5.30527 4.72372 1.88311 1.83027
threshold=0.3886245674740485 0.23161764705882357 0.58369377162629765 0.29779411764705888 0.16327854671280279 0.7182093425605538 0.46777681660899656 0.32893598615916958 0.44139273356401393
decision_type=2 2 2 2 2 2 2 2 2
left_child=1 4 6 -3 -1 -4 -2 -5 -8
right_child=2 3 5 7 -6 -7 8 -9 -10
leaf_value=-0.0011760402896574566 0.00094230804265957367 -0.00022734101644790387 0.0025618108556488268 0.0001649249293035076 -0.00068725838714083594 0.0036690732832378964 0.0013380175964057596 0.00052207177114972354 0.0020185138279006473
leaf_weight=3857 1963 8231 1172 3940 7996 686 794 2361 787
leaf_count=3857 1963 8231 1172 3940 7996 686 794 2361 787
internal_value=0 -0.000379766 0.00185489 7.6877e-07 -0.000846309 0.00297063 0.00126995 0.000298749 0.00167676
internal_weight=0 26385 5402 14532 11853 1858 3544 6301 1581
internal_count=31787 26385 5402 14532 11853 1858 3544 6301 1581
is_linear=0
shrinkage=0.01


Tree=31
num_leaves=10
num_cat=0
split_feature=23 23 23 23 23 23 2 23 1
split_gain=219.46 45.9144 34.5704 8.09507 7.45081 6.14225 3.79957 1.79019 1.69122
threshold=0.3886245674740485 0.24070069204152253 0.5659602076124568 0.30730968858131497 0.17106401384083048 0.6926903114186852 0.4115484429065745 0.11180795847750864 0.26924740484429072
decision_type=2 2 2 2 2 2 2 2 2
left_child=1 4 6 8 7 -4 -2 -1 -3
right_child=2 3 5 -5 -6 -7 -8 -9 -10
leaf_value=-0.0015565134841226645 0.0008697414172071635 -0.00029585125326730288 0.0023939305839266356 0.00033900454810934123 -0.00062009567655434334 0.0035047728305557212 0.0015422499739067563 -0.0010310040514217812 -3.7995350171845935e-06
leaf_weight=779 1645 4396 1178 5324 8412 862 1717 3862 3612
leaf_count=779 1645 4396 1178 5324 8412 862 1717 3862 3612
internal_value=0 -0.000375969 0.00183634 3.67967e-05 -0.000797557 0.00286332 0.0012132 -0.00111921 -0.000164122
internal_weight=0 26385 5402 13332 13053 2040 3362 4641 8008
internal_count=31787 26385 5402 13332 13053 2040 3362 4641 8008
is_linear=0
shrinkage=0.01


Tree=32
num_leaves=10
num_cat=0
split_feature=23 23 23 23 23 23 23 23 1
split_gain=215.225 53.2844 24.3812 10.5174 8.26714 5.14618 2.66128 2.49955 1.73807
threshold=0.4197664359861592 0.25843425605536335 0.64770761245674757 0.19355536332179932 0.3371539792387544 0.52357266435986172 0.12954152249134951 0.7824394463667822 0.2848183391003461
decision_type=2 2 2 2 2 2 2 2 2
left_child=1 3 5 6 8 -2 -1 -4 -3
right_child=2 4 7 -5 -6 -7 -8 -9 -10
leaf_value=-0.0014088104178546479 0.0012416528918013719 -0.00014264070877321647 0.0029735188647395088 -0.00047562100758368403 0.00055598565748845609 0.0020541967429258774 -0.00090776070408413428 0.0039838294909063697 0.00015153873415325639
leaf_weight=1295 1810 4397 882 8332 3823 1369 5843 339 3697
leaf_count=1295 1810 4397 882 8332 3823 1369 5843 339 3697
internal_value=0 -0.000329819 0.0020529 -0.000716957 0.000172743 0.00159157 -0.000998663 0.00325402 -8.27187e-06
internal_weight=0 27387 4400 15470 11917 3179 7138 1221 8094
internal_count=31787 27387 4400 15470 11917 3179 7138 1221 8094
is_linear=0
shrinkage=0.01


Tree=33
num_leaves=10
num_cat=0
split_feature=23 23 23 23 23 23 23 23 1
split_gain=210.946 50.4825 25.751 9.39537 8.19794 3.82332 3.79564 2.22504 1.72504
threshold=0.4115484429065745 0.25367647058823534 0.60878027681660907 0.18447231833910036 0.32763840830449836 0.76578719723183397 0.50367647058823539 0.11699826989619379 0.22685986159169552
decision_type=2 2 2 2 2 2 2 2 2
left_child=1 3 6 7 -3 -4 -2 -1 -5
right_child=2 4 5 8 -6 -7 -8 -9 -10
leaf_value=-0.0014860196581463194 0.001132315807790429 -5.2130051768484231e-05 0.0027175436742822535 -0.00065534056692143604 0.00048752608684691671 0.003827450484177976 0.0018497809655010655 -0.00094937613868165019 -0.00037457077266332277
leaf_weight=908 1723 8004 1158 4472 4342 424 1289 5182 4285
leaf_count=908 1723 8004 1158 4472 4342 424 1289 5182 4285
internal_value=0 -0.000334833 0.00198196 -0.000727736 0.000137663 0.00301502 0.00143936 -0.00102939 -0.000517953
internal_weight=0 27193 4594 14847 12346 1582 3012 6090 8757
internal_count=31787 27193 4594 14847 12346 1582 3012 6090 8757
is_linear=0
shrinkage=0.01


Tree=34
num_leaves=10
num_cat=0
split_feature=23 23 23 23 23 23 2 2 23
split_gain=206.812 43.3726 32.5677 9.18385 5.81167 5.76316 3.66921 2.08769 1.54483
threshold=0.3886245674740485 0.23161764705882357 0.5659602076124568 0.29000865051903119 0.6926903114186852 0.16327854671280279 0.4115484429065745 0.30255190311418695 0.45653114186851212
decision_type=2 2 2 2 2 2 2 2 2
left_child=1 5 6 -3 -4 -1 -2 -5 -8
right_child=2 3 4 7 -6 -7 8 -9 -10
leaf_value=-0.0011313914481066564 0.00084030333459150829 -0.00024563687596634707 0.0023228460570547498 9.2253582106196605e-05 0.0034033817640590006 -0.00066075759198480622 0.0011494699151694445 0.00043463728894538583 0.0017569927285637113
leaf_weight=3857 1645 7399 1178 3696 862 7996 723 3437 994
leaf_count=3857 1645 7399 1178 3696 862 7996 723 3437 994
internal_value=0 -0.000364974 0.00178264 1.19394e-06 0.00277943 -0.000813903 0.00117782 0.000257229 0.00150118
internal_weight=0 26385 5402 14532 2040 11853 3362 7133 1717
internal_count=31787 26385 5402 14532 2040 11853 3362 7133 1717
is_linear=0
shrinkage=0.01


Tree=35
num_leaves=10
num_cat=0
split_feature=23 23 23 23 23 23 23 23 1
split_gain=202.733 50.2543 23.022 11.9315 6.29225 4.8443 2.72888 2.37965 1.7941
threshold=0.4197664359861592 0.26838235294117652 0.64770761245674757 0.19744809688581316 0.34580449826989629 0.52357266435986172 0.14597750865051906 0.7824394463667822 0.24805363321799309
decision_type=2 2 2 2 2 2 2 2 2
left_child=1 3 5 6 -3 -2 -1 -4 -5
right_child=2 4 7 8 -6 -7 -8 -9 -10
leaf_value=-0.0012462811338640187 0.001204647365638482 5.718835106087298e-05 0.0028859028982129498 -0.00053506196760547608 0.00058616345997909594 0.0019929983263863886 -0.00083123364650027455 0.003871682755715024 -0.00025104539537960577
leaf_weight=2258 1810 7381 882 5447 3234 1369 5308 339 3759
leaf_count=2258 1810 7381 882 5447 3234 1369 5308 339 3759
internal_value=0 -0.000320104 0.00199243 -0.00066089 0.000218348 0.00154414 -0.000955101 0.0031596 -0.000419092
internal_weight=0 27387 4400 16772 10615 3179 7566 1221 9206
internal_count=31787 27387 4400 16772 10615 3179 7566 1221 9206
is_linear=0
shrinkage=0.01


Tree=36
num_leaves=10
num_cat=0
split_feature=23 23 23 23 23 23 23 2 4
split_gain=198.741 42.38 30.4136 9.14969 5.53968 4.76119 4.03397 1.83928 1.73228
threshold=0.3912197231833911 0.23161764705882357 0.58369377162629765 0.29865916955017308 0.16327854671280279 0.7182093425605538 0.46777681660899656 0.32893598615916958 0.44139273356401393
decision_type=2 2 2 2 2 2 2 2 2
left_child=1 4 6 -3 -1 -4 -2 -5 -8
right_child=2 3 5 7 -6 -7 8 -9 -10
leaf_value=-0.0011093353926227567 0.00089536131776676809 -0.00021095743815103477 0.0024118577724532467 0.00016012365314621891 -0.00064791646605913205 0.0034608072492106662 0.0012530283599397549 0.00051210317377284082 0.0019150585992193131
leaf_weight=3857 1858 8338 1172 3903 7996 686 794 2396 787
leaf_count=3857 1858 8338 1172 3903 7996 686 794 2396 787
internal_value=0 -0.000353584 0.00176826 6.35367e-06 -0.000798064 0.00279914 0.00121129 0.000294009 0.00158258
internal_weight=0 26490 5297 14637 11853 1858 3439 6299 1581
internal_count=31787 26490 5297 14637 11853 1858 3439 6299 1581
is_linear=0
shrinkage=0.01


Tree=37
num_leaves=10
num_cat=0
split_feature=23 23 23 23 23 23 23 2 4
split_gain=194.798 40.8931 30.6944 8.88605 5.2916 4.66876 4.17507 2.00268 1.69781
threshold=0.3886245674740485 0.23032006920415227 0.58369377162629765 0.29000865051903119 0.1563581314878893 0.73378027681660907 0.46777681660899656 0.30255190311418695 0.44139273356401393
decision_type=2 2 2 2 2 2 2 2 2
left_child=1 4 6 -3 -1 -4 -2 -5 -8
right_child=2 3 5 7 -6 -7 8 -9 -10
leaf_value=-0.0011442456628336624 0.00087626929812406596 -0.00024190394596726903 0.0024253904736638542 8.8583427770367863e-05 -0.00066573936135774943 0.0034978904752978103 0.0012404980728642017 0.00042392398249203731 0.0018959080173931023
leaf_weight=3171 1963 7559 1259 3696 8522 599 794 3437 787
leaf_count=3171 1963 7559 1259 3696 8522 599 794 3437 787
internal_value=0 -0.000354215 0.00173009 -3.00305e-06 -0.000795504 0.00277115 0.0011843 0.000250166 0.00156675
internal_weight=0 26385 5402 14692 11693 1858 3544 7133 1581
internal_count=31787 26385 5402 14692 11693 1858 3544 7133 1581
is_linear=0
shrinkage=0.01


Tree=38
num_leaves=10
num_cat=0
split_feature=23 23 23 23 23 23 23 23 2
split_gain=190.977 47.4433 21.7581 9.90583 7.03089 4.55936 2.58939 2.2662 1.60866
threshold=0.4197664359861592 0.2610294117647059 0.64770761245674757 0.19744809688581316 0.34061418685121109 0.52357266435986172 0.12954152249134951 0.7824394463667822 0.27184256055363326
decision_type=2 2 2 2 2 2 2 2 2
left_child=1 3 5 6 8 -2 -1 -4 -3
right_child=2 4 7 -5 -6 -7 -8 -9 -10
leaf_value=-0.0013351533013075936 0.0011686306571927518 -0.00013219737789931416 0.0028013829876776452 -0.00042703103857325085 0.00054340061336063581 0.0019334457055485274 -0.00084398707573491751 0.0037633790229625757 0.00015171593684125073
leaf_weight=1295 1810 3969 882 8248 3590 1369 6271 339 4014
leaf_count=1295 1810 3969 882 8248 3590 1369 6271 339 4014
internal_value=0 -0.000310684 0.0019338 -0.00066674 0.000175849 0.00149799 -0.000928055 0.00306847 1.05595e-05
internal_weight=0 27387 4400 15814 11573 3179 7566 1221 7983
internal_count=31787 27387 4400 15814 11573 3179 7566 1221 7983
is_linear=0
shrinkage=0.01


Tree=39
num_leaves=10
num_cat=0
split_feature=23 23 23 23 23 23 2 2 1
split_gain=187.207 38.1467 31.2178 7.995 5.29722 5.10195 3.72996 1.82219 1.48777
threshold=0.38386678200692048 0.23032006920415227 0.5659602076124568 0.29000865051903119 0.6926903114186852 0.15895328719723187 0.4115484429065745 0.33066608996539798 0.20523356401384085
decision_type=2 2 2 2 2 2 2 2 2
left_child=1 5 6 -3 -4 -1 -2 -5 -7
right_child=2 3 4 7 -6 8 -8 -9 -10
leaf_value=-0.0011039135602873573 0.00077430976008554446 -0.00023711557765222684 0.0022090388053367218 0.00011498638943966655 0.0032406420929664247 -0.00078430743896313465 0.0014210940159696684 0.00045571942836778915 -0.00051569553695343748
leaf_weight=3435 1804 7559 1178 4525 862 3985 1763 2403 4273
leaf_count=3435 1804 7559 1178 4525 862 3985 1763 2403 4273
internal_value=0 -0.000355154 0.00165827 -1.22144e-05 0.00264494 -0.000780037 0.00109398 0.000233171 -0.000645318
internal_weight=0 26180 5607 14487 2040 11693 3567 6928 8258
internal_count=31787 26180 5607 14487 2040 11693 3567 6928 8258
is_linear=0
shrinkage=0.01


Tree=40
num_leaves=10
num_cat=0
split_feature=23 23 23 23 23 23 23 23 1
split_gain=183.584 45.6166 20.9128 10.8705 5.74784 4.38839 2.50969 2.20157 1.71868
threshold=0.4197664359861592 0.26838235294117652 0.64770761245674757 0.19744809688581316 0.34926470588235298 0.52357266435986172 0.13775951557093427 0.7824394463667822 0.24805363321799309
decision_type=2 2 2 2 2 2 2 2 2
left_child=1 3 5 6 -3 -2 -1 -4 -5
right_child=2 4 7 8 -6 -7 -8 -9 -10
leaf_value=-0.0012489473543850318 0.0011456135601340407 6.2270172668943175e-05 0.0027451616441176324 -0.0005120019426595266 0.00057895900585618043 0.0018959518316303229 -0.00081221875036769948 0.00369333879697991 -0.00023401899103183394
leaf_weight=1696 1810 7613 882 5447 3002 1369 5870 339 3759
leaf_count=1696 1810 7613 882 5447 3002 1369 5870 339 3759
internal_value=0 -0.000304611 0.001896 -0.000629292 0.000208394 0.00146874 -0.000910116 0.00300841 -0.000398496
internal_weight=0 27387 4400 16772 10615 3179 7566 1221 9206
internal_count=31787 27387 4400 16772 10615 3179 7566 1221 9206
is_linear=0
shrinkage=0.01


Tree=41
num_leaves=10
num_cat=0
split_feature=23 23 23 23 23 23 3 4 2
split_gain=179.934 34.9723 32.5411 7.06996 5.91531 4.788 3.46324 1.69463 1.62354
threshold=0.37651384083044986 0.22902249134948099 0.55211937716262982 0.28741349480968864 0.6926903114186852 0.1563581314878893 0.4115484429065745 0.44571799307958487 0.29865916955017308
decision_type=2 2 2 2 2 2 2 2 2
left_child=1 5 6 -3 7 -1 -2 -4 -5
right_child=2 3 4 8 -6 -7 -8 -9 -10
leaf_value=-0.0011008603176914417 0.00072611693806930069 -0.00024410519408346644 0.0017112156778114707 5.4112177039833592e-05 0.0031770551503741825 -0.00064452838886946333 0.0013416645341178673 0.0024247435024080349 0.00036139685685604011
leaf_weight=3171 2068 7433 584 3609 862 8364 1638 774 3284
leaf_count=3171 2068 7433 584 3609 862 8364 1638 774 3284
internal_value=0 -0.000360155 0.00157171 -3.0177e-05 0.00252915 -0.000769975 0.00099818 0.0021179 0.00020051
internal_weight=0 25861 5926 14326 2220 11535 3706 1358 6893
internal_count=31787 25861 5926 14326 2220 11535 3706 1358 6893
is_linear=0
shrinkage=0.01


Tree=42
num_leaves=10
num_cat=0
split_feature=23 23 23 23 23 23 23 23 1
split_gain=176.498 43.844 20.105 9.05083 6.62432 3.80336 2.4231 2.30709 1.51867
threshold=0.4197664359861592 0.26016435986159175 0.63602941176470607 0.19355536332179932 0.3336937716262976 0.52357266435986172 0.7824394463667822 0.12175605536332181 0.23507785467128031
decision_type=2 2 2 2 2 2 2 2 2
left_child=1 3 5 7 -3 -2 -4 -1 -5
right_child=2 4 6 8 -6 -7 -8 -9 -10
leaf_value=-0.0013431070857900683 0.0011237130999225528 -9.009253774357722e-06 0.0026427647287462965 -0.00054984276080247661 0.00049066648461116604 0.001836103228990504 0.0036246349080122325 -0.00083271459490007389 -0.00028302109334984456
leaf_weight=1036 1810 7611 972 4546 4073 1279 339 6102 4019
leaf_count=1036 1810 7611 972 4546 4073 1279 339 6102 4019
internal_value=0 -0.000298675 0.00185905 -0.000643809 0.000165176 0.00141868 0.00289666 -0.000906792 -0.000424641
internal_weight=0 27387 4400 15703 11684 3089 1311 7138 8565
internal_count=31787 27387 4400 15703 11684 3089 1311 7138 8565
is_linear=0
shrinkage=0.01


Tree=43
num_leaves=10
num_cat=0
split_feature=23 23 23 23 23 23 23 23 1
split_gain=172.986 42.9968 19.7088 10.2681 5.42468 4.12306 2.38882 2.09461 1.64866
threshold=0.4197664359861592 0.26838235294117652 0.64770761245674757 0.19744809688581316 0.34926470588235298 0.52357266435986172 0.12954152249134951 0.802551903114187 0.24805363321799309
decision_type=2 2 2 2 2 2 2 2 2
left_child=1 3 5 6 -3 -2 -1 -4 -5
right_child=2 4 7 8 -6 -7 -8 -9 -10
leaf_value=-0.0012748542738409577 0.0011124759664223915 6.041163866490809e-05 0.0027081038902254605 -0.00049776752274700538 0.00056236540961779379 0.0018397765015058052 -0.00080309337431621664 0.0037285239091069677 -0.00022550607067474423
leaf_weight=1295 1810 7613 967 5447 3002 1369 6271 254 3759
leaf_count=1295 1810 7613 967 5447 3002 1369 6271 254 3759
internal_value=0 -0.000295688 0.00184046 -0.000610908 0.000202368 0.00142568 -0.00088384 0.00292038 -0.000386598
internal_weight=0 27387 4400 16772 10615 3179 7566 1221 9206
internal_count=31787 27387 4400 16772 10615 3179 7566 1221 9206
is_linear=0
shrinkage=0.01


Tree=44
num_leaves=10
num_cat=0
split_feature=23 23 23 23 23 23 3 4 2
split_gain=169.579 33.0036 30.6419 6.67753 5.59313 4.53835 3.35358 1.65661 1.53068
threshold=0.37651384083044986 0.22902249134948099 0.55211937716262982 0.28871107266435991 0.6926903114186852 0.1563581314878893 0.4115484429065745 0.45090830449826996 0.29260380622837373
decision_type=2 2 2 2 2 2 2 2 2
left_child=1 5 6 -3 7 -1 -2 -4 -5
right_child=2 3 4 8 -6 -7 -8 -9 -10
leaf_value=-0.0010698995201868125 0.00070154944203507585 -0.00023275503862036105 0.0016600692580960343 4.5202087412385712e-05 0.0030849075844628076 -0.0006256235870587296 0.0013072738284301991 0.002363886455773056 0.00034656769574351168
leaf_weight=3171 2068 7580 596 3286 862 8364 1638 762 3460
leaf_count=3171 2068 7580 596 3286 862 8364 1638 762 3460
internal_value=0 -0.000349638 0.00152582 -2.90817e-05 0.0024549 -0.000747756 0.000969271 0.00205499 0.000199771
internal_weight=0 25861 5926 14326 2220 11535 3706 1358 6746
internal_count=31787 25861 5926 14326 2220 11535 3706 1358 6746
is_linear=0
shrinkage=0.01


Tree=45
num_leaves=10
num_cat=0
split_feature=23 23 23 23 23 2 23 23 23
split_gain=166.308 41.3282 18.9454 7.56641 7.15043 3.69015 2.31131 1.83299 1.7174
threshold=0.4197664359861592 0.25367647058823534 0.63602941176470607 0.18144463667820071 0.33066608996539798 0.44139273356401393 0.7824394463667822 0.11180795847750864 0.51751730103806237
decision_type=2 2 2 2 2 2 2 2 2
left_child=1 3 5 7 -3 -2 -4 -1 -7
right_child=2 4 6 -5 -6 8 -8 -9 -10
leaf_value=-0.001380920152303037 0.00097909527513793254 -3.9673959734568691e-05 0.0025638594504430461 -0.00046671814821186517 0.00046343893629292399 0.0013427132518007989 0.0035228126757616139 -0.00085942249037139126 0.0019687708504458417
leaf_weight=779 1328 8242 972 9068 4298 820 339 5000 941
leaf_count=779 1328 8242 972 9068 4298 820 339 5000 941
internal_value=0 -0.000289925 0.00180459 -0.000646935 0.000132765 0.0013771 0.00281183 -0.00092972 0.00167725
internal_weight=0 27387 4400 14847 12540 3089 1311 5779 1761
internal_count=31787 27387 4400 14847 12540 3089 1311 5779 1761
is_linear=0
shrinkage=0.01


Tree=46
num_leaves=10
num_cat=0
split_feature=23 23 23 23 23 23 23 23 4
split_gain=163.038 37.1993 22.2623 6.75576 6.30204 3.70123 3.08064 1.67017 1.59066
threshold=0.40160034602076128 0.24545847750865055 0.60878027681660907 0.31379757785467133 0.17625432525951559 0.49026816608996543 0.76578719723183397 0.097102076124567491 0.44139273356401393
decision_type=2 2 2 2 2 2 2 2 2
left_child=1 4 5 -3 7 -2 -4 -1 -7
right_child=2 3 6 -5 -6 8 -8 -9 -10
leaf_value=-0.0014857923844829202 0.00091432759186563977 -0.00010941584463869954 0.0023859810207637481 0.00035402353383115254 -0.00050211764038235549 0.0012508519825715464 0.0033822731863496435 -0.00088439348666808433 0.0019086557804668944
leaf_weight=512 1852 7931 1158 5213 8518 721 424 4708 750
leaf_count=512 1852 7931 1158 5213 8518 721 424 4708 750
internal_value=0 -0.00030592 0.0016766 7.43874e-05 -0.000669784 0.00121176 0.002653 -0.000943381 0.00158624
internal_weight=0 26882 4905 13144 13738 3323 1582 5220 1471
internal_count=31787 26882 4905 13144 13738 3323 1582 5220 1471
is_linear=0
shrinkage=0.01


Tree=47
num_leaves=10
num_cat=0
split_feature=23 23 23 23 23 23 3 4 2
split_gain=159.866 31.1531 28.867 6.30512 5.28893 4.29086 3.2051 1.58767 1.53015
threshold=0.37651384083044986 0.22902249134948099 0.55211937716262982 0.28741349480968864 0.6926903114186852 0.1563581314878893 0.4115484429065745 0.45090830449826996 0.29865916955017308
decision_type=2 2 2 2 2 2 2 2 2
left_child=1 5 6 -3 7 -1 -2 -4 -5
right_child=2 3 4 8 -6 -7 -8 -9 -10
leaf_value=-0.0010395101832242953 0.00067956467270117635 -0.0002300639894609289 0.0016077540201078725 4.7688660158560563e-05 0.002995888364356521 -0.00060751800005071901 0.0012717276946493676 0.0022967706997133303 0.00034600440808682986
leaf_weight=3171 2068 7433 596 3609 862 8364 1638 762 3284
leaf_count=3171 2068 7433 596 3609 862 8364 1638 762 3284
internal_value=0 -0.000339478 0.00148148 -2.80384e-05 0.00238325 -0.000726274 0.000941292 0.00199437 0.000189814
internal_weight=0 25861 5926 14326 2220 11535 3706 1358 6893
internal_count=31787 25861 5926 14326 2220 11535 3706 1358 6893
is_linear=0
shrinkage=0.01


Tree=48
num_leaves=10
num_cat=0
split_feature=23 23 23 23 23 2 23 23 1
split_gain=156.773 40.478 16.5867 9.39216 5.437 3.44791 2.25104 1.95585 1.55436
threshold=0.42755190311418695 0.26838235294117652 0.64770761245674757 0.19874567474048446 0.34926470588235298 0.44139273356401393 0.14424740484429069 0.802551903114187 0.23983564013840833
decision_type=2 2 2 2 2 2 2 2 2
left_child=1 3 5 6 -3 -2 -1 -4 -5
right_child=2 4 7 8 -6 -7 -8 -9 -10
leaf_value=-0.0011149329781406244 0.00099179796709861104 5.7633077391720591e-05 0.0025753388169386274 -0.00048577074847841922 0.00054904242200589498 0.0016821216695810609 -0.00073273832782449881 0.00356137996759471 -0.0002231611397035582
leaf_weight=2128 1233 7613 967 4835 3197 1751 5587 254 4222
leaf_count=2128 1233 7613 967 4835 3197 1751 5587 254 4222
internal_value=0 -0.000274209 0.00179863 -0.00058176 0.000202965 0.00139688 -0.000838158 0.00278046 -0.000363353
internal_weight=0 27582 4205 16772 10810 2984 7715 1221 9057
internal_count=31787 27582 4205 16772 10810 2984 7715 1221 9057
is_linear=0
shrinkage=0.01


Tree=49
num_leaves=10
num_cat=0
split_feature=23 23 23 23 23 2 23 23 1
split_gain=153.653 39.6725 16.2566 9.20526 5.32881 3.3793 2.21863 1.91692 1.52343
threshold=0.42755190311418695 0.26838235294117652 0.64770761245674757 0.19874567474048446 0.34926470588235298 0.44139273356401393 0.12175605536332181 0.802551903114187 0.23983564013840833
decision_type=2 2 2 2 2 2 2 2 2
left_child=1 3 5 6 -3 -2 -1 -4 -5
right_child=2 4 7 8 -6 -7 -8 -9 -10
leaf_value=-0.0012603524200704567 0.00098187997855626744 5.7056748591668611e-05 0.0025495854379164276 -0.00048091304028281416 0.00054355200106556863 0.0016653004712369325 -0.00076298809251243774 0.0035257661917547541 -0.00022092952905841367
leaf_weight=1036 1233 7613 967 4835 3197 1751 6679 254 4222
leaf_count=1036 1233 7613 967 4835 3197 1751 6679 254 4222
internal_value=0 -0.000271467 0.00178064 -0.000575942 0.000200935 0.00138291 -0.000829776 0.00275266 -0.000359719
internal_weight=0 27582 4205 16772 10810 2984 7715 1221 9057
internal_count=31787 27582 4205 16772 10810 2984 7715 1221 9057
is_linear=0
shrinkage=0.01


Tree=50
num_leaves=10
num_cat=0
split_feature=23 23 23 23 23 23 3 3 1
split_gain=150.651 31.7938 23.8665 6.94557 4.18234 3.70464 3.42362 1.61443 1.50794
threshold=0.3886245674740485 0.23032006920415227 0.58369377162629765 0.29865916955017308 0.16327854671280279 0.74978373702422152 0.4115484429065745 0.50973183391003474 0.26751730103806232
decision_type=2 2 2 2 2 2 2 2 2
left_child=1 4 6 8 -1 7 -2 -4 -3
right_child=2 3 5 -5 -6 -7 -8 -9 -10
leaf_value=-0.00097017818213374562 0.00073597758849992714 -0.00030104495984622511 0.0017608468811273993 0.00025285491739516055 -0.00056792382200001159 0.0031644397997342912 0.0013577422190236299 0.0024614061215489183 -3.1241415432997622e-05
leaf_weight=3857 1810 4920 571 6194 7836 511 1734 776 3578
leaf_count=3857 1810 4920 571 6194 7836 511 1734 776 3578
internal_value=0 -0.000311502 0.00152147 -1.82001e-06 -0.00070061 0.00243946 0.00104019 0.00216444 -0.000187447
internal_weight=0 26385 5402 14692 11693 1858 3544 1347 8498
internal_count=31787 26385 5402 14692 11693 1858 3544 1347 8498
is_linear=0
shrinkage=0.01


Tree=51
num_leaves=10
num_cat=0
split_feature=23 23 23 23 23 2 23 3 2
split_gain=147.75 38.8193 15.0127 8.8705 5.36815 3.1032 2.25899 1.85768 1.40568
threshold=0.43144463667820071 0.26838235294117652 0.64770761245674757 0.20134083044982701 0.34926470588235298 0.4621539792387544 0.14597750865051906 0.55860726643598624 0.28352076124567477
decision_type=2 2 2 2 2 2 2 2 2
left_child=1 3 5 6 8 -2 -1 -4 -3
right_child=2 4 7 -5 -6 -7 -8 -9 -10
leaf_value=-0.0010729320452567536 0.0010133684481693031 -7.2673703275069067e-05 0.0021973631119598515 -0.0003444267440184174 0.00053907325433640626 0.0016723881041517542 -0.00069980756543066365 0.0030023191413020961 0.00019951676051034963
leaf_weight=2258 1297 4019 460 8748 3293 1591 5766 761 3594
leaf_count=2258 1297 4019 460 8748 3293 1591 5766 761 3594
internal_value=0 -0.000262687 0.00176945 -0.00056468 0.000201738 0.00137642 -0.000804807 0.00269906 5.58239e-05
internal_weight=0 27678 4109 16772 10906 2888 8024 1221 7613
internal_count=31787 27678 4109 16772 10906 2888 8024 1221 7613
is_linear=0
shrinkage=0.01


Tree=52
num_leaves=10
num_cat=0
split_feature=23 23 23 23 23 23 3 2 4
split_gain=144.828 28.303 26.3637 6.2557 4.77152 3.56763 2.92546 1.53188 1.46886
threshold=0.37651384083044986 0.22469723183391005 0.55211937716262982 0.2848183391003461 0.6926903114186852 0.14943771626297581 0.40160034602076128 0.33066608996539798 0.45090830449826996
decision_type=2 2 2 2 2 2 2 2 2
left_child=1 5 6 -3 8 -1 -2 -5 -4
right_child=2 3 4 7 -6 -7 -8 -9 -10
leaf_value=-0.0010381605195014761 0.00063548215426729798 -0.00023669626569046529 0.001530624794204963 7.1700406037039475e-05 0.0028537616413734906 -0.00061003333091570527 0.0011993777877881517 0.00038355241905592917 0.0021933584930155219
leaf_weight=2531 2008 7734 596 4832 862 8427 1698 2337 762
leaf_count=2531 2008 7734 596 4832 862 8427 1698 2337 762
internal_value=0 -0.000323117 0.00141008 -3.94411e-05 0.00227186 -0.000708919 0.000893846 0.00017336 0.0019025
internal_weight=0 25861 5926 14903 2220 10958 3706 7169 1358
internal_count=31787 25861 5926 14903 2220 10958 3706 7169 1358
is_linear=0
shrinkage=0.01


Tree=53
num_leaves=10
num_cat=0
split_feature=23 23 23 23 23 2 23 23 1
split_gain=142.069 37.2921 14.4209 8.55045 5.15221 2.98189 2.0633 1.8304 1.50757
threshold=0.43144463667820071 0.26838235294117652 0.64770761245674757 0.19744809688581316 0.34926470588235298 0.4621539792387544 0.11699826989619379 0.802551903114187 0.25367647058823534
decision_type=2 2 2 2 2 2 2 2 2
left_child=1 3 5 6 -3 -2 -1 -4 -5
right_child=2 4 7 8 -6 -7 -8 -9 -10
leaf_value=-0.0012498155088955742 0.00099401338828717539 5.4660409067732807e-05 0.0024477708381297303 -0.00044819187240949059 0.00052809056787271407 0.0016400240452247154 -0.00074165694731934671 0.0034016659128384332 -0.00018397924057301737
leaf_weight=908 1297 7613 967 5746 3293 1591 6658 254 3460
leaf_count=908 1297 7613 967 5746 3293 1591 6658 254 3460
internal_value=0 -0.000257588 0.0017351 -0.000553581 0.00019761 0.0013499 -0.000802641 0.00264621 -0.00034889
internal_weight=0 27678 4109 16772 10906 2888 7566 1221 9206
internal_count=31787 27678 4109 16772 10906 2888 7566 1221 9206
is_linear=0
shrinkage=0.01


Tree=54
num_leaves=10
num_cat=0
split_feature=23 23 23 23 23 2 23 3 1
split_gain=139.242 36.5559 14.1339 8.88091 4.67278 2.92256 2.14048 1.80032 1.46271
threshold=0.43144463667820071 0.27184256055363326 0.64770761245674757 0.20134083044982701 0.34926470588235298 0.4621539792387544 0.13992214532871974 0.55860726643598624 0.25367647058823534
decision_type=2 2 2 2 2 2 2 2 2
left_child=1 3 5 6 -3 -2 -1 -4 -5
right_child=2 4 7 8 -6 -7 -8 -9 -10
leaf_value=-0.0010821082656250879 0.00098407326022029477 6.7818313544643652e-05 0.0021258537435661193 -0.00042706439055917376 0.00052280966467048006 0.001623623817168366 -0.00069277306377820173 0.0029182846521109379 -0.00016834842825011131
leaf_weight=1829 1297 7176 460 5602 3293 1591 6195 761 3583
leaf_count=1829 1297 7176 460 5602 3293 1591 6195 761 3583
internal_value=0 -0.000255012 0.00171775 -0.000538469 0.000210935 0.0013364 -0.000781519 0.00261974 -0.000326141
internal_weight=0 27678 4109 17209 10469 2888 8024 1221 9185
internal_count=31787 27678 4109 17209 10469 2888 8024 1221 9185
is_linear=0
shrinkage=0.01


Tree=55
num_leaves=10
num_cat=0
split_feature=23 23 23 23 23 3 23 23 2
split_gain=136.491 32.8969 16.875 5.97899 5.80879 2.77429 2.67043 1.54313 1.47118
threshold=0.4115484429065745 0.24935121107266439 0.60878027681660907 0.32158304498269902 0.17755190311418687 0.44139273356401393 0.76578719723183397 0.097102076124567491 0.35964532871972327
decision_type=2 2 2 2 2 2 2 2 2
left_child=1 4 5 -3 7 -2 -4 -1 -5
right_child=2 3 6 8 -6 -7 -8 -9 -10
leaf_value=-0.0013826545648043976 0.0008517312846522267 -6.9490368028935046e-05 0.0021819327545830008 0.00025139292357573821 -0.00044392507496904368 0.0014587174849172797 0.0031095241734160569 -0.0008053607879985879 0.00062175419254804996
leaf_weight=512 1507 8101 1158 3201 8925 1505 424 4841 1613
leaf_count=512 1507 8101 1158 3201 8925 1505 424 4841 1613
internal_value=0 -0.000269336 0.00159426 9.6373e-05 -0.000600133 0.00115502 0.00243054 -0.000860577 0.000375488
internal_weight=0 27193 4594 12915 14278 3012 1582 5353 4814
internal_count=31787 27193 4594 12915 14278 3012 1582 5353 4814
is_linear=0
shrinkage=0.01


Tree=56
num_leaves=10
num_cat=0
split_feature=23 23 23 23 23 23 2 4 2
split_gain=133.832 26.2258 24.5134 5.78639 4.42199 3.31965 2.72494 1.59985 1.47649
threshold=0.37651384083044986 0.22469723183391005 0.55211937716262982 0.2848183391003461 0.7182093425605538 0.14943771626297581 0.40160034602076128 0.45653114186851212 0.29865916955017308
decision_type=2 2 2 2 2 2 2 2 2
left_child=1 5 6 -3 7 -1 -2 -4 -5
right_child=2 3 4 8 -6 -7 -8 -9 -10
leaf_value=-0.00099957666501508842 0.00059475885923398434 -0.00022725193321612052 0.001522267141179847 3.1274687073399638e-05 0.0028538798823214136 -0.00058659650861233204 0.0011373358393901593 0.0021731673795600225 0.00031872909264056689
leaf_weight=2531 1910 7734 672 3781 686 8427 1796 862 3388
leaf_count=2531 1910 7734 672 3781 686 8427 1796 862 3388
internal_value=0 -0.000310608 0.00135549 -3.75403e-05 0.00218648 -0.000681984 0.000857702 0.00188803 0.000167123
internal_weight=0 25861 5926 14903 2220 10958 3706 1534 7169
internal_count=31787 25861 5926 14903 2220 10958 3706 1534 7169
is_linear=0
shrinkage=0.01


Tree=57
num_leaves=10
num_cat=0
split_feature=23 23 23 23 23 2 23 23 2
split_gain=131.285 34.4576 13.3334 7.93943 4.75636 2.76349 2.03917 1.73801 1.33252
threshold=0.43144463667820071 0.26838235294117652 0.64770761245674757 0.20134083044982701 0.34580449826989629 0.47902249134948099 0.12175605536332181 0.802551903114187 0.25843425605536335
decision_type=2 2 2 2 2 2 2 2 2
left_child=1 3 5 6 -3 -2 -1 -4 -5
right_child=2 4 7 8 -6 -7 -8 -9 -10
leaf_value=-0.0011733423786158728 0.0009804080348410273 4.5618410877711746e-05 0.002350664406228953 -0.0004224817663470146 0.00049213025442013721 0.0015992727135732846 -0.00069793480399346468 0.003280173857498357 -0.0001694615011826182
leaf_weight=1036 1408 7381 967 5335 3525 1480 6988 254 3413
leaf_count=1036 1408 7381 967 5335 3525 1480 6988 254 3413
internal_value=0 -0.000247619 0.00166795 -0.000532141 0.000189938 0.00129755 -0.000759316 0.00254403 -0.000323767
internal_weight=0 27678 4109 16772 10906 2888 8024 1221 8748
internal_count=31787 27678 4109 16772 10906 2888 8024 1221 8748
is_linear=0
shrinkage=0.01


Tree=58
num_leaves=10
num_cat=0
split_feature=23 23 23 23 23 3 23 3 2
split_gain=128.673 33.7849 13.0681 8.23743 4.31255 2.71385 1.99965 1.72946 1.40271
threshold=0.43144463667820071 0.27184256055363326 0.64770761245674757 0.20134083044982701 0.35575259515570939 0.44139273356401393 0.12954152249134951 0.55860726643598624 0.23161764705882357
decision_type=2 2 2 2 2 2 2 2 2
left_child=1 3 5 6 -3 -2 -1 -4 -5
right_child=2 4 7 8 -6 -7 -8 -9 -10
leaf_value=-0.0011115728110420197 0.00095140682026572255 7.812453515977187e-05 0.002034513097256422 -0.00044666938739338919 0.00053321177517137188 0.0015666254194464675 -0.00068246943224638203 0.0028111932690055865 -0.0001987722527836986
leaf_weight=1295 1324 7601 460 4238 2868 1564 6729 761 4947
leaf_count=1295 1324 7601 460 4238 2868 1564 6729 761 4947
internal_value=0 -0.000245143 0.00165127 -0.000517644 0.000202796 0.00128458 -0.000751723 0.00251859 -0.000313153
internal_weight=0 27678 4109 17209 10469 2888 8024 1221 9185
internal_count=31787 27678 4109 17209 10469 2888 8024 1221 9185
is_linear=0
shrinkage=0.01


Tree=59
num_leaves=10
num_cat=0
split_feature=23 23 23 23 23 2 23 23 1
split_gain=126.112 33.1212 12.808 8.57 3.87573 2.66562 2.02221 1.6959 1.4412
threshold=0.43144463667820071 0.27573529411764713 0.64770761245674757 0.20263840830449828 0.35575259515570939 0.44139273356401393 0.14597750865051906 0.802551903114187 0.25583910034602081
decision_type=2 2 2 2 2 2 2 2 2
left_child=1 3 5 6 -3 -2 -1 -4 -5
right_child=2 4 7 8 -6 -7 -8 -9 -10
leaf_value=-0.00099447510023729208 0.00090438019795516375 9.2534093848821067e-05 0.0023023951176126345 -0.00039583597693465761 0.00052787965706093233 0.0015229901651289783 -0.00064283117994158438 0.0032205751327079113 -0.00014267740752947242
leaf_weight=2258 1173 7126 967 5837 2868 1715 5931 254 3658
leaf_count=2258 1173 7126 967 5837 2868 1715 5931 254 3658
internal_value=0 -0.000242691 0.00163475 -0.000502746 0.000217466 0.00127173 -0.000739792 0.0024934 -0.000298305
internal_weight=0 27678 4109 17684 9994 2888 8189 1221 9495
internal_count=31787 27678 4109 17684 9994 2888 8189 1221 9495
is_linear=0
shrinkage=0.01


Tree=60
num_leaves=10
num_cat=0
split_feature=23 23 23 23 23 23 3 4 2
split_gain=123.634 24.2889 22.8281 5.35603 4.08511 3.08466 2.54842 1.50386 1.29691
threshold=0.37651384083044986 0.22469723183391005 0.55211937716262982 0.29000865051903119 0.7182093425605538 0.1563581314878893 0.40160034602076128 0.45653114186851212 0.33196366782006925
decision_type=2 2 2 2 2 2 2 2 2
left_child=1 5 6 -3 7 -1 -2 -4 -5
right_child=2 3 4 8 -6 -7 -8 -9 -10
leaf_value=-0.0009188587552988541 0.00058131099247390355 -0.0002049761365140811 0.001463262291758188 7.8512677381146139e-05 0.0027462122265694789 -0.00054887201741454176 0.0011076156561357793 0.0020943332628591154 0.00037663512596326624
leaf_weight=3171 2008 8294 672 4434 686 7787 1698 862 2175
leaf_count=3171 2008 8294 672 4434 686 7787 1698 862 2175
internal_value=0 -0.00029854 0.00130282 -3.57489e-05 0.00210474 -0.000655938 0.000822451 0.00181788 0.000176624
internal_weight=0 25861 5926 14903 2220 10958 3706 1534 6609
internal_count=31787 25861 5926 14903 2220 10958 3706 1534 6609
is_linear=0
shrinkage=0.01


Tree=61
num_leaves=10
num_cat=0
split_feature=23 23 23 23 23 3 23 3 2
split_gain=121.286 32.4526 11.7695 8.25141 3.9076 2.49096 1.95682 1.67042 1.40865
threshold=0.43706747404844298 0.27573529411764713 0.64770761245674757 0.20263840830449828 0.35575259515570939 0.4621539792387544 0.11699826989619379 0.55860726643598624 0.24718858131487892
decision_type=2 2 2 2 2 2 2 2 2
left_child=1 3 5 6 -3 -2 -1 -4 -5
right_child=2 4 7 8 -6 -7 -8 -9 -10
leaf_value=-0.001163209178013161 0.00096194696333532653 9.0754610815226705e-05 0.0019691659837313322 -0.00040448039335958788 0.00052255226993659165 0.0015600122814851531 -0.00067088333536438952 0.0027324735754109559 -0.0001600569442301885
leaf_weight=908 1363 7126 460 5136 2969 1424 7281 761 4359
leaf_count=908 1363 7126 460 5136 2969 1424 7281 761 4359
internal_value=0 -0.000234631 0.0016262 -0.000492875 0.000217749 0.00126752 -0.000725473 0.0024449 -0.00029227
internal_weight=0 27779 4008 17684 10095 2787 8189 1221 9495
internal_count=31787 27779 4008 17684 10095 2787 8189 1221 9495
is_linear=0
shrinkage=0.01


Tree=62
num_leaves=10
num_cat=0
split_feature=23 23 23 23 23 2 23 3 1
split_gain=118.872 31.8068 11.5378 8.08721 3.82984 2.65022 1.92468 1.52571 1.3878
threshold=0.43706747404844298 0.27573529411764713 0.65808823529411775 0.20263840830449828 0.35575259515570939 0.47902249134948099 0.14424740484429069 0.55860726643598624 0.26319204152249137
decision_type=2 2 2 2 2 2 2 2 2
left_child=1 3 5 6 -3 -2 -1 -4 -5
right_child=2 4 7 8 -6 -7 -8 -9 -10
leaf_value=-0.00097694972704192706 0.00095423573413121177 8.9847064989334425e-05 0.0019864924170431638 -0.00037629689473484533 0.00051732675057791614 0.0015621953797143753 -0.00062737792059860509 0.0027462610917957436 -0.00012124885599594761
leaf_weight=2128 1367 7126 420 6258 2969 1508 6061 713 3237
leaf_count=2128 1367 7126 420 6258 2969 1508 6061 713 3237
internal_value=0 -0.000232285 0.00160994 -0.000487946 0.000215571 0.00127312 -0.000718218 0.00246462 -0.000289347
internal_weight=0 27779 4008 17684 10095 2875 8189 1133 9495
internal_count=31787 27779 4008 17684 10095 2875 8189 1133 9495
is_linear=0
shrinkage=0.01


Tree=63
num_leaves=10
num_cat=0
split_feature=23 23 23 23 23 23 3 4 23
split_gain=116.515 25.2069 18.2922 4.72522 4.20052 3.39868 2.27926 1.37672 1.29941
threshold=0.3912197231833911 0.24070069204152253 0.5659602076124568 0.30730968858131497 0.17236159169550175 0.73378027681660907 0.4115484429065745 0.47902249134948099 0.097102076124567491
decision_type=2 2 2 2 2 2 2 2 2
left_child=1 4 6 -3 8 7 -2 -4 -1
right_child=2 3 5 -5 -6 -7 -8 -9 -10
leaf_value=-0.0012954481678752927 0.00063206535055279167 -0.00012110127680193453 0.0015017077088800828 0.00026105448242281907 -0.00044715066043094046 0.0027295228525473798 0.001161376076998024 0.0021214195779596014 -0.00076236939814938146
leaf_weight=512 1677 8008 670 5429 8264 599 1580 771 4277
leaf_count=512 1677 8008 670 5429 8264 599 1580 771 4277
internal_value=0 -0.000270732 0.00135392 3.33025e-05 -0.000583711 0.00209644 0.000888839 0.00183328 -0.000819362
internal_weight=0 26490 5297 13437 13053 2040 3257 1441 4789
internal_count=31787 26490 5297 13437 13053 2040 3257 1441 4789
is_linear=0
shrinkage=0.01


Tree=64
num_leaves=10
num_cat=0
split_feature=23 23 23 23 23 3 4 23 1
split_gain=114.292 30.5841 11.1029 6.94949 4.36004 2.262 1.80758 1.69521 1.38904
threshold=0.43706747404844298 0.26838235294117652 0.63602941176470607 0.19485294117647062 0.34407439446366789 0.4621539792387544 0.48464532871972327 0.11180795847750864 0.23507785467128031
decision_type=2 2 2 2 2 2 2 2 2
left_child=1 3 5 7 -3 -2 -4 -1 -5
right_child=2 4 6 8 -6 -7 -8 -9 -10
leaf_value=-0.0011696793047641912 0.00091631050387174797 3.8781493549012654e-05 0.0018326801579165203 -0.00043695430874968411 0.00045874684696802843 0.0014956325866349717 0.00260881725302402 -0.00067605401047604759 -0.00019489603549500297
leaf_weight=779 1322 7258 465 4831 3749 1375 846 6507 4655
leaf_count=779 1322 7258 465 4831 3749 1375 846 6507 4655
internal_value=0 -0.000227766 0.00157862 -0.000496568 0.000181822 0.00121166 0.00233353 -0.000728831 -0.000318171
internal_weight=0 27779 4008 16772 11007 2697 1311 7286 9486
internal_count=31787 27779 4008 16772 11007 2697 1311 7286 9486
is_linear=0
shrinkage=0.01


Tree=65
num_leaves=10
num_cat=0
split_feature=23 23 23 23 23 2 23 23 2
split_gain=112.018 29.9926 10.8927 7.63643 3.6126 2.49915 1.82998 1.4619 1.33601
threshold=0.43706747404844298 0.27573529411764713 0.65808823529411775 0.20263840830449828 0.35575259515570939 0.47902249134948099 0.14597750865051906 0.82936851211072682 0.25843425605536335
decision_type=2 2 2 2 2 2 2 2 2
left_child=1 3 5 6 -3 -2 -1 -4 -5
right_child=2 4 7 8 -6 -7 -8 -9 -10
leaf_value=-0.0009397889434073724 0.00092590344617389899 8.7301577079775103e-05 0.00224287321018171 -0.00037740689245345272 0.00050248006351858864 0.0015162818104063286 -0.00060527655239979113 0.0032511781261870144 -0.00013516799309441083
leaf_weight=2258 1367 7126 964 5707 2969 1508 5931 169 3788
leaf_count=2258 1367 7126 964 5707 2969 1508 5931 169 3788
internal_value=0 -0.000225488 0.00156283 -0.000473751 0.000209408 0.00123557 -0.000697514 0.00239327 -0.000280766
internal_weight=0 27779 4008 17684 10095 2875 8189 1133 9495
internal_count=31787 27779 4008 17684 10095 2875 8189 1133 9495
is_linear=0
shrinkage=0.01


Tree=66
num_leaves=10
num_cat=0
split_feature=23 23 23 23 23 23 3 4 1
split_gain=109.807 22.7152 18.9192 4.88457 3.64531 3.06503 2.1274 1.34376 1.29725
threshold=0.38386678200692048 0.22902249134948099 0.55211937716262982 0.29865916955017308 0.7182093425605538 0.16327854671280279 0.40160034602076128 0.45653114186851212 0.26751730103806232
decision_type=2 2 2 2 2 2 2 2 2
left_child=1 5 6 8 7 -1 -2 -4 -3
right_child=2 3 4 -5 -6 -7 -8 -9 -10
leaf_value=-0.00083389201085113372 0.00056231093123432576 -0.00026628374195997872 0.0013813164163868697 0.00020897681895168461 0.0025934651485337462 -0.00048836852547765193 0.001064285574016974 0.001977851250988978 -1.8100059551088144e-05
leaf_weight=3857 1785 5036 672 5989 686 7678 1602 862 3620
leaf_count=3857 1785 5036 672 5989 686 7678 1602 862 3620
internal_value=0 -0.000272001 0.00127002 -1.05814e-05 0.00198751 -0.000603902 0.000799737 0.00171653 -0.000162492
internal_weight=0 26180 5607 14645 2220 11535 3387 1534 8656
internal_count=31787 26180 5607 14645 2220 11535 3387 1534 8656
is_linear=0
shrinkage=0.01


Tree=67
num_leaves=10
num_cat=0
split_feature=23 23 23 23 23 3 3 2 23
split_gain=107.701 28.8317 10.4872 5.52185 5.08288 2.0403 1.9186 1.46052 1.45461
threshold=0.43706747404844298 0.25843425605536335 0.62694636678200699 0.18447231833910036 0.3336937716262976 0.47902249134948099 0.54519896193771644 0.35964532871972327 0.097102076124567491
decision_type=2 2 2 2 2 2 2 2 2
left_child=1 3 5 8 -3 -2 -4 -6 -1
right_child=2 4 6 -5 7 -7 -8 -9 -10
leaf_value=-0.0012530600568425143 0.00088802146091692682 -1.3247095091903377e-05 0.0017526684325379258 -0.00035624056016111689 0.00026249376925749005 0.0014481824980549912 0.0025162648926722949 0.00063205758575874738 -0.00069612023902384287
leaf_weight=512 1354 7844 527 9380 2690 1251 876 1775 5578
leaf_count=512 1354 7844 527 9380 2690 1251 876 1775 5578
internal_value=0 -0.000221101 0.00153243 -0.000508472 0.000140068 0.00115703 0.00222944 0.000409409 -0.000742943
internal_weight=0 27779 4008 15470 12309 2605 1403 4465 6090
internal_count=31787 27779 4008 15470 12309 2605 1403 4465 6090
is_linear=0
shrinkage=0.01


Tree=68
num_leaves=10
num_cat=0
split_feature=23 23 23 23 23 23 2 4 1
split_gain=105.56 20.8667 19.7169 4.57793 3.51806 2.68501 2.22639 1.28876 1.28874
threshold=0.37651384083044986 0.22469723183391005 0.55211937716262982 0.29000865051903119 0.7182093425605538 0.14943771626297581 0.40160034602076128 0.45653114186851212 0.20393598615916958
decision_type=2 2 2 2 2 2 2 2 2
left_child=1 5 6 -3 7 -1 -2 -4 -7
right_child=2 3 4 -5 -6 8 -8 -9 -10
leaf_value=-0.00089274763327985352 0.00051972037190006315 -0.00018873436995288479 0.0013546196823673591 0.00016405978719172631 0.0025443937160270209 -0.00064145561499018321 0.0010101578838631661 0.0019388173631200104 -0.00039402126730231352
leaf_weight=2531 1910 8294 672 6609 686 4336 1796 862 4091
leaf_count=2531 1910 8294 672 6609 686 4336 1796 862 4091
internal_value=0 -0.000275857 0.00120384 -3.22815e-05 0.00194911 -0.000607121 0.000757396 0.0016829 -0.000521335
internal_weight=0 25861 5926 14903 2220 10958 3706 1534 8427
internal_count=31787 25861 5926 14903 2220 10958 3706 1534 8427
is_linear=0
shrinkage=0.01


Tree=69
num_leaves=10
num_cat=0
split_feature=23 23 23 23 1 3 23 23 2
split_gain=103.559 28.284 9.63925 7.08948 3.54921 2.18409 1.74001 1.40407 1.28934
threshold=0.44139273356401393 0.27573529411764713 0.65808823529411775 0.20263840830449828 0.33196366782006925 0.4621539792387544 0.11180795847750864 0.82936851211072682 0.23161764705882357
decision_type=2 2 2 2 2 2 2 2 2
left_child=1 3 5 6 -3 -2 -1 -4 -5
right_child=2 4 7 8 -6 -7 -8 -9 -10
leaf_value=-0.0011206965208943069 0.000914075902096371 5.3753252701648017e-05 0.0021545507440428515 -0.00039692895026770231 0.00043474290221688134 0.0014758123371631771 -0.00062385986089816324 0.0031427122987586365 -0.00016294999181328752
leaf_weight=779 1326 6127 964 4327 4069 1448 7410 169 5168
leaf_count=779 1326 6127 964 4327 4069 1448 7410 169 5168
internal_value=0 -0.000213671 0.00152474 -0.000455523 0.000205798 0.0012073 -0.000671123 0.00230195 -0.000269577
internal_weight=0 27880 3907 17684 10196 2774 8189 1133 9495
internal_count=31787 27880 3907 17684 10196 2774 8189 1133 9495
is_linear=0
shrinkage=0.01


Tree=70
num_leaves=10
num_cat=0
split_feature=23 23 23 23 23 23 2 4 1
split_gain=101.537 19.911 19.4385 4.07694 3.38145 2.59407 2.28138 1.35707 1.25459
threshold=0.37175605536332185 0.55211937716262982 0.22469723183391005 0.2848183391003461 0.73378027681660907 0.14943771626297581 0.40160034602076128 0.46777681660899656 0.19355536332179932
decision_type=2 2 2 2 2 2 2 2 2
left_child=2 6 5 -4 7 -1 -2 -3 -7
right_child=1 4 3 -5 -6 8 -8 -9 -10
leaf_value=-0.00087605238065317857 0.00049890300010355614 0.0013579936789949413 -0.00019674761418375414 0.00013693139707230149 0.0025537573174264079 -0.00064491606110520265 0.00098213907585110722 0.0019390048388716588 -0.00039982498687939164
leaf_weight=2531 2074 738 7734 6954 599 3822 1847 883 4605
leaf_count=2531 2074 738 7734 6954 599 3822 1847 883 4605
internal_value=0 0.00115499 -0.000276565 -3.8768e-05 0.00191173 -0.000595305 0.000726533 0.00167449 -0.000510984
internal_weight=0 6141 25646 14688 2220 10958 3921 1621 8427
internal_count=31787 6141 25646 14688 2220 10958 3921 1621 8427
is_linear=0
shrinkage=0.01


Tree=71
num_leaves=10
num_cat=0
split_feature=23 23 23 23 23 3 23 3 2
split_gain=99.5899 28.1861 8.42996 6.82608 3.73417 1.95474 1.65991 1.36856 1.29379
threshold=0.45090830449826996 0.27573529411764713 0.65808823529411775 0.20134083044982701 0.35575259515570939 0.44139273356401393 0.11180795847750864 0.55860726643598624 0.23161764705882357
decision_type=2 2 2 2 2 2 2 2 2
left_child=1 3 5 6 -3 -2 -1 -4 -5
right_child=2 4 7 8 -6 -7 -8 -9 -10
leaf_value=-0.0011007290239301206 0.00091109249551445375 8.1552808473213961e-05 0.001804546958456437 -0.00039355529056193944 0.00049014448620468424 0.0014654972093581708 -0.00061493789394387083 0.0025241245671082679 -0.0001612460930011136
leaf_weight=779 1131 7126 420 4417 3260 1453 7245 713 5243
leaf_count=779 1131 7126 420 4417 3260 1453 7245 713 5243
internal_value=0 -0.000203684 0.00153818 -0.00044653 0.000209803 0.00122284 -0.0006621 0.00225738 -0.000267469
internal_weight=0 28070 3717 17684 10386 2584 8024 1133 9660
internal_count=31787 28070 3717 17684 10386 2584 8024 1133 9660
is_linear=0
shrinkage=0.01


Tree=72
num_leaves=10
num_cat=0
split_feature=23 23 23 23 23 3 4 2 1
split_gain=97.6152 26.1469 9.54076 4.93952 4.7631 1.85982 1.7807 1.40265 1.32824
threshold=0.43706747404844298 0.25713667820069208 0.62694636678200699 0.18144463667820071 0.33196366782006925 0.47902249134948099 0.48464532871972327 0.35964532871972327 0.22685986159169552
decision_type=2 2 2 2 2 2 2 2 2
left_child=1 3 5 -1 -3 -2 -4 -6 -5
right_child=2 4 6 8 7 -7 -8 -9 -10
leaf_value=-0.00071797774166636392 0.00084401892226441998 -1.9418860503092944e-05 0.0016573497627067383 -0.00046412774858915361 0.00024574762314464585 0.0013788313738894548 0.0023958687527151461 0.00060433230387778693 -0.0002280598131958535
leaf_weight=5779 1354 7885 517 4823 2788 1251 886 1792 4712
leaf_count=5779 1354 7885 517 4823 2788 1251 886 1792 4712
internal_value=0 -0.000210494 0.00145891 -0.000487286 0.000129562 0.00110085 0.00212373 0.00038605 -0.000347468
internal_weight=0 27779 4008 15314 12465 2605 1403 4580 9535
internal_count=31787 27779 4008 15314 12465 2605 1403 4580 9535
is_linear=0
shrinkage=0.01


Tree=73
num_leaves=10
num_cat=0
split_feature=23 23 23 23 1 3 23 23 1
split_gain=95.7054 27.1058 8.11021 6.56855 3.60279 1.87939 1.64571 1.35107 1.22521
threshold=0.45090830449826996 0.27573529411764713 0.65808823529411775 0.20263840830449828 0.33196366782006925 0.44139273356401393 0.10445501730103808 0.82936851211072682 0.26319204152249137
decision_type=2 2 2 2 2 2 2 2 2
left_child=1 3 5 6 -3 -2 -1 -4 -5
right_child=2 4 7 8 -6 -7 -8 -9 -10
leaf_value=-0.0011313976395608293 0.00089290134836017933 5.1732473650212346e-05 0.0020687238049704997 -0.00034053368682007929 0.00043094784788561989 0.0014365159454774715 -0.00060400021176587571 0.0030380537021442279 -0.0001008914471347892
leaf_weight=642 1131 6166 964 6258 4220 1453 7547 169 3237
leaf_count=642 1131 6166 964 6258 4220 1453 7547 169 3237
internal_value=0 -0.000199673 0.00150789 -0.000437819 0.000205814 0.00119858 -0.000645347 0.00221331 -0.000258836
internal_weight=0 28070 3717 17684 10386 2584 8189 1133 9495
internal_count=31787 28070 3717 17684 10386 2584 8189 1133 9495
is_linear=0
shrinkage=0.01


Tree=74
num_leaves=10
num_cat=0
split_feature=23 23 23 23 23 23 2 4 1
split_gain=93.9075 18.4833 17.9991 3.76199 3.1561 2.44221 2.12062 1.3618 1.19436
threshold=0.37175605536332185 0.55211937716262982 0.22469723183391005 0.29000865051903119 0.74978373702422152 0.14943771626297581 0.40160034602076128 0.46777681660899656 0.19355536332179932
decision_type=2 2 2 2 2 2 2 2 2
left_child=2 6 5 -4 7 -1 -2 -3 -7
right_child=1 4 3 -5 -6 8 -8 -9 -10
leaf_value=-0.00084508974361224224 0.00047847664844777955 0.00132084857143044 -0.00017766648601303742 0.0001451248286331281 0.0025293980681732908 -0.00062154552371775562 0.00094437542888623925 0.0018883984916370892 -0.00038241038188155407
leaf_weight=2531 2074 767 8294 6394 511 3822 1847 942 4605
leaf_count=2531 2074 767 8294 6394 511 3822 1847 942 4605
internal_value=0 0.00111075 -0.000265972 -3.71485e-05 0.00183986 -0.000572684 0.00069794 0.00163368 -0.000490868
internal_weight=0 6141 25646 14688 2220 10958 3921 1709 8427
internal_count=31787 6141 25646 14688 2220 10958 3921 1709 8427
is_linear=0
shrinkage=0.01


Tree=75
num_leaves=10
num_cat=0
split_feature=23 23 23 23 23 23 23 2 1
split_gain=92.0508 22.3673 11.6451 4.42951 3.83364 2.12447 1.88448 1.25429 1.224
threshold=0.4115484429065745 0.24632352941176475 0.60099480968858143 0.31769031141868515 0.17236159169550175 0.76578719723183397 0.49675605536332185 0.34580449826989629 0.2208044982698962
decision_type=2 2 2 2 2 2 2 2 2
left_child=1 4 6 -3 -1 -4 -2 -5 -6
right_child=2 3 5 7 8 -7 -8 -9 -10
leaf_value=-0.00073125601818971374 0.00070274569028996154 -7.377796930595387e-05 0.0017672224733575213 0.00017775762469779608 -0.00049515514338366849 0.0025866250423187353 0.0012140585878311341 0.00049823682868608784 -0.00026286505582373754
leaf_weight=4789 1632 8156 1247 3192 4639 424 1291 1978 4439
leaf_count=4789 1632 8156 1247 3192 4639 424 1291 1978 4439
internal_value=0 -0.000221185 0.00130925 7.13779e-05 -0.000502334 0.00197514 0.000928577 0.00030037 -0.000381569
internal_weight=0 27193 4594 13326 13867 1671 2923 5170 9078
internal_count=31787 27193 4594 13326 13867 1671 2923 5170 9078
is_linear=0
shrinkage=0.01


Tree=76
num_leaves=10
num_cat=0
split_feature=23 23 23 23 23 23 2 4 2
split_gain=90.261 17.5815 17.3475 4.02742 3.03576 2.19546 1.99663 1.23427 1.16836
threshold=0.37391868512110732 0.2208044982698962 0.55211937716262982 0.28741349480968864 0.73378027681660907 0.14597750865051906 0.40160034602076128 0.46777681660899656 0.29260380622837373
decision_type=2 2 2 2 2 2 2 2 2
left_child=1 5 6 -3 7 -1 -2 -4 -5
right_child=2 3 4 8 -6 -7 -8 -9 -10
leaf_value=-0.00084987934079496375 0.00047326425946661029 -0.00018675204139493559 0.0012769668257535311 7.2027462655982358e-06 0.0024119148252901928 -0.00049777448928459719 0.00093128923349725958 0.0018310663255093999 0.00026968724988841439
leaf_weight=2258 1995 8502 738 3353 599 8208 1820 883 3431
leaf_count=2258 1995 8502 738 3353 599 8208 1820 883 3431
internal_value=0 -0.000257964 0.00110076 -4.17583e-05 0.00180359 -0.00057374 0.000691772 0.0015788 0.000139954
internal_weight=0 25752 6035 15286 2220 10466 3815 1621 6784
internal_count=31787 25752 6035 15286 2220 10466 3815 1621 6784
is_linear=0
shrinkage=0.01


Tree=77
num_leaves=10
num_cat=0
split_feature=23 23 23 23 2 3 23 1 23
split_gain=88.5406 25.0434 7.5182 6.10517 3.37965 1.76854 1.49662 1.30544 1.28031
threshold=0.45090830449826996 0.27573529411764713 0.65808823529411775 0.19744809688581316 0.33196366782006925 0.44139273356401393 0.097102076124567491 0.25583910034602081 0.82936851211072682
decision_type=2 2 2 2 2 2 2 2 2
left_child=1 3 5 6 -3 -2 -1 -5 -4
right_child=2 4 8 7 -6 -7 -8 -9 -10
leaf_value=-0.0011578712084155997 0.00085601651092462577 5.5948708715254587e-05 0.0019887862440306865 -0.00034843351278106776 0.00042725893251968492 0.0013833545584934113 -0.00059793750572680179 -0.00011391607419088445 0.0029323937404437885
leaf_weight=512 1131 6421 964 6315 3965 1453 7054 3803 169
leaf_count=512 1131 6421 964 6315 3965 1453 7054 3803 169
internal_value=0 -0.000192053 0.00145035 -0.00042096 0.000197702 0.00115254 -0.000635829 -0.000260287 0.00212954
internal_weight=0 28070 3717 17684 10386 2584 7566 10118 1133
internal_count=31787 28070 3717 17684 10386 2584 7566 10118 1133
is_linear=0
shrinkage=0.01


Tree=78
num_leaves=10
num_cat=0
split_feature=23 23 23 1 23 23 3 4 23
split_gain=86.8451 17.0694 16.647 3.77012 2.92375 2.12266 1.97575 1.2922 1.17808
threshold=0.37175605536332185 0.55211937716262982 0.2208044982698962 0.29130622837370251 0.74978373702422152 0.14597750865051906 0.40160034602076128 0.46777681660899656 0.28611591695501731
decision_type=2 2 2 2 2 2 2 2 2
left_child=2 6 5 8 7 -1 -2 -3 -4
right_child=1 4 3 -5 -6 -7 -8 -9 -10
leaf_value=-0.0008341315129596124 0.00046950513743672427 0.0012656549354614461 -0.00024695653349336851 0.00015298385615817236 0.002432505131759289 -0.00048791319154140798 0.0009209655053136253 0.001818512715715638 -4.5661747954573298e-06
leaf_weight=2258 2167 767 6329 5916 511 8208 1754 942 2935
leaf_count=2258 2167 767 6329 5916 511 8208 1754 942 2935
internal_value=0 0.00106816 -0.000255775 -4.42251e-05 0.00176883 -0.000562608 0.000671459 0.00157039 -0.000170163
internal_weight=0 6141 25646 15180 2220 10466 3921 1709 9264
internal_count=31787 6141 25646 15180 2220 10466 3921 1709 9264
is_linear=0
shrinkage=0.01


Tree=79
num_leaves=10
num_cat=0
split_feature=23 23 23 23 1 3 23 2 4
split_gain=85.1544 24.0749 7.23175 5.79895 3.32851 1.69926 1.43649 1.28011 1.25733
threshold=0.45090830449826996 0.27487024221453293 0.65808823529411775 0.19615051903114189 0.33196366782006925 0.44139273356401393 0.097102076124567491 0.23161764705882357 0.52357266435986172
decision_type=2 2 2 2 2 2 2 2 2
left_child=1 3 5 6 -3 -2 -1 -5 -4
right_child=2 4 8 7 -6 -7 -8 -9 -10
leaf_value=-0.0011379511858103798 0.00083960596427558581 4.4389960792176089e-05 0.0016949610234125976 -0.00037958541268132319 0.00040749799065890885 0.0013565123925166282 -0.00058902546172311891 -0.00015434831056977799 0.0023704802485352214
leaf_weight=512 1131 6268 473 4719 4227 1453 6921 5423 660
leaf_count=512 1131 6268 473 4719 4227 1453 6921 5423 660
internal_value=0 -0.000188345 0.00142234 -0.000414656 0.000190637 0.00113027 -0.000626837 -0.00025915 0.00208847
internal_weight=0 28070 3717 17575 10495 2584 7433 10142 1133
internal_count=31787 28070 3717 17575 10495 2584 7433 10142 1133
is_linear=0
shrinkage=0.01


Tree=80
num_leaves=10
num_cat=0
split_feature=23 23 23 1 23 23 3 4 23
split_gain=83.5403 16.4148 16.0069 3.42063 2.82162 2.21018 1.90335 1.24257 1.04754
threshold=0.37175605536332185 0.55211937716262982 0.22469723183391005 0.29130622837370251 0.74978373702422152 0.1563581314878893 0.38170415224913501 0.46777681660899656 0.28611591695501731
decision_type=2 2 2 2 2 2 2 2 2
left_child=2 6 5 8 7 -1 -2 -3 -4
right_child=1 4 3 -5 -6 -7 -8 -9 -10
leaf_value=-0.00076265554330101723 0.00044169755908435109 0.0012409735427783243 -0.0002361680897762291 0.0001523406771710639 0.0023867226171866789 -0.00044947371805371998 0.00088239808850110407 0.0017831095634720381 -4.964411684117917e-06
leaf_weight=3171 1991 767 5897 5856 511 7787 1930 942 2935
leaf_count=3171 1991 767 5897 5856 511 7787 1930 942 2935
internal_value=0 0.00104764 -0.000250861 -3.50726e-05 0.00173474 -0.000540102 0.00065862 0.0015398 -0.000159336
internal_weight=0 6141 25646 14688 2220 10958 3921 1709 8832
internal_count=31787 6141 25646 14688 2220 10958 3921 1709 8832
is_linear=0
shrinkage=0.01


Tree=81
num_leaves=10
num_cat=0
split_feature=23 23 23 23 2 3 23 2 23
split_gain=81.8977 23.1425 6.95614 5.65569 3.15268 1.63425 1.36139 1.30889 1.22195
threshold=0.45090830449826996 0.27573529411764713 0.65808823529411775 0.19355536332179932 0.33196366782006925 0.44139273356401393 0.097102076124567491 0.23161764705882357 0.82936851211072682
decision_type=2 2 2 2 2 2 2 2 2
left_child=1 3 5 6 -3 -2 -1 -5 -4
right_child=2 4 8 7 -6 -7 -8 -9 -10
leaf_value=-0.0011189451268000994 0.00082337610419447663 5.305229428388475e-05 0.0019106827700255571 -0.00037623817531609463 0.00041167755459395393 0.0013302989069055779 -0.00058374099692268732 -0.00015298875363034255 0.0028325318549511703
leaf_weight=512 1131 6421 964 4943 3965 1453 6626 5603 169
leaf_count=512 1131 6421 964 4943 3965 1453 6626 5603 169
internal_value=0 -0.000184708 0.00139488 -0.000404756 0.000189962 0.00110842 -0.000622131 -0.000257628 0.00204819
internal_weight=0 28070 3717 17684 10386 2584 7138 10546 1133
internal_count=31787 28070 3717 17684 10386 2584 7138 10546 1133
is_linear=0
shrinkage=0.01


Tree=82
num_leaves=10
num_cat=0
split_feature=23 23 23 1 23 23 2 23 1
split_gain=80.3737 15.7816 15.3978 3.49124 2.71739 1.98877 1.83092 1.07697 1.06008
threshold=0.37175605536332185 0.55211937716262982 0.2208044982698962 0.29130622837370251 0.7182093425605538 0.14597750865051906 0.40160034602076128 0.28611591695501731 0.19355536332179932
decision_type=2 2 2 2 2 2 2 2 2
left_child=2 6 5 7 -3 -1 -2 -4 -7
right_child=1 4 3 -5 -6 8 -8 -9 -10
leaf_value=-0.00080397773009932799 0.00044222734219975172 0.0014673491937230976 -0.00023721765054480283 0.00014717201584692235 0.0022244922890607539 -0.00058944201916678754 0.00087513478255314377 -5.4623975318206437e-06 -0.00036175257246928022
leaf_weight=2258 2074 1534 6329 5916 686 3861 1847 2935 4347
leaf_count=2258 2074 1534 6329 5916 686 3861 1847 2935 4347
internal_value=0 0.0010276 -0.000246061 -4.2603e-05 0.00170131 -0.000541158 0.00064615 -0.000163793 -0.000468856
internal_weight=0 6141 25646 15180 2220 10466 3921 9264 8208
internal_count=31787 6141 25646 15180 2220 10466 3921 9264 8208
is_linear=0
shrinkage=0.01


Tree=83
num_leaves=10
num_cat=0
split_feature=23 23 23 23 23 23 3 4 2
split_gain=78.782 16.3499 13.6115 3.48551 2.53996 2.43633 1.68844 1.24842 1.17385
threshold=0.38386678200692048 0.23161764705882357 0.55774221453287209 0.30730968858131497 0.76578719723183397 0.16717128027681663 0.40160034602076128 0.47902249134948099 0.25843425605536335
decision_type=2 2 2 2 2 2 2 2 2
left_child=1 5 6 8 7 -1 -2 -4 -3
right_child=2 3 4 -5 -6 -7 -8 -9 -10
leaf_value=-0.00069728716049167322 0.00047910779489154071 -0.00022991301534038466 0.0012396097600954855 0.0002061046111298228 0.0023981227824148143 -0.00039816809986896072 0.00092017143115110409 0.0017826055705450362 -4.0468356327026956e-06
leaf_weight=4239 1813 4702 783 5119 424 7614 1665 922 4506
leaf_count=4239 1813 4702 783 5119 424 7614 1665 922 4506
internal_value=0 -0.000230393 0.00107574 -3.08763e-06 0.00170549 -0.000505142 0.000690255 0.00153324 -0.000119384
internal_weight=0 26180 5607 14327 2129 11853 3478 1705 9208
internal_count=31787 26180 5607 14327 2129 11853 3478 1705 9208
is_linear=0
shrinkage=0.01


Tree=84
num_leaves=10
num_cat=0
split_feature=23 23 23 23 23 3 23 1 4
split_gain=77.2793 21.8228 6.56614 4.78989 3.49546 1.55576 1.24451 1.21594 1.1964
threshold=0.45090830449826996 0.26838235294117652 0.65808823529411775 0.1883650519031142 0.34407439446366789 0.4621539792387544 0.097102076124567491 0.23032006920415227 0.54519896193771644
decision_type=2 2 2 2 2 2 2 2 2
left_child=1 3 5 6 -3 -2 -1 -5 -4
right_child=2 4 8 7 -6 -7 -8 -9 -10
leaf_value=-0.001092743000626797 0.00081620862439213458 2.9068517948053177e-05 0.0016324680761868029 -0.00038430123784378051 0.00039605835795078064 0.001307825864645754 -0.00057924512179989248 -0.00016612433135480852 0.002285294981853616
leaf_weight=512 1215 7258 513 5007 4040 1369 6038 5215 620
leaf_count=512 1215 7258 513 5007 4040 1369 6038 5215 620
internal_value=0 -0.000179425 0.00135498 -0.00040827 0.000160299 0.00107667 -0.000619384 -0.000272993 0.00198971
internal_weight=0 28070 3717 16772 11298 2584 6550 10222 1133
internal_count=31787 28070 3717 16772 11298 2584 6550 10222 1133
is_linear=0
shrinkage=0.01


Tree=85
num_leaves=10
num_cat=0
split_feature=23 23 23 23 23 3 23 2 1
split_gain=75.7504 18.4477 9.64038 3.79567 3.14774 1.85689 1.59811 1.08557 1.07239
threshold=0.4115484429065745 0.24545847750865055 0.60099480968858143 0.32028546712802775 0.17236159169550175 0.54519896193771644 0.49675605536332185 0.26319204152249137 0.20739619377162632
decision_type=2 2 2 2 2 2 2 2 2
left_child=1 4 6 7 -1 -4 -2 -3 -6
right_child=2 3 5 -5 8 -7 -8 -9 -10
leaf_value=-0.000665332432619945 0.0006333597081620789 -0.00017829567935629594 0.0013825169859698456 0.0002826974045400372 -0.00047443868047759022 0.0020639047911390662 0.0011042229810731066 4.7659555875871143e-05 -0.00025314340153194783
leaf_weight=4789 1632 4263 663 4950 3823 1008 1291 4242 5126
leaf_count=4789 1632 4263 663 4950 3823 1008 1291 4242 5126
internal_value=0 -0.000200648 0.00118768 6.25381e-05 -0.000458412 0.00179355 0.000841326 -6.5597e-05 -0.00034768
internal_weight=0 27193 4594 13455 13738 1671 2923 8505 8949
internal_count=31787 27193 4594 13455 13738 1671 2923 8505 8949
is_linear=0
shrinkage=0.01


Tree=86
num_leaves=10
num_cat=0
split_feature=23 23 23 1 23 23 3 4 23
split_gain=74.2926 14.592 14.2649 3.38427 2.55632 1.76899 1.73142 1.2267 1.03119
threshold=0.37175605536332185 0.55211937716262982 0.21820934256055366 0.29130622837370251 0.76578719723183397 0.14597750865051906 0.38170415224913501 0.45653114186851212 0.28611591695501731
decision_type=2 2 2 2 2 2 2 2 2
left_child=2 6 5 8 7 -1 -2 -3 -4
right_child=1 4 3 -5 -6 -7 -8 -9 -10
leaf_value=-0.00077535494954107274 0.00041427559876238226 0.0011640283319827736 -0.00023200032519301911 0.00014067831430594115 0.002334181817318752 -0.00045780479835608347 0.00083460044830077238 0.0016934775302005893 -6.8090184077168973e-06
leaf_weight=2258 1991 755 6620 5969 424 7864 1930 1041 2935
leaf_count=2258 1991 755 6620 5969 424 7864 1930 1041 2935
internal_value=0 0.000987957 -0.000236569 -4.61297e-05 0.00163579 -0.000528643 0.000621168 0.00147091 -0.000162829
internal_weight=0 6141 25646 15524 2220 10122 3921 1796 9555
internal_count=31787 6141 25646 15524 2220 10122 3921 1796 9555
is_linear=0
shrinkage=0.01


Tree=87
num_leaves=10
num_cat=0
split_feature=23 23 23 23 2 3 23 23 2
split_gain=72.87 20.5951 6.21556 4.98415 2.96084 1.48393 1.40318 1.14746 0.968438
threshold=0.45090830449826996 0.27487024221453293 0.65808823529411775 0.20393598615916958 0.33196366782006925 0.4621539792387544 0.11180795847750864 0.82936851211072682 0.23161764705882357
decision_type=2 2 2 2 2 2 2 2 2
left_child=1 3 5 6 -3 -2 -1 -4 -5
right_child=2 4 7 8 -6 -7 -8 -9 -10
leaf_value=-0.00096482572559415528 0.00079060172626878994 4.5144687918019356e-05 0.0018000607862604851 -0.00033551575614234594 0.00039140765986897427 0.0012707362651050778 -0.00051909093322530296 0.0026933704228443507 -0.00012985872021037357
leaf_weight=779 1215 6520 964 4203 3975 1369 7563 169 5030
leaf_count=779 1215 6520 964 4203 3975 1369 7563 169 5030
internal_value=0 -0.000174231 0.00131575 -0.000383547 0.000176292 0.00104498 -0.000560715 0.00193331 -0.000223477
internal_weight=0 28070 3717 17575 10495 2584 8342 1133 9233
internal_count=31787 28070 3717 17575 10495 2584 8342 1133 9233
is_linear=0
shrinkage=0.01


Tree=88
num_leaves=10
num_cat=0
split_feature=23 23 23 1 23 23 3 4 1
split_gain=71.476 14.0296 13.7045 3.15622 2.46228 1.80572 1.66431 1.10144 0.99903
threshold=0.37175605536332185 0.55211937716262982 0.2208044982698962 0.29130622837370251 0.74978373702422152 0.14597750865051906 0.38170415224913501 0.47902249134948099 0.19355536332179932
decision_type=2 2 2 2 2 2 2 2 2
left_child=2 6 5 -4 7 -1 -2 -3 -7
right_child=1 4 3 -5 -6 8 -8 -9 -10
leaf_value=-0.00076087271786737037 0.00040655445480340143 0.0011515481751412154 -0.00015532576330371507 0.00014034358214024144 0.0022133186735110743 -0.00055860820522934875 0.00081865323809837481 0.0016603223817183242 -0.00033757211557525072
leaf_weight=2258 1991 800 9264 5916 511 3861 1930 909 4347
leaf_count=2258 1991 800 9264 5916 511 3861 1930 909 4347
internal_value=0 0.000969049 -0.000232041 -4.00965e-05 0.00160427 -0.00051044 0.000609398 0.00142216 -0.000441546
internal_weight=0 6141 25646 15180 2220 10466 3921 1709 8208
internal_count=31787 6141 25646 15180 2220 10466 3921 1709 8208
is_linear=0
shrinkage=0.01


Tree=89
num_leaves=10
num_cat=0
split_feature=23 23 23 23 23 3 1 4 23
split_gain=70.0833 19.4859 6.2843 3.9957 3.42358 1.49118 1.16249 1.12563 1.08529
threshold=0.44571799307958487 0.26319204152249137 0.65808823529411775 0.18144463667820071 0.3388840830449828 0.47902249134948099 0.22685986159169552 0.54519896193771644 0.097102076124567491
decision_type=2 2 2 2 2 2 2 2 2
left_child=1 3 5 8 -3 -2 -5 -4 -1
right_child=2 4 7 6 -6 -7 -8 -9 -10
leaf_value=-0.0010501517440934549 0.00077287984259214165 5.9708378060724169e-06 0.0015495322008579099 -0.00038993596194246768 0.00035924405671278713 0.0012445634127974299 -0.00017761258438012438 0.0021827570109838441 -0.00056788996255450368
leaf_weight=512 1346 7577 513 5081 4300 1335 5236 620 5267
leaf_count=512 1346 7577 513 5081 4300 1335 5236 620 5267
internal_value=0 -0.000173382 0.00127163 -0.000400099 0.000133871 0.00100775 -0.000282179 0.00189605 -0.000610617
internal_weight=0 27973 3814 16096 11877 2681 10317 1133 5779
internal_count=31787 27973 3814 16096 11877 2681 10317 1133 5779
is_linear=0
shrinkage=0.01


Tree=90
num_leaves=10
num_cat=0
split_feature=23 23 23 1 23 3 23 18 1
split_gain=68.7216 14.4151 12.6288 2.86871 2.51809 1.66381 1.64788 1.03996 0.906169
threshold=0.36570069204152256 0.54519896193771644 0.21820934256055366 0.28352076124567477 0.7182093425605538 0.38170415224913501 0.14597750865051906 0.5659602076124568 0.20263840830449828
decision_type=2 2 2 2 2 2 2 2 2
left_child=2 5 6 -4 7 -2 -1 -3 -8
right_child=1 4 3 -5 -6 -7 8 -9 -10
leaf_value=-0.00074649157682912164 0.00037746297350311364 0.0015214927161997663 -0.0001686603290494031 0.00010986317003949465 0.002062411976777256 0.00077866958768714272 -0.0005410376407981079 0.00098717167777805656 -0.00032595275400348493
leaf_weight=2258 2171 1071 8870 6342 686 1973 4170 552 3694
leaf_count=2258 2171 1071 8870 6342 686 1973 4170 552 3694
internal_value=0 0.000921283 -0.000234666 -5.25417e-05 0.00155446 0.000568481 -0.000508375 0.00133976 -0.000440005
internal_weight=0 6453 25334 15212 2309 4144 10122 1623 7864
internal_count=31787 6453 25334 15212 2309 4144 10122 1623 7864
is_linear=0
shrinkage=0.01


Tree=91
num_leaves=10
num_cat=0
split_feature=23 23 23 23 2 3 23 2 23
split_gain=67.4122 19.1332 5.74823 4.65386 2.71366 1.37873 1.20465 1.11721 1.09975
threshold=0.45090830449826996 0.27573529411764713 0.65808823529411775 0.19355536332179932 0.33196366782006925 0.44139273356401393 0.097102076124567491 0.23161764705882357 0.82936851211072682
decision_type=2 2 2 2 2 2 2 2 2
left_child=1 3 5 6 -3 -2 -1 -5 -4
right_child=2 4 8 7 -6 -7 -8 -9 -10
leaf_value=-0.0010321852794004372 0.00074330698788515183 4.6074510511172872e-05 0.0017289578944784726 -0.00034377941690696165 0.00037879457054384102 0.0012089162467176407 -0.00052873264250790015 -0.00013752353357944139 0.0026035003619786553
leaf_weight=512 1131 6421 964 4943 3965 1453 6626 5603 169
leaf_count=512 1131 6421 964 4943 3965 1453 6626 5603 169
internal_value=0 -0.000167579 0.00126552 -0.00036766 0.000173095 0.00100512 -0.000564845 -0.000234197 0.00185941
internal_weight=0 28070 3717 17684 10386 2584 7138 10546 1133
internal_count=31787 28070 3717 17684 10386 2584 7138 10546 1133
is_linear=0
shrinkage=0.01


Tree=92
num_leaves=10
num_cat=0
split_feature=23 23 23 1 23 3 1 18 23
split_gain=66.1231 13.8574 12.1412 2.76037 2.41884 1.59869 1.59689 1.01291 0.802469
threshold=0.36570069204152256 0.54519896193771644 0.21820934256055366 0.28352076124567477 0.7182093425605538 0.38170415224913501 0.18014705882352944 0.5659602076124568 0.28092560553633222
decision_type=2 2 2 2 2 2 2 2 2
left_child=2 5 6 8 7 -2 -1 -3 -4
right_child=1 4 3 -5 -6 -7 -8 -9 -10
leaf_value=-0.00063656249212045411 0.00037054498392239006 0.001493431528270189 -0.00023223442679147361 0.00010769612308579256 0.0020223438015354268 0.00076382185895377337 -0.00038424018456710216 0.00096610399010334767 -2.9915219842899741e-05
leaf_weight=4586 2171 1071 5945 6342 686 1973 5536 552 2925
leaf_count=4586 2171 1071 5945 6342 686 1973 5536 552 2925
