tree
version=v4
num_class=1
num_tree_per_iteration=1
label_index=0
max_feature_idx=23
objective=regression
feature_names=Column_0 Column_1 Column_2 Column_3 Column_4 Column_5 Column_6 Column_7 Column_8 Column_9 Column_10 Column_11 Column_12 Column_13 Column_14 Column_15 Column_16 Column_17 Column_18 Column_19 Column_20 Column_21 Column_22 Column_23
feature_infos=[0:1] [0:1] [0:1] [0:1] [0:1] [0:1] [0:1] [0:1] [0:1] [0:1] [0:1] [0:1] [0:1] [0:1] [0:1] [0:1] [0:1] [0:1] [0:1] [0:1] [0:1] [0:1] [0:1] [0:1]
tree_sizes=1022 1071 1068 1069 1066 1072 1068 1070 1069 1073 1067 1071 1058 1058 1068 1062 1064 1071 1059 1068 1057 1060 1068 1066 1067 1067 1065 1059 1062 1062 1069 1067 1063 1072 1071 1072 1070 1068 1062 1071 1062 1070 1068 1063 1060 1063 1067 1068 1067 1073 1071 1064 1066 1062 1070 1066 1066 1064 1067 1070 1066 1064 1070 1076 1070 1068 1069 1069 1068 1071 1070 1070 1069 1069 1069 1073 1071 1067 1070 1067 1068 1069 1069 1065 1072 1068 1071 1073 1076 1065 1074 1070 1066 1072 1068 1072 1074 1062 1071 1064

Tree=0
num_leaves=10
num_cat=0
split_feature=23 23 23 23 23 23 23 23 23
split_gain=403.687 89.2457 54.9737 15.5304 14.662 8.88569 6.48323 3.16273 2.27744
threshold=0.40160034602076128 0.24935121107266439 0.58758650519031153 0.18057958477508654 0.31812283737024227 0.71993944636678209 0.48205017301038072 0.13127162629757788 0.21518166089965399
decision_type=2 2 2 2 2 2 2 2 2
left_child=1 3 6 7 -3 -4 -2 -1 -5
right_child=2 4 5 8 -6 -7 -8 -9 -10
leaf_value=0.29315531996041827 0.2964522113581422 0.29489423526171316 0.29851665455390786 0.29409529976500759 0.29559654637638993 0.299962274476615 0.29737515501315792 0.29372117923827329 0.29442454014010194
leaf_weight=1291 1714 7735 1146 3931 4828 676 1369 4205 4513
leaf_count=1291 1714 7735 1146 3931 4828 676 1369 4205 4513
internal_value=0.295041 0.294553 0.297676 0.294002 0.295164 0.299053 0.296862 0.293588 0.294271
internal_weight=0 26503 4905 13940 12563 1822 3083 5496 8444
internal_count=31408 26503 4905 13940 12563 1822 3083 5496 8444
is_linear=0
shrinkage=1


Tree=1
num_leaves=10
num_cat=0
split_feature=23 23 23 23 23 23 23 23 23
split_gain=395.654 87.4697 53.8797 15.2213 14.3702 8.70887 6.35421 3.09979 2.2344
threshold=0.40160034602076128 0.24935121107266439 0.58758650519031153 0.18057958477508654 0.31812283737024227 0.71993944636678209 0.48205017301038072 0.13127162629757788 0.21128892733564017
decision_type=2 2 2 2 2 2 2 2 2
left_child=1 3 6 7 -3 -4 -2 -1 -5
right_child=2 4 5 8 -6 -7 -8 -9 -10
leaf_value=-0.0018664203046321129 0.001397502129047657 -0.00014489422793781645 0.0034413009517896033 -0.00095710730705782232 0.00055039377490283465 0.0048724646689976463 0.002311216419068804 -0.0013062197069120321 -0.00062626320966834199
leaf_weight=1291 1714 7735 1146 3455 4828 676 1369 4205 4989
leaf_count=1291 1714 7735 1146 3455 4828 676 1369 4205 4989
internal_value=0 -0.000482847 0.00260895 -0.00102822 0.000122307 0.00397229 0.00180324 -0.00143781 -0.000761633
internal_weight=0 26503 4905 13940 12563 1822 3083 5496 8444
internal_count=31408 26503 4905 13940 12563 1822 3083 5496 8444
is_linear=0
shrinkage=0.01


Tree=2
num_leaves=10
num_cat=0
split_feature=23 23 23 23 23 23 23 23 23
split_gain=387.78 85.729 52.8075 14.921 14.0843 8.53556 6.22776 2.94633 2.30836
threshold=0.40160034602076128 0.24935121107266439 0.58758650519031153 0.17928200692041524 0.31812283737024227 0.71993944636678209 0.48205017301038072 0.13127162629757788 0.21128892733564017
decision_type=2 2 2 2 2 2 2 2 2
left_child=1 3 6 7 -3 -4 -2 -1 -5
right_child=2 4 5 8 -6 -7 -8 -9 -10
leaf_value=-0.0018477561489313172 0.0013835270758479174 -0.00014344528703646325 0.0034068879222474593 -0.00095268103768051196 0.00054488985031943878 0.0048237400682720208 0.002288104214312997 -0.0012995721812435847 -0.00062000055474127689
leaf_weight=1291 1714 7735 1146 3584 4828 676 1369 4076 4989
leaf_count=1291 1714 7735 1146 3584 4828 676 1369 4076 4989
internal_value=0 -0.000478018 0.00258286 -0.00101794 0.000121084 0.00393257 0.0017852 -0.00143143 -0.00075908
internal_weight=0 26503 4905 13940 12563 1822 3083 5367 8573
internal_count=31408 26503 4905 13940 12563 1822 3083 5367 8573
is_linear=0
shrinkage=0.01


Tree=3
num_leaves=10
num_cat=0
split_feature=23 23 23 23 23 23 23 23 23
split_gain=380.063 84.0526 51.7566 15.9195 12.5515 8.3657 6.10383 3.24428 2.18802
threshold=0.40160034602076128 0.25367647058823534 0.58758650519031153 0.18447231833910036 0.32201557093425609 0.71993944636678209 0.48205017301038072 0.13127162629757788 0.21691176470588239
decision_type=2 2 2 2 2 2 2 2 2
left_child=1 3 6 7 -3 -4 -2 -1 -5
right_child=2 4 5 8 -6 -7 -8 -9 -10
leaf_value=-0.0018292785647716935 0.0013696917958009897 -0.0001034920844476633 0.00337281908924459 -0.0008914594605755659 0.00056532929278915039 0.0047755028131092796 0.0022652231832766202 -0.0012618986196640813 -0.00057049195792994349
leaf_weight=1291 1714 7523 1146 3792 4475 676 1369 4594 4828
leaf_count=1291 1714 7523 1146 3792 4475 676 1369 4594 4828
internal_value=0 -0.000473238 0.00255703 -0.00098542 0.000145964 0.00389324 0.00176735 -0.00138637 -0.000711688
internal_weight=0 26503 4905 14505 11998 1822 3083 5885 8620
internal_count=31408 26503 4905 14505 11998 1822 3083 5885 8620
is_linear=0
shrinkage=0.01


Tree=4
num_leaves=10
num_cat=0
split_feature=23 23 23 23 23 23 23 23 23
split_gain=372.522 87.0181 45.4158 15.6044 14.1965 6.9311 6.0065 3.00457 2.36963
threshold=0.4115484429065745 0.25367647058823534 0.61267301038062294 0.18187716262975781 0.32763840830449836 0.5002162629757787 0.7350778546712804 0.13127162629757788 0.21604671280276819
decision_type=2 2 2 2 2 2 2 2 2
left_child=1 3 5 7 -3 -2 -4 -1 -5
right_child=2 4 6 8 -6 -7 -8 -9 -10
leaf_value=-0.0018109858397316509 0.0014921786041176392 -8.3096528246230726e-05 0.0035363337051905809 -0.00089800545326622805 0.00062764241166160485 0.002451327238259169 0.004818506762259301 -0.0012614316655443591 -0.00056901253997056623
leaf_weight=1291 1680 7967 957 3923 4342 1366 591 4337 4954
leaf_count=1291 1680 7967 957 3923 4342 1366 591 4337 4954
internal_value=0 -0.000450786 0.00263112 -0.000975565 0.000167617 0.00192232 0.00402585 -0.00138749 -0.000714404
internal_weight=0 26814 4594 14505 12309 3046 1548 5628 8877
internal_count=31408 26814 4594 14505 12309 3046 1548 5628 8877
is_linear=0
shrinkage=0.01


Tree=5
num_leaves=10
num_cat=0
split_feature=23 23 23 23 23 23 23 23 2
split_gain=365.167 80.7405 49.746 13.9331 13.5044 8.03703 5.86171 2.70062 2.32875
threshold=0.40160034602076128 0.24718858131487892 0.58758650519031153 0.31423010380622846 0.17149653979238758 0.71993944636678209 0.47685986159169552 0.21128892733564017 0.3336937716262976
decision_type=2 2 2 2 2 2 2 2 2
left_child=1 4 6 -3 -1 -4 -2 -6 -5
right_child=2 3 5 8 7 -7 -8 -9 -10
leaf_value=-0.0014460969723726475 0.0013186663119965913 -0.00016535527780677485 0.0033063216614057467 0.00033107649419904998 -0.00095514581022830363 0.0046811747956558092 0.0021919660555479461 -0.00061118000220762223 0.00076305763979056876
leaf_weight=4521 1623 7665 1146 3080 4430 676 1460 4709 2098
leaf_count=4521 1623 7665 1146 3080 4430 676 1460 4709 2098
internal_value=0 -0.000463871 0.00250642 0.000105362 -0.000999059 0.00381642 0.00173223 -0.000777913 0.000506105
internal_weight=0 26503 4905 12843 13660 1822 3083 9139 5178
internal_count=31408 26503 4905 12843 13660 1822 3083 9139 5178
is_linear=0
shrinkage=0.01


Tree=6
num_leaves=10
num_cat=0
split_feature=23 23 23 23 23 23 23 23 1
split_gain=357.929 85.0956 42.0259 15.0119 14.2696 6.22858 5.77947 3.40107 2.31455
threshold=0.41587370242214539 0.25367647058823534 0.61267301038062294 0.1883650519031142 0.32763840830449836 0.52141003460207624 0.75064878892733577 0.1368944636678201 0.2848183391003461
decision_type=2 2 2 2 2 2 2 2 2
left_child=1 3 5 7 8 -2 -4 -1 -3
right_child=2 4 6 -5 -6 -7 -8 -9 -10
leaf_value=-0.0017253454552998968 0.0015624341251076449 -0.00022871352216770124 0.0035225997219245396 -0.00067306094661970315 0.00062585806425241445 0.0025172030405524494 0.0048272293912724517 -0.0011886707375859834 0.00011584286337268849
leaf_weight=1570 1869 4563 1045 8171 4442 1077 503 4764 3404
leaf_count=1570 1869 4563 1045 8171 4442 1077 503 4764 3404
internal_value=0 -0.00043622 0.00261247 -0.000956305 0.000171712 0.00191148 0.00394652 -0.0013217 -8.14975e-05
internal_weight=0 26914 4494 14505 12409 2946 1548 6334 7967
internal_count=31408 26914 4494 14505 12409 2946 1548 6334 7967
is_linear=0
shrinkage=0.01


Tree=7
num_leaves=10
num_cat=0
split_feature=23 23 23 23 23 23 23 23 2
split_gain=350.879 77.5954 47.7942 13.6727 12.7522 7.73753 5.64534 2.51011 2.27021
threshold=0.40160034602076128 0.24632352941176475 0.58758650519031153 0.31423010380622846 0.17149653979238758 0.71993944636678209 0.48205017301038072 0.21128892733564017 0.3336937716262976
decision_type=2 2 2 2 2 2 2 2 2
left_child=1 4 6 -3 -1 -4 -2 -6 -5
right_child=2 3 5 8 7 -7 -8 -9 -10
leaf_value=-0.001417885613025184 0.0013156129600199824 -0.00016669982585898173 0.0032404364060356979 0.00032341734676451364 -0.0009367535555604888 0.004589429472589634 0.0021768540788341213 -0.00060288607017630223 0.00074993424546645517
leaf_weight=4521 1714 7794 1146 3080 4430 676 1369 4580 2098
leaf_count=4521 1714 7794 1146 3080 4430 676 1369 4580 2098
internal_value=0 -0.000454706 0.00245689 9.79208e-05 -0.000984502 0.00374094 0.00169805 -0.000767041 0.000496232
internal_weight=0 26503 4905 12972 13531 1822 3083 9010 5178
internal_count=31408 26503 4905 12972 13531 1822 3083 9010 5178
is_linear=0
shrinkage=0.01


Tree=8
num_leaves=10
num_cat=0
split_feature=23 23 23 23 23 23 23 23 1
split_gain=343.903 83.1848 38.9007 15.8436 12.9944 5.57888 5.56615 3.31095 2.24672
threshold=0.4197664359861592 0.25843425605536335 0.61267301038062294 0.1883650519031142 0.3336937716262976 0.52141003460207624 0.75064878892733577 0.13905709342560554 0.2848183391003461
decision_type=2 2 2 2 2 2 2 2 2
left_child=1 3 5 7 8 -2 -4 -1 -3
right_child=2 4 6 -5 -6 -7 -8 -9 -10
leaf_value=-0.0016739144032947434 0.0015552491805503066 -0.00018912591877443886 0.0034527360417626121 -0.00063959434870932438 0.00066153450358895751 0.0024675565495907211 0.0047330627870370099 -0.0011574763453586216 0.00015157842038465114
leaf_weight=1695 1775 4282 1045 8787 4073 1077 503 4639 3532
leaf_count=1695 1775 4282 1045 8787 4073 1077 503 4639 3532
internal_value=0 -0.000422355 0.00259249 -0.000914419 0.000203581 0.00189976 0.00386876 -0.00129568 -3.51244e-05
internal_weight=0 27008 4400 15121 11887 2852 1548 6334 7814
internal_count=31408 27008 4400 15121 11887 2852 1548 6334 7814
is_linear=0
shrinkage=0.01


Tree=9
num_leaves=10
num_cat=0
split_feature=23 23 23 23 23 23 23 23 23
split_gain=337.161 74.6176 45.9159 14.8944 10.8311 7.44921 5.43703 2.65701 2.14152
threshold=0.40160034602076128 0.24070069204152253 0.58758650519031153 0.30774221453287204 0.16760380622837373 0.71993944636678209 0.47685986159169552 0.34926470588235298 0.20263840830449828
decision_type=2 2 2 2 2 2 2 2 2
left_child=1 4 6 -3 -1 -4 -2 -5 -6
right_child=2 3 5 7 8 -7 -8 -9 -10
leaf_value=-0.0014192663513626477 0.0012662992633429304 -0.00021532715490037667 0.0031758601091034957 0.00026402192272773246 -0.00097263226828014232 0.0044994811709286901 0.0021073688950950971 0.00069682161170747496 -0.00065507520402909014
leaf_weight=4122 1623 7995 1146 3284 3815 676 1460 2497 4790
leaf_count=4122 1623 7995 1146 3284 3815 676 1460 2497 4790
internal_value=0 -0.000445729 0.00240839 6.42763e-05 -0.00099777 0.00366695 0.0016646 0.000450962 -0.000795863
internal_weight=0 26503 4905 13776 12727 1822 3083 5781 8605
internal_count=31408 26503 4905 13776 12727 1822 3083 5781 8605
is_linear=0
shrinkage=0.01


Tree=10
num_leaves=10
num_cat=0
split_feature=23 23 23 23 23 23 23 23 23
split_gain=330.452 73.176 45.0063 13.8594 10.9332 6.62189 6.0488 2.81858 2.14884
threshold=0.40160034602076128 0.25367647058823534 0.59623702422145342 0.18187716262975781 0.32201557093425609 0.7350778546712804 0.5002162629757787 0.12391868512110728 0.21691176470588239
decision_type=2 2 2 2 2 2 2 2 2
left_child=1 3 6 7 -3 -4 -2 -1 -5
right_child=2 4 5 8 -6 -7 -8 -9 -10
leaf_value=-0.0017821840413155094 0.0013406340880782563 -9.6339618298625122e-05 0.0032363235666576029 -0.00084293448808079707 0.00052787828836058375 0.0045408670692476125 0.00224323332397821 -0.0012019011898130082 -0.00053055865926009572
leaf_weight=1023 1991 7523 1139 4049 4475 591 1184 4605 4828
leaf_count=1023 1991 7523 1139 4049 4475 591 1184 4605 4828
internal_value=0 -0.000441271 0.0023843 -0.000919166 0.00013648 0.00368198 0.00167723 -0.00130738 -0.00067304
internal_weight=0 26503 4905 14505 11998 1730 3175 5628 8877
internal_count=31408 26503 4905 14505 11998 1730 3175 5628 8877
is_linear=0
shrinkage=0.01


Tree=11
num_leaves=10
num_cat=0
split_feature=23 23 23 23 23 23 23 23 1
split_gain=323.942 78.4313 36.6655 15.4376 11.8009 5.26099 5.25927 3.65618 2.19985
threshold=0.4197664359861592 0.26016435986159175 0.61267301038062294 0.19485294117647062 0.3371539792387544 0.52141003460207624 0.75064878892733577 0.14511245674740486 0.29865916955017308
decision_type=2 2 2 2 2 2 2 2 2
left_child=1 3 5 7 8 -2 -4 -1 -3
right_child=2 4 6 -5 -6 -7 -8 -9 -10
leaf_value=-0.0015745638775500074 0.0015090446181700262 -0.00014532575293587827 0.0033507969804357687 -0.00058711764966781332 0.00066391807044035439 0.0023949784984052904 0.0045953285800770785 -0.0010758366119386603 0.00019967299534027415
leaf_weight=2088 1775 4848 1045 8296 3823 1077 503 4966 2987
leaf_count=2088 1775 4848 1045 8296 3823 1077 503 4966 2987
internal_value=0 -0.000409915 0.00251613 -0.000879545 0.000208444 0.0018436 0.00375519 -0.00122346 -1.37991e-05
internal_weight=0 27008 4400 15350 11658 2852 1548 7054 7835
internal_count=31408 27008 4400 15350 11658 2852 1548 7054 7835
is_linear=0
shrinkage=0.01


Tree=12
num_leaves=10
num_cat=0
split_feature=23 23 23 23 23 23 23 2 23
split_gain=317.61 66.05 48.8498 12.9864 9.53421 8.44508 5.30142 2.3271 1.94449
threshold=0.3912197231833911 0.23724048442906578 0.57071799307958493 0.30125432525951562 0.16760380622837373 0.6944204152249136 0.460423875432526 0.32893598615916958 0.11353806228373704
decision_type=2 2 2 2 2 2 2 2 2
left_child=1 4 6 -3 8 -4 -2 -5 -1
right_child=2 3 5 7 -6 -7 -8 -9 -10
leaf_value=-0.0018351458004234652 0.001104714636892209 -0.000248157911787195 0.0029095134979838298 0.00021441306529885491 -0.00078840394056064577 0.0042253080390869304 0.0019075367896033979 0.00061820272809555757 -0.00127506390417849
leaf_weight=760 1735 7794 1152 3704 8169 846 1564 2322 3362
leaf_count=760 1735 7794 1152 3704 8169 846 1564 2322 3362
internal_value=0 -0.000452929 0.00223267 2.13828e-05 -0.000986246 0.00346665 0.00148532 0.000370005 -0.00137833
internal_weight=0 26111 5297 13820 12291 1998 3299 6026 4122
internal_count=31408 26111 5297 13820 12291 1998 3299 6026 4122
is_linear=0
shrinkage=0.01


Tree=13
num_leaves=10
num_cat=0
split_feature=23 23 23 23 23 23 23 2 3
split_gain=311.29 64.7456 47.8899 11.8733 10.0264 6.91666 6.41849 2.28079 1.98195
threshold=0.3912197231833911 0.24070069204152253 0.58758650519031153 0.30125432525951562 0.168901384083045 0.71993944636678209 0.47123702422145336 0.32893598615916958 0.4409602076124568
decision_type=2 2 2 2 2 2 2 2 2
left_child=1 4 6 -3 -1 -4 -2 -5 -8
right_child=2 3 5 7 -6 -7 8 -9 -10
leaf_value=-0.0013551713937309409 0.0011352953653518869 -0.00023235942711837852 0.0030502658740440176 0.00021226893526341933 -0.00076017107791598456 0.0043256966249477233 0.0016118163095073981 0.00061202071283318279 0.0023285019828292335
leaf_weight=4254 1921 7358 1146 3704 8473 676 713 2322 841
leaf_count=4254 1921 7358 1146 3704 8473 676 713 2322 841
internal_value=0 -0.0004484 0.00221034 3.71829e-05 -0.00095905 0.00352348 0.00152184 0.000366305 0.00199968
internal_weight=0 26111 5297 13384 12727 1822 3475 6026 1554
internal_count=31408 26111 5297 13384 12727 1822 3475 6026 1554
is_linear=0
shrinkage=0.01


Tree=14
num_leaves=10
num_cat=0
split_feature=23 23 23 23 23 23 23 23 1
split_gain=305.147 73.9978 34.5757 14.6209 11.1658 4.99289 4.96983 3.46695 2.10726
threshold=0.4197664359861592 0.26016435986159175 0.61267301038062294 0.19485294117647062 0.3371539792387544 0.75064878892733577 0.52141003460207624 0.13905709342560554 0.2848183391003461
decision_type=2 2 2 2 2 2 2 2 2
left_child=1 3 6 7 8 -4 -2 -1 -3
right_child=2 4 5 -5 -6 -7 -8 -9 -10
leaf_value=-0.0015829020527172231 0.0014637979008152453 -0.00016557637207227714 0.003251260932267568 -0.0005694215914977712 0.00064582952437717569 0.0044638654186758796 0.0023248681125119536 -0.0010640245362529561 0.00016333851409819106
leaf_weight=1695 1775 4210 1045 8296 3823 503 1077 5359 3625
leaf_count=1695 1775 4210 1045 8296 3823 503 1077 5359 3625
internal_value=0 -0.000397846 0.00244205 -0.00085401 0.000202782 0.00364528 0.00178896 -0.00118871 -1.33981e-05
internal_weight=0 27008 4400 15350 11658 1548 2852 7054 7835
internal_count=31408 27008 4400 15350 11658 1548 2852 7054 7835
is_linear=0
shrinkage=0.01


Tree=15
num_leaves=10
num_cat=0
split_feature=23 23 23 23 23 23 23 2 23
split_gain=299.163 62.2854 46.02 12.2475 8.99082 7.99299 4.9986 2.3455 1.88014
threshold=0.3912197231833911 0.23724048442906578 0.57071799307958493 0.29865916955017308 0.16760380622837373 0.6944204152249136 0.460423875432526 0.31293252595155713 0.11353806228373704
decision_type=2 2 2 2 2 2 2 2 2
left_child=1 4 6 -3 8 -4 -2 -5 -1
right_child=2 3 5 7 -6 -7 -8 -9 -10
leaf_value=-0.0017874136490649299 0.0010719054912563188 -0.00025126155777500773 0.0028225475931281429 0.00017109809585055358 -0.00076535261631377168 0.004102638562520345 0.0018514610837449502 0.00055892555775094086 -0.0012366782983566664
leaf_weight=760 1735 7525 1152 3448 8169 846 1564 2847 3362
leaf_count=760 1735 7525 1152 3448 8169 846 1564 2847 3362
internal_value=0 -0.000439579 0.00216686 2.10177e-05 -0.000957474 0.00336457 0.00144148 0.000346498 -0.00133822
internal_weight=0 26111 5297 13820 12291 1998 3299 6295 4122
internal_count=31408 26111 5297 13820 12291 1998 3299 6295 4122
is_linear=0
shrinkage=0.01


Tree=16
num_leaves=10
num_cat=0
split_feature=23 23 23 23 23 23 23 23 3
split_gain=293.21 61.0514 45.1072 12.2358 8.62699 6.54338 6.05181 2.30668 1.93655
threshold=0.3912197231833911 0.23637543252595158 0.58758650519031153 0.29865916955017308 0.16760380622837373 0.71993944636678209 0.47123702422145336 0.34926470588235298 0.4409602076124568
decision_type=2 2 2 2 2 2 2 2 2
left_child=1 4 6 -3 -1 -4 -2 -5 -8
right_child=2 3 5 7 -6 -7 8 -9 -10
leaf_value=-0.0013248387578746494 0.0011016500263849641 -0.00025223134484221788 0.0029593411710821939 0.00020735373132489267 -0.00076223269957915063 0.0041998778235101137 0.0015575857904607752 0.00061310359799400451 0.0022660153668360534
leaf_weight=4122 1921 7649 1146 4190 8045 676 713 2105 841
leaf_count=4122 1921 7649 1146 4190 8045 676 713 2105 841
internal_value=0 -0.000435183 0.00214519 1.65001e-05 -0.000952835 0.00341961 0.00147699 0.000343033 0.00194098
internal_weight=0 26111 5297 13944 12167 1822 3475 6295 1554
internal_count=31408 26111 5297 13944 12167 1822 3475 6295 1554
is_linear=0
shrinkage=0.01


Tree=17
num_leaves=10
num_cat=0
split_feature=23 23 23 23 23 23 23 23 1
split_gain=287.446 68.6459 33.8592 13.371 10.4545 5.03988 4.74025 3.20698 2.02465
threshold=0.41587370242214539 0.25843425605536335 0.61267301038062294 0.19355536332179932 0.3336937716262976 0.52141003460207624 0.75064878892733577 0.13905709342560554 0.2848183391003461
decision_type=2 2 2 2 2 2 2 2 2
left_child=1 3 5 7 8 -2 -4 -1 -3
right_child=2 4 6 -5 -6 -7 -8 -9 -10
leaf_value=-0.0015389884928334781 0.0013979769615509283 -0.00017770764244025124 0.0031546740959705923 -0.00056416684593159187 0.00059819390041850778 0.0022568203214151281 0.0043362015592412016 -0.0010382794236816469 0.00014572056314792831
leaf_weight=1695 1869 4282 1045 8212 3979 1077 503 5214 3532
leaf_count=1695 1869 4282 1045 8212 3979 1077 503 5214 3532
internal_value=0 -0.000390918 0.00234116 -0.000836923 0.000180951 0.00171195 0.00353859 -0.00116112 -3.15151e-05
internal_weight=0 26914 4494 15121 11793 2946 1548 6909 7814
internal_count=31408 26914 4494 15121 11793 2946 1548 6909 7814
is_linear=0
shrinkage=0.01


Tree=18
num_leaves=10
num_cat=0
split_feature=23 23 23 23 23 23 23 2 3
split_gain=281.781 58.7166 43.3552 11.7668 8.29945 7.56524 4.71699 2.26419 1.83749
threshold=0.3912197231833911 0.23637543252595158 0.57071799307958493 0.29865916955017308 0.16760380622837373 0.6944204152249136 0.460423875432526 0.31293252595155713 0.460423875432526
decision_type=2 2 2 2 2 2 2 2 2
left_child=1 4 6 -3 -1 -4 -2 -5 -8
right_child=2 3 5 7 -6 -7 8 -9 -10
leaf_value=-0.0012991486084527729 0.0010398917375159281 -0.00024718577902741465 0.0027381665039704077 0.00016422452558436488 -0.00074732625407165053 0.0039835345649972872 0.0014578956265615512 0.00054527018430002765 0.0021434574044798082
leaf_weight=4122 1735 7649 1152 3448 8045 846 790 2847 774
leaf_count=4122 1735 7649 1152 3448 8045 846 790 2847 774
internal_value=0 -0.000426618 0.00210297 1.63444e-05 -0.000934276 0.00326548 0.0013989 0.000336558 0.00179717
internal_weight=0 26111 5297 13944 12167 1998 3299 6295 1564
internal_count=31408 26111 5297 13944 12167 1998 3299 6295 1564
is_linear=0
shrinkage=0.01


Tree=19
num_leaves=10
num_cat=0
split_feature=23 23 23 23 23 23 23 23 1
split_gain=276.201 67.1588 31.4394 13.555 9.96183 6.27834 3.26759 3.18784 1.91932
threshold=0.4197664359861592 0.2610294117647059 0.63992214532871983 0.19485294117647062 0.3371539792387544 0.52141003460207624 0.78568339100346041 0.14511245674740486 0.29779411764705888
decision_type=2 2 2 2 2 2 2 2 2
left_child=1 3 5 7 8 -2 -4 -1 -3
right_child=2 4 6 -5 -6 -7 -8 -9 -10
leaf_value=-0.0014605661479121083 0.0013916416158768494 -0.00013446832706527366 0.0033439045130072387 -0.00053823354677410391 0.0006159749767152403 0.0022972650280191852 0.0044957163491406603 -0.00099487529685356982 0.00018854053908317196
leaf_weight=2088 1775 4704 946 8406 3823 1346 333 4966 3021
leaf_count=2088 1775 4704 946 8406 3823 1346 333 4966 3021
internal_value=0 -0.000378506 0.00232334 -0.000809483 0.000198469 0.00178221 0.00364379 -0.00113272 -8.14991e-06
internal_weight=0 27008 4400 15460 11548 3121 1279 7054 7725
internal_count=31408 27008 4400 15460 11548 3121 1279 7054 7725
is_linear=0
shrinkage=0.01


Tree=20
num_leaves=10
num_cat=0
split_feature=23 23 23 23 23 23 23 2 3
split_gain=270.803 56.486 41.6657 11.6198 7.74689 7.28219 4.52936 2.19379 1.79703
threshold=0.3912197231833911 0.23507785467128031 0.57071799307958493 0.29865916955017308 0.16284602076124569 0.6944204152249136 0.460423875432526 0.32893598615916958 0.460423875432526
decision_type=2 2 2 2 2 2 2 2 2
left_child=1 4 6 -3 -1 -4 -2 -5 -8
right_child=2 3 5 7 -6 -7 8 -9 -10
leaf_value=-0.0013059282704643276 0.0010195866314001833 -0.00024691526369800408 0.0026838782581035049 0.00018386191519846151 -0.00075426016972929039 0.0039057264676048966 0.0014261331645936907 0.0005683431027781366 0.0021041048707041011
leaf_weight=3667 1735 7826 1152 3899 8323 846 790 2396 774
leaf_count=3667 1735 7826 1152 3899 8323 846 790 2396 774
internal_value=0 -0.000418225 0.0020616 1.03582e-05 -0.000922981 0.00320124 0.00137139 0.000330203 0.00176165
internal_weight=0 26111 5297 14121 11990 1998 3299 6295 1564
internal_count=31408 26111 5297 14121 11990 1998 3299 6295 1564
is_linear=0
shrinkage=0.01


Tree=21
num_leaves=10
num_cat=0
split_feature=23 23 23 23 23 23 23 2 3
split_gain=265.422 54.4609 42.0947 10.9627 7.59273 7.13727 4.7067 2.0558 1.76175
threshold=0.3886245674740485 0.23507785467128031 0.57071799307958493 0.29865916955017308 0.16284602076124569 0.6944204152249136 0.460423875432526 0.31163494809688591 0.4409602076124568
decision_type=2 2 2 2 2 2 2 2 2
left_child=1 4 6 -3 -1 -4 -2 -5 -8
right_child=2 3 5 7 -6 -7 8 -9 -10
leaf_value=-0.0012928689848037322 0.00099788501466442224 -0.00024444611518204397 0.0026570394796888446 0.00015268723351400933 -0.00074671757070935601 0.0038666692044999865 0.0013934865880777492 0.00051874561853127625 0.0020653703203881344
leaf_weight=3667 1840 7826 1152 3382 8323 846 748 2808 816
leaf_count=3667 1840 7826 1152 3382 8323 846 748 2808 816
internal_value=0 -0.000418976 0.00201701 4.28015e-06 -0.000913752 0.00316923 0.00134071 0.000318744 0.00174403
internal_weight=0 26006 5402 14016 11990 1998 3404 6190 1564
internal_count=31408 26006 5402 14016 11990 1998 3404 6190 1564
is_linear=0
shrinkage=0.01


Tree=22
num_leaves=10
num_cat=0
split_feature=23 23 23 23 23 23 23 23 1
split_gain=260.181 57.9803 35.5307 11.1239 8.74013 5.43601 4.83507 2.71998 1.77993
threshold=0.40160034602076128 0.25367647058823534 0.60402249134948105 0.1883650519031142 0.32331314878892742 0.5002162629757787 0.75064878892733577 0.12391868512110728 0.2848183391003461
decision_type=2 2 2 2 2 2 2 2 2
left_child=1 3 5 7 8 -2 -4 -1 -3
right_child=2 4 6 -5 -6 -7 -8 -9 -10
leaf_value=-0.0016036426150699747 0.0011866532265765771 -0.00021121956141316412 0.002956242736501248 -0.00057312242603563409 0.00047937914897525579 0.002022545026234565 0.0041342158085309246 -0.0010405292866162001 9.8367733032975725e-05
leaf_weight=1023 1991 4433 1134 8171 4369 1277 503 5311 3196
leaf_count=1023 1991 4433 1134 8171 4369 1277 503 5311 3196
internal_value=0 -0.000391552 0.00211566 -0.000816943 0.000122725 0.00151329 0.0033182 -0.00113148 -8.15248e-05
internal_weight=0 26503 4905 14505 11998 3268 1637 6334 7629
internal_count=31408 26503 4905 14505 11998 3268 1637 6334 7629
is_linear=0
shrinkage=0.01


Tree=23
num_leaves=10
num_cat=0
split_feature=23 23 23 23 23 23 23 23 1
split_gain=255.06 62.1423 29.1293 12.5991 9.25221 5.78984 3.08684 2.99878 1.86523
threshold=0.4197664359861592 0.2610294117647059 0.63992214532871983 0.19485294117647062 0.3388840830449828 0.52141003460207624 0.78568339100346041 0.13127162629757788 0.29865916955017308
decision_type=2 2 2 2 2 2 2 2 2
left_child=1 3 5 7 8 -2 -4 -1 -3
right_child=2 4 6 -5 -6 -7 -8 -9 -10
leaf_value=-0.0015255597002925476 0.0013367162225531859 -0.00012636061982647948 0.003212191490082358 -0.00051679034753100044 0.00060236916970855228 0.0022063945441951017 0.0043316930451908625 -0.00099234474593724691 0.00019036034320922077
leaf_weight=1291 1775 4798 946 8406 3714 1346 333 5763 3036
leaf_count=1291 1775 4798 946 8406 3714 1346 333 5763 3036
internal_value=0 -0.000363732 0.00223265 -0.0007783 0.000191276 0.00171178 0.00350366 -0.00108993 -3.61811e-06
internal_weight=0 27008 4400 15460 11548 3121 1279 7054 7834
internal_count=31408 27008 4400 15460 11548 3121 1279 7054 7834
is_linear=0
shrinkage=0.01


Tree=24
num_leaves=10
num_cat=0
split_feature=23 23 23 23 23 23 23 2 23
split_gain=250.09 51.4061 39.6753 10.3441 7.30007 7.18828 3.96711 2.01149 1.72569
threshold=0.3886245674740485 0.23507785467128031 0.56163494809688597 0.29779411764705888 0.6944204152249136 0.16760380622837373 0.460423875432526 0.31163494809688591 0.11353806228373704
decision_type=2 2 2 2 2 2 2 2 2
left_child=1 5 6 -3 -4 8 -2 -5 -1
right_child=2 3 4 7 -6 -7 -8 -9 -10
leaf_value=-0.0016560240761425934 0.00096858188664317949 -0.00024084993279411629 0.0025498837185685343 0.00014314752058183815 0.0037549078091098343 -0.00071016846009706771 0.0016644243300768195 0.00050229746101447157 -0.0011283944285453112
leaf_weight=760 1840 7719 1239 3454 846 7868 1477 2843 3362
leaf_count=760 1840 7719 1239 3454 846 7868 1477 2843 3362
internal_value=0 -0.000406695 0.00195789 4.51931e-06 0.00303883 -0.000887393 0.00127843 0.000305298 -0.00122568
internal_weight=0 26006 5402 14016 2085 11990 3317 6297 4122
internal_count=31408 26006 5402 14016 2085 11990 3317 6297 4122
is_linear=0
shrinkage=0.01


Tree=25
num_leaves=10
num_cat=0
split_feature=23 23 23 23 23 23 23 23 1
split_gain=245.113 50.3855 38.8857 9.05235 7.98135 7.1548 3.88817 1.8487 1.73434
threshold=0.3886245674740485 0.24070069204152253 0.56163494809688597 0.30644463667820071 0.17149653979238758 0.6944204152249136 0.460423875432526 0.11353806228373704 0.26924740484429072
decision_type=2 2 2 2 2 2 2 2 2
left_child=1 4 6 8 7 -4 -2 -1 -3
right_child=2 3 5 -5 -6 -7 -8 -9 -10
leaf_value=-0.0016394638350527538 0.00095889607582079332 -0.0003226983462377106 0.0025243848591104835 0.00034352616301875575 -0.00066636011231451442 0.0037173587591090101 0.0016477800648692256 -0.0010987192695741006 -2.4527862412849404e-05
leaf_weight=760 1840 4317 1239 5403 8206 846 1477 3761 3559
leaf_count=760 1840 4317 1239 5403 8206 846 1477 3761 3559
internal_value=0 -0.000402628 0.00193831 2.82919e-05 -0.000852238 0.00300844 0.00126564 -0.00118962 -0.000187961
internal_weight=0 26006 5402 13279 12727 2085 3317 4521 7876
internal_count=31408 26006 5402 13279 12727 2085 3317 4521 7876
is_linear=0
shrinkage=0.01


Tree=26
num_leaves=10
num_cat=0
split_feature=23 23 23 23 23 23 23 23 2
split_gain=240.254 58.6297 27.5084 11.9268 8.76184 5.4516 2.96579 2.83398 1.72257
threshold=0.4197664359861592 0.2610294117647059 0.63992214532871983 0.19485294117647062 0.3371539792387544 0.52141003460207624 0.78568339100346041 0.1368944636678201 0.28352076124567477
decision_type=2 2 2 2 2 2 2 2 2
left_child=1 3 5 7 8 -2 -4 -1 -3
right_child=2 4 6 -5 -6 -7 -8 -9 -10
leaf_value=-0.0014335114680183161 0.0012967644745825041 -0.00014086406860141826 0.0031163229531831018 -0.0005012601633462184 0.0005776304238951554 0.0021406570898941861 0.0042136534609952129 -0.00095165524951859571 0.00015975184914181784
leaf_weight=1570 1775 4303 946 8406 3823 1346 333 5484 3422
leaf_count=1570 1775 4303 946 8406 3823 1346 333 5484 3422
internal_value=0 -0.000353016 0.00216688 -0.000755697 0.000186077 0.00166071 0.00340202 -0.0010589 -7.69803e-06
internal_weight=0 27008 4400 15460 11548 3121 1279 7054 7725
internal_count=31408 27008 4400 15460 11548 3121 1279 7054 7725
is_linear=0
shrinkage=0.01


Tree=27
num_leaves=10
num_cat=0
split_feature=23 23 23 23 23 23 23 2 4
split_gain=235.571 48.4923 37.3963 9.7608 6.7897 5.38107 5.13669 1.93967 1.7874
threshold=0.3886245674740485 0.23507785467128031 0.58758650519031153 0.29779411764705888 0.16284602076124569 0.7350778546712804 0.47123702422145336 0.31163494809688591 0.4409602076124568
decision_type=2 2 2 2 2 2 2 2 2
left_child=1 4 6 -3 -1 -4 -2 -5 -8
right_child=2 3 5 7 -6 -7 8 -9 -10
leaf_value=-0.0012200984032278593 0.00097489021608637239 -0.00023367372986653979 0.0026899364395755565 0.00013762338992351247 -0.00070363526068247158 0.0038508121384380231 0.0014013068450567051 0.00049030358616681104 0.002079601730304248
leaf_weight=3667 2026 7719 1231 3454 8323 591 780 2843 774
leaf_count=3667 2026 7719 1231 3454 8323 591 780 2843 774
internal_value=0 -0.000394713 0.0019002 4.67728e-06 -0.000861589 0.00306649 0.00130664 0.000296853 0.00173914
internal_weight=0 26006 5402 14016 11990 1822 3580 6297 1554
internal_count=31408 26006 5402 14016 11990 1822 3580 6297 1554
is_linear=0
shrinkage=0.01


Tree=28
num_leaves=10
num_cat=0
split_feature=23 23 23 23 23 23 2 2 23
split_gain=230.883 47.5273 36.656 9.56656 6.65458 6.26208 4.09918 1.90466 1.73916
threshold=0.3886245674740485 0.23507785467128031 0.57071799307958493 0.29779411764705888 0.16284602076124569 0.6944204152249136 0.4115484429065745 0.32893598615916958 0.49372837370242223
decision_type=2 2 2 2 2 2 2 2 2
left_child=1 4 6 -3 -1 -4 -2 -5 -8
right_child=2 3 5 7 -6 -7 8 -9 -10
leaf_value=-0.001207897413094313 0.00089336395386910338 -0.00023133698817597872 0.0024766522688635935 0.00015918620543855437 -0.00069659890921625338 0.0036096935824933632 0.0013391815604464228 0.00051843902147570152 0.0019878400619795073
leaf_weight=3667 1655 7719 1152 3936 8323 846 1079 2361 670
leaf_count=3667 1655 7719 1152 3936 8323 846 1079 2361 670
internal_value=0 -0.000390766 0.0018812 4.63051e-06 -0.000852974 0.00295641 0.0012501 0.000293885 0.00158767
internal_weight=0 26006 5402 14016 11990 1998 3404 6297 1749
internal_count=31408 26006 5402 14016 11990 1998 3404 6297 1749
is_linear=0
shrinkage=0.01


Tree=29
num_leaves=10
num_cat=0
split_feature=23 23 23 23 23 23 23 23 2
split_gain=226.377 55.3142 25.97 11.303 8.28791 5.12449 2.83429 2.71052 1.70426
threshold=0.4197664359861592 0.2610294117647059 0.63992214532871983 0.19485294117647062 0.3388840830449828 0.52141003460207624 0.78568339100346041 0.13127162629757788 0.29260380622837373
decision_type=2 2 2 2 2 2 2 2 2
left_child=1 3 5 7 8 -2 -4 -1 -3
right_child=2 4 6 -5 -6 -7 -8 -9 -10
leaf_value=-0.0014431284723542257 0.0012586991486939747 -0.00012455031749344383 0.0030241835021254377 -0.00048610582600724006 0.00057004015629026844 0.0020768825492834091 0.0040969118037381333 -0.0009361888123887882 0.0001762154722804959
leaf_weight=1291 1775 4681 946 8406 3714 1346 333 5763 3153
leaf_count=1291 1775 4681 946 8406 3714 1346 333 5763 3153
internal_value=0 -0.00034267 0.00210337 -0.0007338 0.000180959 0.00161156 0.00330348 -0.00102897 -3.49919e-06
internal_weight=0 27008 4400 15460 11548 3121 1279 7054 7834
internal_count=31408 27008 4400 15460 11548 3121 1279 7054 7834
is_linear=0
shrinkage=0.01


Tree=30
num_leaves=10
num_cat=0
split_feature=23 23 23 23 23 23 23 23 1
split_gain=221.894 46.4965 34.2349 8.59211 7.27312 5.09919 4.6163 1.74174 1.67492
threshold=0.3912197231833911 0.24070069204152253 0.58758650519031153 0.30774221453287204 0.17149653979238758 0.7350778546712804 0.47685986159169552 0.11353806228373704 0.26924740484429072
decision_type=2 2 2 2 2 2 2 2 2
left_child=1 4 6 8 7 -4 -2 -1 -3
right_child=2 3 5 -5 -6 -7 -8 -9 -10
leaf_value=-0.0015700228426997597 0.00097378966036176426 -0.00030715693275449761 0.0026098602180990335 0.0003415318201758573 -0.00063388088905278264 0.0037399210295499682 0.0017122218471836961 -0.0010451538872733471 -1.6460034488210165e-05
leaf_weight=760 2015 4363 1231 5389 8206 591 1460 3761 3632
leaf_count=760 2015 4363 1231 5389 8206 591 1460 3761 3632
internal_value=0 -0.000378578 0.00186616 3.29204e-05 -0.00081132 0.00297642 0.00128404 -0.00113339 -0.000175098
internal_weight=0 26111 5297 13384 12727 1822 3475 4521 7995
internal_count=31408 26111 5297 13384 12727 1822 3475 4521 7995
is_linear=0
shrinkage=0.01


Tree=31
num_leaves=10
num_cat=0
split_feature=23 23 23 23 23 23 23 23 1
split_gain=217.53 51.3881 26.8388 9.42922 8.52507 4.11136 3.78229 2.33429 1.6716
threshold=0.4115484429065745 0.25367647058823534 0.61267301038062294 0.1883650519031142 0.32763840830449836 0.5002162629757787 0.7670847750865053 0.12391868512110728 0.2848183391003461
decision_type=2 2 2 2 2 2 2 2 2
left_child=1 3 5 7 8 -2 -4 -1 -3
right_child=2 4 6 -5 -6 -7 -8 -9 -10
leaf_value=-0.0014747451478842998 0.0011344257486496298 -0.00018864044209591051 0.0027816411400126396 -0.00052326731646315115 0.00048723563884656347 0.0018731416653334485 0.0038941644669148118 -0.00095308114575143939 0.00010417455139488724
leaf_weight=1023 1680 4563 1129 8171 4342 1366 419 5311 3404
leaf_count=1023 1680 4563 1129 8171 4342 1366 419 5311 3404
internal_value=0 -0.000344472 0.0020106 -0.000747749 0.000130752 0.00146571 0.00308277 -0.00103733 -6.35316e-05
internal_weight=0 26814 4594 14505 12309 3046 1548 6334 7967
internal_count=31408 26814 4594 14505 12309 3046 1548 6334 7967
is_linear=0
shrinkage=0.01


Tree=32
num_leaves=10
num_cat=0
split_feature=23 23 23 23 23 23 3 23 4
split_gain=213.266 44.0167 33.8837 9.47201 6.29328 5.71515 3.66786 2.11852 1.5713
threshold=0.3886245674740485 0.23161764705882357 0.56163494809688597 0.29000865051903119 0.6944204152249136 0.16284602076124569 0.4115484429065745 0.34580449826989629 0.45436851211072671
decision_type=2 2 2 2 2 2 2 2 2
left_child=1 5 6 -3 8 -1 -2 -5 -4
right_child=2 3 4 7 -6 -7 -8 -9 -10
leaf_value=-0.0011621463560187626 0.00086294782064880843 -0.00026033157719636556 0.0019471317062461973 0.00013518085357863243 0.0034718129366424909 -0.00068422527639389497 0.0015287579656755434 0.00050690324639891587 0.0026654575026461057
leaf_weight=3667 1737 7333 539 4897 846 7877 1580 2232 700
leaf_count=3667 1737 7333 539 4897 846 7877 1580 2232 700
internal_value=0 -0.000375562 0.00180801 -7.99494e-06 0.00280694 -0.000836039 0.0011801 0.000251562 0.00235297
internal_weight=0 26006 5402 14462 2085 11544 3317 7129 1239
internal_count=31408 26006 5402 14462 2085 11544 3317 7129 1239
is_linear=0
shrinkage=0.01


Tree=33
num_leaves=10
num_cat=0
split_feature=23 23 23 23 23 23 23 23 1
split_gain=209.124 51.1898 24.0534 11.9927 6.48126 4.73766 2.65742 2.65062 1.78863
threshold=0.4197664359861592 0.26838235294117652 0.63992214532871983 0.19744809688581316 0.34580449826989629 0.52141003460207624 0.78568339100346041 0.14511245674740486 0.24805363321799309
decision_type=2 2 2 2 2 2 2 2 2
left_child=1 3 5 7 -3 -2 -4 -1 -5
right_child=2 4 6 8 -6 -7 -8 -9 -10
leaf_value=-0.001281442102544381 0.0012090323255200622 4.8594338088438765e-05 0.0029061663451645891 -0.00055368732669930387 0.00058568908831021181 0.0019957286417262871 0.0039448836007275742 -0.00086007652743803084 -0.00026858656599589031
leaf_weight=2088 1775 7360 946 5350 3234 1346 333 5238 3738
leaf_count=2088 1775 7360 946 5350 3234 1346 333 5238 3738
internal_value=0 -0.000329353 0.00202163 -0.000679111 0.000212552 0.00154831 0.00317661 -0.000980171 -0.000436422
internal_weight=0 27008 4400 16414 10594 3121 1279 7326 9088
internal_count=31408 27008 4400 16414 10594 3121 1279 7326 9088
is_linear=0
shrinkage=0.01


Tree=34
num_leaves=10
num_cat=0
split_feature=23 23 23 23 23 23 23 23 1
split_gain=204.962 50.1711 23.5748 11.7541 6.35462 4.64338 2.60453 2.60034 1.75304
threshold=0.4197664359861592 0.26838235294117652 0.63992214532871983 0.19744809688581316 0.34407439446366789 0.52141003460207624 0.78568339100346041 0.13905709342560554 0.24805363321799309
decision_type=2 2 2 2 2 2 2 2 2
left_child=1 3 5 7 -3 -2 -4 -1 -5
right_child=2 4 6 8 -6 -7 -8 -9 -10
leaf_value=-0.0013137606038852077 0.001196941996722574 4.3620398498518491e-05 0.0028771047327218551 -0.00054815045729838207 0.00057002511671707268 0.0019757713409580767 0.0039054348626294294 -0.00086700413930156247 -0.00026590070036286076
leaf_weight=1695 1775 7237 946 5350 3357 1346 333 5631 3738
leaf_count=1695 1775 7237 946 5350 3357 1346 333 5631 3738
internal_value=0 -0.000326059 0.00200141 -0.00067232 0.000210426 0.00153283 0.00314484 -0.000970369 -0.000432058
internal_weight=0 27008 4400 16414 10594 3121 1279 7326 9088
internal_count=31408 27008 4400 16414 10594 3121 1279 7326 9088
is_linear=0
shrinkage=0.01


Tree=35
num_leaves=10
num_cat=0
split_feature=23 23 23 23 23 23 3 2 1
split_gain=200.948 41.5511 31.9312 8.93949 5.94817 5.39498 3.55428 1.79412 1.57333
threshold=0.3886245674740485 0.23161764705882357 0.56163494809688597 0.29779411764705888 0.6944204152249136 0.16284602076124569 0.4115484429065745 0.32893598615916958 0.26665224913494817
decision_type=2 2 2 2 2 2 2 2 2
left_child=1 5 6 8 -4 -1 -2 -5 -3
right_child=2 3 4 7 -6 -7 -8 -9 -10
leaf_value=-0.0011287897874410451 0.00083326412116595055 -0.00034663938373258768 0.0022833891387328302 0.00014494690345874991 0.0033711258232170809 -0.00066444848581987391 0.0014886848246796599 0.00049361934231987171 -6.6348647117313168e-05
leaf_weight=3667 1737 4644 1239 3936 846 7877 1580 2361 3521
leaf_count=3667 1737 4644 1239 3936 846 7877 1580 2361 3521
internal_value=0 -0.000364554 0.00175502 -7.43055e-06 0.00272474 -0.000811948 0.00114546 0.000275678 -0.000225769
internal_weight=0 26006 5402 14462 2085 11544 3317 6297 8165
internal_count=31408 26006 5402 14462 2085 11544 3317 6297 8165
is_linear=0
shrinkage=0.01


Tree=36
num_leaves=10
num_cat=0
split_feature=23 23 23 23 23 23 23 23 1
split_gain=197.017 48.2277 22.664 11.3229 6.11919 4.46941 2.5278 2.51918 1.69517
threshold=0.4197664359861592 0.26838235294117652 0.63992214532871983 0.19744809688581316 0.34926470588235298 0.52141003460207624 0.78568339100346041 0.13127162629757788 0.24805363321799309
decision_type=2 2 2 2 2 2 2 2 2
left_child=1 3 5 7 -3 -2 -4 -1 -5
right_child=2 4 6 8 -6 -7 -8 -9 -10
leaf_value=-0.0013526298656286332 0.0011732612908516131 5.5187187604012815e-05 0.0028196012431924993 -0.00053751193523667018 0.00058851429929584012 0.0019373613444847479 0.0038326692232140552 -0.00086592960958588989 -0.00025996002272784104
leaf_weight=1291 1775 7592 946 5350 3002 1346 333 6035 3738
leaf_count=1291 1775 7592 946 5350 3002 1346 333 6035 3738
internal_value=0 -0.000319677 0.00196224 -0.000659166 0.000206315 0.0015028 0.00308336 -0.000951697 -0.000423352
internal_weight=0 27008 4400 16414 10594 3121 1279 7326 9088
internal_count=31408 27008 4400 16414 10594 3121 1279 7326 9088
is_linear=0
shrinkage=0.01


Tree=37
num_leaves=10
num_cat=0
split_feature=23 23 23 23 23 23 23 23 2
split_gain=193.105 43.3237 26.5302 7.77889 7.27101 4.0872 3.73599 1.80922 1.65507
threshold=0.40160034602076128 0.24632352941176475 0.60402249134948105 0.31423010380622846 0.17798442906574397 0.49372837370242223 0.7670847750865053 0.11353806228373704 0.34580449826989629
decision_type=2 2 2 2 2 2 2 2 2
left_child=1 4 5 -3 7 -2 -4 -1 -5
right_child=2 3 6 8 -6 -7 -8 -9 -10
leaf_value=-0.0014771874860713358 0.0010016808398578265 -0.00012399250443251251 0.002581582502484909 0.0002433060905154565 -0.00054985486217632416 0.0017183945520515859 0.0036762853685170767 -0.00094922911090730678 0.00061684580887863972
leaf_weight=760 1898 7794 1218 3338 8324 1370 419 4447 1840
leaf_count=760 1898 7794 1218 3338 8324 1370 419 4447 1840
internal_value=0 -0.000337325 0.00182265 7.56055e-05 -0.000733196 0.00130214 0.00286178 -0.00102629 0.000376043
internal_weight=0 26503 4905 12972 13531 3268 1637 5207 5178
internal_count=31408 26503 4905 12972 13531 3268 1637 5207 5178
is_linear=0
shrinkage=0.01


Tree=38
num_leaves=10
num_cat=0
split_feature=23 23 23 23 23 23 23 2 4
split_gain=189.309 39.2209 30.1077 8.46101 5.09925 4.43132 4.24538 1.99503 1.65392
threshold=0.3886245674740485 0.23161764705882357 0.58758650519031153 0.29000865051903119 0.16284602076124569 0.71993944636678209 0.47123702422145336 0.30255190311418695 0.4409602076124568
decision_type=2 2 2 2 2 2 2 2 2
left_child=1 4 6 -3 -1 -4 -2 -5 -8
right_child=2 3 5 7 -6 -7 8 -9 -10
leaf_value=-0.001096542619944903 0.00086924685736445141 -0.00024536389407656291 0.002371138764925652 7.703513947066429e-05 -0.00064510741367839266 0.0033920193761146277 0.001239060577005148 0.00041182192294095965 0.0018915362513891255
leaf_weight=3667 2026 7333 1146 3692 7877 676 780 3437 774
leaf_count=3667 2026 7333 1146 3692 7877 676 780 3437 774
internal_value=0 -0.000353839 0.00170343 -6.87372e-06 -0.000788508 0.00274991 0.00117084 0.000238441 0.00156404
internal_weight=0 26006 5402 14462 11544 1822 3580 7129 1554
internal_count=31408 26006 5402 14462 11544 1822 3580 7129 1554
is_linear=0
shrinkage=0.01


Tree=39
num_leaves=10
num_cat=0
split_feature=23 23 23 23 23 23 23 23 2
split_gain=185.596 45.5095 21.4037 9.23084 6.9793 4.20385 2.39684 2.30917 1.53078
threshold=0.4197664359861592 0.26016435986159175 0.63992214532871983 0.19485294117647062 0.3371539792387544 0.52141003460207624 0.78568339100346041 0.12781141868512114 0.29260380622837373
decision_type=2 2 2 2 2 2 2 2 2
left_child=1 3 5 7 8 -2 -4 -1 -3
right_child=2 4 6 -5 -6 -7 -8 -9 -10
leaf_value=-0.0013432647867801905 0.0011384330572953947 -0.00012380139032219678 0.0027371813030815022 -0.00044188354109293235 0.00051103181609369003 0.0018794852853330601 0.0037236594782398269 -0.00085397231382856181 0.00016176371750327231
leaf_weight=1153 1775 4717 946 8296 3823 1346 333 5901 3118
leaf_count=1153 1775 4717 946 8296 3823 1346 333 5901 3118
internal_value=0 -0.000310273 0.00190451 -0.000668009 0.000160755 0.00145803 0.00299402 -0.000933949 -1.01585e-05
internal_weight=0 27008 4400 15350 11658 3121 1279 7054 7835
internal_count=31408 27008 4400 15350 11658 3121 1279 7054 7835
is_linear=0
shrinkage=0.01


Tree=40
num_leaves=10
num_cat=0
split_feature=23 23 23 23 23 23 3 2 4
split_gain=181.937 37.7352 28.948 8.33296 5.43048 4.78993 3.39151 1.92574 1.52061
threshold=0.3886245674740485 0.23032006920415227 0.56163494809688597 0.29000865051903119 0.6944204152249136 0.15722318339100347 0.4115484429065745 0.30255190311418695 0.44961072664359863
decision_type=2 2 2 2 2 2 2 2 2
left_child=1 5 6 -3 8 -1 -2 -5 -4
right_child=2 3 4 7 -6 -7 -8 -9 -10
leaf_value=-0.0011120783849816087 0.00078459083943085712 -0.00024362032434421796 0.001767022344801161 7.5428908537413769e-05 0.0032108698457690844 -0.00065240197547932323 0.0014248277394666891 0.00040435039968536612 0.0024749365956180515
leaf_weight=3124 1737 7491 531 3692 846 8262 1580 3437 708
leaf_count=3124 1737 7491 531 3692 846 8262 1580 3437 708
internal_value=0 -0.000346882 0.00166994 -1.07198e-05 0.00259326 -0.000778524 0.00108956 0.000234007 0.00217154
internal_weight=0 26006 5402 14620 2085 11386 3317 7129 1239
internal_count=31408 26006 5402 14620 2085 11386 3317 7129 1239
is_linear=0
shrinkage=0.01


Tree=41
num_leaves=10
num_cat=0
split_feature=23 23 23 23 23 23 23 23 1
split_gain=178.401 43.771 20.5724 10.3265 5.59298 4.04762 2.51197 2.32709 1.50537
threshold=0.4197664359861592 0.26838235294117652 0.63992214532871983 0.20134083044982701 0.34926470588235298 0.52141003460207624 0.14511245674740486 0.78568339100346041 0.23983564013840833
decision_type=2 2 2 2 2 2 2 2 2
left_child=1 3 5 6 -3 -2 -1 -4 -5
right_child=2 4 7 8 -6 -7 -8 -9 -10
leaf_value=-0.0011886327216487336 0.0011159024376264761 5.2416777231658815e-05 0.002682296480770847 -0.00051523760448521111 0.00056229710266638821 0.0018430545467767107 -0.00078308694170226001 0.0036543142392828662 -0.00025088462218627884
leaf_weight=2088 1775 7592 946 4534 3002 1346 5688 333 4104
leaf_count=2088 1775 7592 946 4534 3002 1346 5688 333 4104
internal_value=0 -0.000304199 0.00186723 -0.000627622 0.000196901 0.0014295 -0.000891983 0.00293537 -0.000389641
internal_weight=0 27008 4400 16414 10594 3121 7776 1279 8638
internal_count=31408 27008 4400 16414 10594 3121 7776 1279 8638
is_linear=0
shrinkage=0.01


Tree=42
num_leaves=10
num_cat=0
split_feature=23 23 23 23 23 23 23 23 1
split_gain=174.851 42.9 20.163 10.124 5.48193 3.96708 2.28979 2.28078 1.60755
threshold=0.4197664359861592 0.26838235294117652 0.63992214532871983 0.19744809688581316 0.34407439446366789 0.52141003460207624 0.12391868512110728 0.78568339100346041 0.23637543252595158
decision_type=2 2 2 2 2 2 2 2 2
left_child=1 3 5 6 -3 -2 -1 -4 -5
right_child=2 4 7 8 -6 -7 -8 -9 -10
leaf_value=-0.0013367902600039836 0.0011047434115021581 4.0002349527691181e-05 0.0026554735822418023 -0.00052895579153278182 0.00052892683806446069 0.0018246239824511144 -0.00082673220459121208 0.0036177712182203932 -0.00026291317762140059
leaf_weight=1023 1775 7237 946 4627 3357 1346 6303 333 4461
leaf_count=1023 1775 7237 946 4627 3357 1346 6303 333 4461
internal_value=0 -0.000301157 0.00184856 -0.000621345 0.000194932 0.00141521 -0.000897957 0.00290602 -0.000398364
internal_weight=0 27008 4400 16414 10594 3121 7326 1279 9088
internal_count=31408 27008 4400 16414 10594 3121 7326 1279 9088
is_linear=0
shrinkage=0.01


Tree=43
num_leaves=10
num_cat=0
split_feature=23 23 23 23 23 23 2 23 2
split_gain=171.419 35.6155 27.2913 7.87624 4.53143 4.05569 3.99373 1.68895 1.6277
threshold=0.3886245674740485 0.23032006920415227 0.58758650519031153 0.29779411764705888 0.15722318339100347 0.7350778546712804 0.4115484429065745 0.49372837370242223 0.32893598615916958
decision_type=2 2 2 2 2 2 2 2 2
left_child=1 4 6 -3 -1 -4 -2 -8 -5
right_child=2 3 5 8 -6 -7 7 -9 -10
leaf_value=-0.0010804785920483528 0.00076283665608942088 -0.00021201063834527882 0.0022903698318426828 0.00013220284638144563 -0.0006333782031215043 0.0032981921780331287 0.0011735118875682243 0.0017798523094505073 0.0004643104014280161
leaf_weight=3124 1701 8323 1231 3936 8262 591 1079 800 2361
leaf_count=3124 1701 8323 1231 3936 8262 591 1079 800 2361
internal_value=0 -0.000336705 0.00162095 -1.01216e-05 -0.00075605 0.00261728 0.00111388 0.00143167 0.000256723
internal_weight=0 26006 5402 14620 11386 1822 3580 1879 6297
internal_count=31408 26006 5402 14620 11386 1822 3580 1879 6297
is_linear=0
shrinkage=0.01


Tree=44
num_leaves=10
num_cat=0
split_feature=23 23 23 23 23 2 23 23 23
split_gain=168.051 42.719 18.0643 9.75792 5.79934 3.56258 2.38338 2.20113 1.48
threshold=0.42711937716262982 0.26838235294117652 0.63992214532871983 0.20134083044982701 0.34926470588235298 0.4409602076124568 0.14511245674740486 0.78568339100346041 0.51405709342560568
decision_type=2 2 2 2 2 2 2 2 2
left_child=1 3 5 6 -3 -2 -1 -4 -7
right_child=2 4 7 -5 -6 8 -8 -9 -10
leaf_value=-0.0011551752941276151 0.0010126516904093075 5.0850991394782189e-05 0.0026032665482157132 -0.00037790217815019609 0.00055925102053071979 0.0013782604197588035 -0.00076014543985243089 0.0035486113644755996 0.0019720315835750368
leaf_weight=2088 1221 7592 946 8638 3185 731 5688 333 986
leaf_count=2088 1221 7592 946 8638 3185 731 5688 333 986
internal_value=0 -0.000288064 0.00185742 -0.000609238 0.000201102 0.00142559 -0.000866218 0.0028494 0.00171924
internal_weight=0 27191 4217 16414 10777 2938 7776 1279 1717
internal_count=31408 27191 4217 16414 10777 2938 7776 1279 1717
is_linear=0
shrinkage=0.01


Tree=45
num_leaves=10
num_cat=0
split_feature=23 23 23 23 23 23 2 4 2
split_gain=164.759 31.6549 30.1072 6.51601 5.3329 4.24421 3.43448 1.56942 1.52183
threshold=0.37651384083044986 0.22902249134948099 0.55428200692041529 0.28871107266435991 0.6944204152249136 0.15722318339100347 0.40160034602076128 0.44961072664359863 0.29260380622837373
decision_type=2 2 2 2 2 2 2 2 2
left_child=1 5 6 -3 7 -1 -2 -4 -5
right_child=2 3 4 8 -6 -7 -8 -9 -10
leaf_value=-0.0010594320858240834 0.00066364217497237642 -0.00023896852846962504 0.0016477265246667581 3.5032045563136969e-05 0.0030580718260496222 -0.00062560726157237772 0.001269181291172592 0.0023412265157754628 0.00033564271421485597
leaf_weight=3124 1922 7509 573 3281 846 8108 1827 758 3460
leaf_count=3124 1922 7509 573 3281 846 8108 1827 758 3460
internal_value=0 -0.000349276 0.0015019 -3.63615e-05 0.00243726 -0.000746269 0.00095874 0.00204267 0.000189329
internal_weight=0 25482 5926 14250 2177 11232 3749 1331 6741
internal_count=31408 25482 5926 14250 2177 11232 3749 1331 6741
is_linear=0
shrinkage=0.01


Tree=46
num_leaves=10
num_cat=0
split_feature=23 23 23 23 23 2 23 23 1
split_gain=161.572 41.0476 17.3575 9.40577 5.5648 3.42616 2.16722 2.13671 1.56197
threshold=0.42711937716262982 0.26838235294117652 0.63992214532871983 0.19744809688581316 0.34926470588235298 0.4409602076124568 0.11916089965397926 0.78568339100346041 0.25237889273356406
decision_type=2 2 2 2 2 2 2 2 2
left_child=1 3 5 6 -3 -2 -1 -4 -5
right_child=2 4 7 8 -6 -7 -8 -9 -10
leaf_value=-0.0013270159867835474 0.00099301071265478968 4.9863087022259211e-05 0.0025511365139711229 -0.000486329995897465 0.00054787639899655334 0.0016859360416319458 -0.00080002564636082467 0.0034825446763196151 -0.0002170525235072613
leaf_weight=888 1221 7592 946 5579 3185 1717 6438 333 3509
leaf_count=888 1221 7592 946 5579 3185 1717 6438 333 3509
internal_value=0 -0.000282457 0.00182127 -0.000597284 0.000197044 0.00139796 -0.000863903 0.00279364 -0.000382358
internal_weight=0 27191 4217 16414 10777 2938 7326 1279 9088
internal_count=31408 27191 4217 16414 10777 2938 7326 1279 9088
is_linear=0
shrinkage=0.01


Tree=47
num_leaves=10
num_cat=0
split_feature=23 23 23 23 23 3 23 23 1
split_gain=158.363 37.6714 19.6633 7.03246 6.35024 3.32035 2.86577 1.76514 1.47887
threshold=0.4115484429065745 0.25367647058823534 0.61267301038062294 0.18447231833910036 0.32763840830449836 0.4409602076124568 0.7670847750865053 0.11353806228373704 0.22685986159169552
decision_type=2 2 2 2 2 2 2 2 2
left_child=1 3 5 7 -3 -2 -4 -1 -5
right_child=2 4 6 8 -6 -7 -8 -9 -10
leaf_value=-0.0013554214876831362 0.00091743014907675713 -5.4709102457914346e-05 0.0023711153277525131 -0.00058643725735194779 0.00042064161019856515 0.0015777604957324229 0.003339509010172687 -0.0008389943572869752 -0.00032444762300061806
leaf_weight=760 1516 7967 1129 4370 4342 1530 419 5125 4250
leaf_count=760 1516 7967 1129 4370 4342 1530 419 5125 4250
internal_value=0 -0.000293915 0.00171551 -0.0006392 0.000112971 0.00124911 0.00263323 -0.000905687 -0.000457266
internal_weight=0 26814 4594 14505 12309 3046 1548 5885 8620
internal_count=31408 26814 4594 14505 12309 3046 1548 5885 8620
is_linear=0
shrinkage=0.01


Tree=48
num_leaves=10
num_cat=0
split_feature=23 23 23 23 23 23 3 2 4
split_gain=155.293 31.3504 26.281 6.69916 5.01594 4.13639 3.01428 1.66927 1.50864
threshold=0.38386678200692048 0.23032006920415227 0.55428200692041529 0.29000865051903119 0.6944204152249136 0.16284602076124569 0.40160034602076128 0.33066608996539798 0.44961072664359863
decision_type=2 2 2 2 2 2 2 2 2
left_child=1 5 6 -3 8 -1 -2 -5 -4
right_child=2 3 4 7 -6 -7 -8 -9 -10
leaf_value=-0.00099654648457060788 0.00068051590879465371 -0.00022525349959590755 0.0015978223238835992 9.3035300776702758e-05 0.0029698062356975342 -0.00058864022108834661 0.0012741021821834602 0.00041920845988612789 0.0022777606822098153
leaf_weight=3667 1798 7491 573 4521 846 7719 1632 2403 758
leaf_count=3667 1798 7491 573 4521 846 7719 1632 2403 758
internal_value=0 -0.000327796 0.00150837 -1.79954e-05 0.00236773 -0.000720011 0.000962945 0.000206235 0.00198504
internal_weight=0 25801 5607 14415 2177 11386 3430 6924 1331
internal_count=31408 25801 5607 14415 2177 11386 3430 6924 1331
is_linear=0
shrinkage=0.01


Tree=49
num_leaves=10
num_cat=0
split_feature=23 23 23 23 23 2 23 23 1
split_gain=152.305 38.702 16.3617 9.42464 4.85408 3.23339 2.19545 2.03569 1.48403
threshold=0.42711937716262982 0.27184256055363326 0.63992214532871983 0.20134083044982701 0.34926470588235298 0.4409602076124568 0.1368944636678201 0.80514705882352955 0.25367647058823534
decision_type=2 2 2 2 2 2 2 2 2
left_child=1 3 5 6 -3 -2 -1 -4 -5
right_child=2 4 7 8 -6 -7 -8 -9 -10
leaf_value=-0.0011593893963345297 0.00096388914301247025 6.2745234578595477e-05 0.0025161781123685606 -0.00045379208005364325 0.00053200860170977309 0.0016370396149096862 -0.00074080426788001891 0.0035237436876239549 -0.00019191302991738472
leaf_weight=1570 1221 7159 1030 5506 3185 1717 6206 249 3565
leaf_count=1570 1221 7159 1030 5506 3185 1717 6206 249 3565
internal_value=0 -0.000274237 0.00176827 -0.000569859 0.000207235 0.00135729 -0.000825318 0.00271233 -0.000350871
internal_weight=0 27191 4217 16847 10344 2938 7776 1279 9071
internal_count=31408 27191 4217 16847 10344 2938 7776 1279 9071
is_linear=0
shrinkage=0.01


Tree=50
num_leaves=10
num_cat=0
split_feature=23 23 23 23 23 2 23 4 2
split_gain=149.274 37.9347 16.0361 8.71902 5.14143 3.16905 2.15764 2.00809 1.42566
threshold=0.42711937716262982 0.26838235294117652 0.63992214532871983 0.20134083044982701 0.34926470588235298 0.4409602076124568 0.14511245674740486 0.48205017301038072 0.28352076124567477
decision_type=2 2 2 2 2 2 2 2 2
left_child=1 3 5 6 8 -2 -1 -4 -3
right_child=2 4 7 -5 -6 -7 -8 -9 -10
leaf_value=-0.0010919971575860607 0.00095425025180873079 -8.1931973853494847e-05 0.0021342425569550161 -0.00035547500205853114 0.00052668851448645711 0.0016206692370716819 -0.00071614026890690378 0.0029701720826849254 0.00019252550267266242
leaf_weight=2088 1221 3998 436 8638 3185 1717 5688 843 3594
leaf_count=2088 1221 3998 436 8638 3185 1717 5688 843 3594
internal_value=0 -0.000271495 0.00175058 -0.000574149 0.000189466 0.00134371 -0.000817065 0.00268521 4.79943e-05
internal_weight=0 27191 4217 16414 10777 2938 7776 1279 7592
internal_count=31408 27191 4217 16414 10777 2938 7776 1279 7592
is_linear=0
shrinkage=0.01


Tree=51
num_leaves=10
num_cat=0
split_feature=23 23 23 23 23 23 3 4 2
split_gain=146.364 28.2022 26.9402 5.7991 4.72507 3.80775 3.08553 1.43848 1.42213
threshold=0.37651384083044986 0.22902249134948099 0.55428200692041529 0.28871107266435991 0.6944204152249136 0.15722318339100347 0.40160034602076128 0.44961072664359863 0.29865916955017308
decision_type=2 2 2 2 2 2 2 2 2
left_child=1 5 6 -3 7 -1 -2 -4 -5
right_child=2 3 4 8 -6 -7 -8 -9 -10
leaf_value=-0.0010005425478876707 0.00063650506290148403 -0.0002249819259805856 0.0015508449164724682 3.9297707959532476e-05 0.0028847394955848686 -0.00058962918903345451 0.0012120345522567664 0.0022147859112018019 0.00033000670357301239
leaf_weight=3124 2021 7509 573 3500 846 8108 1728 758 3241
leaf_count=3124 2021 7509 573 3500 846 8108 1728 758 3241
internal_value=0 -0.000329201 0.00141558 -3.38453e-05 0.00230038 -0.000703918 0.00090178 0.00192896 0.000179067
internal_weight=0 25482 5926 14250 2177 11232 3749 1331 6741
internal_count=31408 25482 5926 14250 2177 11232 3749 1331 6741
is_linear=0
shrinkage=0.01


Tree=52
num_leaves=10
num_cat=0
split_feature=23 23 23 23 23 2 23 3 1
split_gain=143.552 37.1537 14.8099 9.4516 4.39034 3.15061 2.1384 1.78744 1.50831
threshold=0.43101211072664364 0.27573529411764713 0.65030276816609012 0.20263840830449828 0.35575259515570939 0.460423875432526 0.12781141868512114 0.56163494809688597 0.25367647058823534
decision_type=2 2 2 2 2 2 2 2 2
left_child=1 3 5 6 -3 -2 -1 -4 -5
right_child=2 4 7 8 -6 -7 -8 -9 -10
leaf_value=-0.0011947436701483761 0.00099043511069164835 9.0695485623344419e-05 0.0021874008476734162 -0.00043172628906015033 0.00055482712609687169 0.0016505581721465662 -0.00072892744106535967 0.002984709390236632 -0.00017315794916474139
leaf_weight=1153 1300 7110 455 5611 2857 1629 6784 736 3773
leaf_count=1153 1300 7110 455 5611 2857 1629 6784 736 3773
internal_value=0 -0.000262692 0.00173989 -0.000542597 0.000223737 0.00135757 -0.000796596 0.00268011 -0.000327764
internal_weight=0 27288 4120 17321 9967 2929 7937 1191 9384
internal_count=31408 27288 4120 17321 9967 2929 7937 1191 9384
is_linear=0
shrinkage=0.01


Tree=53
num_leaves=10
num_cat=0
split_feature=23 23 23 23 23 2 23 23 2
split_gain=140.695 36.4143 14.5152 9.26351 4.30297 3.08791 2.10785 1.76716 1.48128
threshold=0.43101211072664364 0.27573529411764713 0.65030276816609012 0.20263840830449828 0.35575259515570939 0.460423875432526 0.14727508650519033 0.80514705882352955 0.25843425605536335
decision_type=2 2 2 2 2 2 2 2 2
left_child=1 3 5 6 -3 -2 -1 -4 -5
right_child=2 4 7 8 -6 -7 -8 -9 -10
leaf_value=-0.001047634868417142 0.00098053076310226548 8.9788530076600928e-05 0.0024552692604229457 -0.00042762710316342206 0.00054927885463528783 0.0016340525903878534 -0.0006860941444928445 0.003402529075801612 -0.00017144155172699099
leaf_weight=2251 1300 7110 942 5606 2857 1629 5686 249 3778
leaf_count=2251 1300 7110 942 5606 2857 1629 5686 249 3778
internal_value=0 -0.000260065 0.00172249 -0.000537171 0.0002215 0.001344 -0.00078863 0.00265331 -0.000324487
internal_weight=0 27288 4120 17321 9967 2929 7937 1191 9384
internal_count=31408 27288 4120 17321 9967 2929 7937 1191 9384
is_linear=0
shrinkage=0.01


Tree=54
num_leaves=10
num_cat=0
split_feature=23 23 23 23 23 2 23 3 2
split_gain=137.895 35.6956 14.2263 8.54649 4.60894 3.02684 2.03515 1.74393 1.39958
threshold=0.43101211072664364 0.27184256055363326 0.65030276816609012 0.20134083044982701 0.34926470588235298 0.45436851211072671 0.11916089965397926 0.56163494809688597 0.25843425605536335
decision_type=2 2 2 2 2 2 2 2 2
left_child=1 3 5 6 -3 -2 -1 -4 -5
right_child=2 4 7 8 -6 -7 -8 -9 -10
leaf_value=-0.0012360274595384663 0.00096237326764531768 5.9701065893360975e-05 0.0021400997190030068 -0.00043460221245636128 0.00051226100915519144 0.0016112329409063808 -0.00072737235810899927 0.0029276454588398337 -0.00018081039482148402
leaf_weight=888 1267 7159 455 5463 3282 1662 6888 736 3608
leaf_count=888 1267 7159 455 5463 3282 1662 6888 736 3608
internal_value=0 -0.000257464 0.00170526 -0.000542193 0.000201958 0.00133056 -0.00078546 0.00262678 -0.000333656
internal_weight=0 27288 4120 16847 10441 2929 7776 1191 9071
internal_count=31408 27288 4120 16847 10441 2929 7776 1191 9071
is_linear=0
shrinkage=0.01


Tree=55
num_leaves=10
num_cat=0
split_feature=23 23 23 23 23 23 2 4 2
split_gain=135.21 26.1301 25.0839 5.35463 4.35383 3.54711 2.88287 1.54236 1.34066
threshold=0.37651384083044986 0.22902249134948099 0.55428200692041529 0.29000865051903119 0.71993944636678209 0.16284602076124569 0.40160034602076128 0.45436851211072671 0.33066608996539798
decision_type=2 2 2 2 2 2 2 2 2
left_child=1 5 6 -3 7 -1 -2 -4 -5
right_child=2 3 4 8 -6 -7 -8 -9 -10
leaf_value=-0.00093234266474221295 0.0005944246609696195 -0.00021228879516883769 0.0015444428500320231 7.5103334002683722e-05 0.0028807273077277036 -0.00055337174394846911 0.0011492094949877259 0.0021921070520804116 0.00037673902610903828
leaf_weight=3667 1922 7645 644 4386 676 7565 1827 857 2219
leaf_count=3667 1922 7645 644 4386 676 7565 1827 857 2219
internal_value=0 -0.000316408 0.00136057 -3.21095e-05 0.00221434 -0.000677097 0.000864788 0.00191423 0.00017644
internal_weight=0 25482 5926 14250 2177 11232 3749 1501 6605
internal_count=31408 25482 5926 14250 2177 11232 3749 1501 6605
is_linear=0
shrinkage=0.01


Tree=56
num_leaves=10
num_cat=0
split_feature=23 23 23 23 23 3 23 23 2
split_gain=132.585 34.332 13.6823 6.51914 5.95431 2.7364 1.88544 1.67738 1.58439
threshold=0.43101211072664364 0.25843425605536335 0.63992214532871983 0.1883650519031142 0.33066608996539798 0.4409602076124568 0.78568339100346041 0.099697231833910036 0.36180795847750874
decision_type=2 2 2 2 2 2 2 2 2
left_child=1 3 5 7 -3 -2 -4 -1 -6
right_child=2 4 6 -5 8 -7 -8 -9 -10
leaf_value=-0.0013680691843723305 0.00094945851233873277 -2.8853256753341942e-05 0.002303185147207711 -0.00039434387973834648 0.00028414170848099931 0.0015721176366962064 0.0031781154982857517 -0.00076729374838875456 0.00066871641588646489
leaf_weight=505 1308 7589 946 8787 2868 1533 333 5829 1710
leaf_count=505 1308 7589 946 8787 2868 1533 333 5829 1710
internal_value=0 -0.000252458 0.00167211 -0.000570632 0.000142965 0.00128544 0.00253098 -0.000815193 0.00042779
internal_weight=0 27288 4120 15121 12167 2841 1279 6334 4578
internal_count=31408 27288 4120 15121 12167 2841 1279 6334 4578
is_linear=0
shrinkage=0.01


Tree=57
num_leaves=10
num_cat=0
split_feature=23 23 23 23 23 23 3 4 1
split_gain=129.97 27.6652 20.447 5.60093 4.14759 3.91008 2.47458 1.41516 1.39238
threshold=0.3912197231833911 0.23724048442906578 0.56163494809688597 0.30774221453287204 0.17149653979238758 0.71993944636678209 0.4115484429065745 0.46561418685121109 0.27184256055363326
decision_type=2 2 2 2 2 2 2 2 2
left_child=1 4 6 8 -1 7 -2 -4 -3
right_child=2 3 5 -5 -6 -7 -8 -9 -10
leaf_value=-0.00087571682775336684 0.00065927744902325347 -0.00025511173655526419 0.0015490266162467303 0.00026903489345173179 -0.00049477038791867348 0.0028245781653026152 0.0012147195297386377 0.0021860614024823712 4.5396597524391405e-06
leaf_weight=4521 1660 4814 634 5389 7770 676 1552 775 3617
leaf_count=4521 1660 4814 634 5389 7770 676 1552 775 3617
internal_value=0 -0.000289738 0.00142823 1.72316e-05 -0.000634894 0.00219937 0.00092766 0.00189942 -0.000143718
internal_weight=0 26111 5297 13820 12291 2085 3212 1409 8431
internal_count=31408 26111 5297 13820 12291 2085 3212 1409 8431
is_linear=0
shrinkage=0.01


Tree=58
num_leaves=10
num_cat=0
split_feature=23 23 23 23 23 3 23 3 1
split_gain=127.47 33.6528 12.6282 8.42881 4.09862 2.69885 1.96544 1.66499 1.40789
threshold=0.43620242214532878 0.27573529411764713 0.65030276816609012 0.20263840830449828 0.35575259515570939 0.4409602076124568 0.11353806228373704 0.56163494809688597 0.23983564013840833
decision_type=2 2 2 2 2 2 2 2 2
left_child=1 3 5 6 -3 -2 -1 -4 -5
right_child=2 4 7 8 -6 -7 -8 -9 -10
leaf_value=-0.0012348529268546324 0.00095893635589027436 8.564993467863979e-05 0.0020503492090073261 -0.00042910673913777362 0.00052886630558301811 0.0015790800571402045 -0.00070006683554787899 0.0028198646940290929 -0.00018410170340843826
leaf_weight=760 1281 7110 455 4766 2953 1552 7177 736 4618
leaf_count=760 1281 7110 455 4766 2953 1552 7177 736 4618
internal_value=0 -0.00024421 0.00166189 -0.000511412 0.000215712 0.00129867 -0.000751275 0.00252589 -0.000308536
internal_weight=0 27384 4024 17321 10063 2833 7937 1191 9384
internal_count=31408 27384 4024 17321 10063 2833 7937 1191 9384
is_linear=0
shrinkage=0.01


Tree=59
num_leaves=10
num_cat=0
split_feature=23 23 23 23 23 2 23 23 2
split_gain=124.933 32.9831 12.3769 8.26107 4.01705 2.64579 1.93655 1.65109 1.38419
threshold=0.43620242214532878 0.27573529411764713 0.65030276816609012 0.20263840830449828 0.35575259515570939 0.48205017301038072 0.13905709342560554 0.80514705882352955 0.24718858131487892
decision_type=2 2 2 2 2 2 2 2 2
left_child=1 3 5 6 -3 -2 -1 -4 -5
right_child=2 4 7 8 -6 -7 -8 -9 -10
leaf_value=-0.0010435146470073402 0.00097342889081998519 8.4793436345620863e-05 0.0023091992262094393 -0.00041825349141073415 0.00052357764149498246 0.001584772627331502 -0.0006623649269967152 0.0032248207358231986 -0.000174687126967061
leaf_weight=1695 1386 7110 942 5038 2953 1447 6242 249 4346
leaf_count=1695 1386 7110 942 5038 2953 1447 6242 249 4346
internal_value=0 -0.000241768 0.00164527 -0.000506298 0.000213555 0.00128568 -0.000743762 0.00250063 -0.000305451
internal_weight=0 27384 4024 17321 10063 2833 7937 1191 9384
internal_count=31408 27384 4024 17321 10063 2833 7937 1191 9384
is_linear=0
shrinkage=0.01


Tree=60
num_leaves=10
num_cat=0
split_feature=23 23 23 23 23 23 3 4 2
split_gain=122.489 23.7529 22.8853 5.29349 3.93492 2.96423 2.63929 1.42029 1.36664
threshold=0.37651384083044986 0.22469723183391005 0.55428200692041529 0.28741349480968864 0.71993944636678209 0.1559256055363322 0.40160034602076128 0.46561418685121109 0.29865916955017308
decision_type=2 2 2 2 2 2 2 2 2
left_child=1 5 6 -3 7 -1 -2 -4 -5
right_child=2 3 4 8 -6 -7 -8 -9 -10
leaf_value=-0.0009282989494958856 0.00057608819581759022 -0.00021828438674505849 0.0014867226370172753 2.6171553944589967e-05 0.0027440027096832294 -0.00055704915943868003 0.0011083756662453568 0.002104751282527934 0.00030821002544402732
leaf_weight=2988 2021 7932 679 3603 676 7675 1728 822 3284
leaf_count=2988 2021 7932 679 3603 676 7675 1728 822 3284
internal_value=0 -0.000301157 0.00129499 -4.21738e-05 0.00211049 -0.000661081 0.000821432 0.00182518 0.000160659
internal_weight=0 25482 5926 14819 2177 10663 3749 1501 6887
internal_count=31408 25482 5926 14819 2177 10663 3749 1501 6887
is_linear=0
shrinkage=0.01


Tree=61
num_leaves=10
num_cat=0
split_feature=23 23 23 23 23 3 23 3 2
split_gain=120.135 31.6786 11.898 7.95597 3.84956 2.54852 1.85288 1.60737 1.39794
threshold=0.43620242214532878 0.27573529411764713 0.65030276816609012 0.20134083044982701 0.35575259515570939 0.4409602076124568 0.11353806228373704 0.56163494809688597 0.23161764705882357
decision_type=2 2 2 2 2 2 2 2 2
left_child=1 3 5 6 -3 -2 -1 -4 -5
right_child=2 4 7 8 -6 -7 -8 -9 -10
leaf_value=-0.0012027862559219724 0.00093067163451749952 8.309917502626163e-05 0.00198477900994348 -0.00043592226608762783 0.00051263817364000553 0.001533296647614838 -0.00068297006740738423 0.002740860532199883 -0.00019279697423762473
leaf_weight=760 1281 7110 455 4322 2953 1552 7016 736 5223
leaf_count=760 1281 7110 455 4322 2953 1552 7016 736 5223
internal_value=0 -0.000237081 0.00161337 -0.000496326 0.000209148 0.00126081 -0.000733775 0.00245201 -0.000302885
internal_weight=0 27384 4024 17321 10063 2833 7776 1191 9545
internal_count=31408 27384 4024 17321 10063 2833 7776 1191 9545
is_linear=0
shrinkage=0.01


Tree=62
num_leaves=10
num_cat=0
split_feature=23 23 23 23 23 23 3 2 23
split_gain=117.749 30.5622 12.1816 5.83175 5.35357 2.28651 2.04316 1.52687 1.40969
threshold=0.43101211072664364 0.25367647058823534 0.61267301038062294 0.32893598615916958 0.18057958477508654 0.7670847750865053 0.4409602076124568 0.35964532871972327 0.099697231833910036
decision_type=2 2 2 2 2 2 2 2 2
left_child=1 4 6 -3 8 -4 -2 -5 -1
right_child=2 3 5 7 -6 -7 -8 -9 -10
leaf_value=-0.0013015368034934053 0.00085699973083380081 -4.4623989709704243e-05 0.0020425467785081578 0.00025754212773296899 -0.0004020304054120454 0.0029075497495530613 0.0014214636981817678 0.0006286272645761006 -0.00074710858546710949
leaf_weight=505 1219 8071 1129 2927 9009 419 1353 1785 4991
leaf_count=505 1219 8071 1129 2927 9009 419 1353 1785 4991
internal_value=0 -0.000237915 0.00157578 0.000118577 -0.000552085 0.00227668 0.00115394 0.000398117 -0.000798052
internal_weight=0 27288 4120 12783 14505 1548 2572 4712 5496
internal_count=31408 27288 4120 12783 14505 1548 2572 4712 5496
is_linear=0
shrinkage=0.01


Tree=63
num_leaves=10
num_cat=0
split_feature=23 23 23 23 23 23 3 1 1
split_gain=115.436 23.5411 20.0099 5.03003 3.71323 3.17531 2.30189 1.31109 1.30961
threshold=0.38386678200692048 0.23032006920415227 0.55428200692041529 0.30125432525951562 0.6944204152249136 0.1559256055363322 0.40160034602076128 0.27487024221453293 0.20523356401384085
decision_type=2 2 2 2 2 2 2 2 2
left_child=1 5 6 7 -4 -1 -2 -3 -7
right_child=2 3 4 -5 -6 8 -8 -9 -10
leaf_value=-0.00090245598228959984 0.00057774587736982008 -0.00026151582937426347 0.0017210694432124259 0.00021628402777962058 0.0025683568652287727 -0.00065104037798411143 0.0010964676886314742 -8.4764776396916176e-06 -0.00040120220687614363
leaf_weight=2988 1798 5401 1331 5716 846 4090 1632 3298 4308
leaf_count=2988 1798 5401 1331 5716 846 4090 1632 3298 4308
internal_value=0 -0.000282617 0.00130048 -1.41605e-05 0.00205033 -0.00062249 0.000824555 -0.000165583 -0.000522879
internal_weight=0 25801 5607 14415 2177 11386 3430 8699 8398
internal_count=31408 25801 5607 14415 2177 11386 3430 8699 8398
is_linear=0
shrinkage=0.01


Tree=64
num_leaves=10
num_cat=0
split_feature=23 23 23 23 23 3 23 3 1
split_gain=113.224 29.8859 11.2235 7.52275 3.62772 2.42192 1.79694 1.56277 1.30811
threshold=0.43620242214532878 0.27573529411764713 0.65030276816609012 0.20263840830449828 0.35575259515570939 0.460423875432526 0.12391868512110728 0.56163494809688597 0.26319204152249137
decision_type=2 2 2 2 2 2 2 2 2
left_child=1 3 5 6 -3 -2 -1 -4 -5
right_child=2 4 7 8 -6 -7 -8 -9 -10
leaf_value=-0.0010997375814409841 0.00092105923781897697 8.0895908697002969e-05 0.0019200879050480142 -0.00037571602611164107 0.00049787482352719927 0.0015061881535243127 -0.00065068927052629026 0.0026656076413295836 -0.00012710095259451526
leaf_weight=1023 1367 7110 455 6160 2953 1466 6914 736 3224
leaf_count=1023 1367 7110 455 6160 2953 1466 6914 736 3224
internal_value=0 -0.000230159 0.00156627 -0.000481963 0.000203259 0.00122385 -0.000708567 0.0023808 -0.000290301
internal_weight=0 27384 4024 17321 10063 2833 7937 1191 9384
internal_count=31408 27384 4024 17321 10063 2833 7937 1191 9384
is_linear=0
shrinkage=0.01


Tree=65
num_leaves=10
num_cat=0
split_feature=23 23 23 23 23 3 23 23 2
split_gain=110.994 30.3612 10.0869 7.37519 3.89984 2.18419 1.67959 1.55079 1.40771
threshold=0.44442041522491355 0.27573529411764713 0.65030276816609012 0.19874567474048446 0.35748269896193779 0.47123702422145336 0.11353806228373704 0.80514705882352955 0.23161764705882357
decision_type=2 2 2 2 2 2 2 2 2
left_child=1 3 5 6 -3 -2 -1 -4 -5
right_child=2 4 7 8 -6 -7 -8 -9 -10
leaf_value=-0.0011595813437904182 0.000958012525929607 8.3024261630466718e-05 0.0021714653706696131 -0.00042764994376394021 0.00051031495675201181 0.0015322504552845427 -0.00066357934845852643 0.0030588416653464594 -0.00018765254583549642
leaf_weight=760 1307 7211 942 4503 3035 1343 6713 249 5345
leaf_count=760 1307 7211 942 4503 3035 1343 6713 249 5345
internal_value=0 -0.0002219 0.00159258 -0.000477143 0.000209593 0.00124903 -0.000714022 0.00235699 -0.000297391
internal_weight=0 27567 3841 17321 10246 2650 7473 1191 9848
internal_count=31408 27567 3841 17321 10246 2650 7473 1191 9848
is_linear=0
shrinkage=0.01


Tree=66
num_leaves=10
num_cat=0
split_feature=23 23 23 23 23 3 23 23 1
split_gain=108.793 24.8205 15.3826 4.78631 4.14484 2.52294 2.44258 1.25798 1.23541
threshold=0.40160034602076128 0.24459342560553635 0.59623702422145342 0.31423010380622846 0.17409169550173012 0.54173875432525964 0.49372837370242223 0.80514705882352955 0.2208044982698962
decision_type=2 2 2 2 2 2 2 2 2
left_child=1 4 6 -3 -1 -4 -2 -7 -6
right_child=2 3 5 -5 8 7 -8 -9 -10
leaf_value=-0.00079351759393252131 0.00072718242975172665 -9.9253917721928256e-05 0.0016539070192359028 0.00029039503063178795 -0.00054466016192086754 0.0022579250183091108 0.0012928382728245918 0.003113073811690379 -0.00030298770792023405
leaf_weight=4803 1898 8059 683 5178 4298 830 1277 217 4165
leaf_count=4803 1898 8059 683 5178 4298 830 1277 217 4165
internal_value=0 -0.000253193 0.00136807 5.31675e-05 -0.000558884 0.00212672 0.000954692 0.00243516 -0.000425723
internal_weight=0 26503 4905 13237 13266 1730 3175 1047 8463
internal_count=31408 26503 4905 13237 13266 1730 3175 1047 8463
is_linear=0
shrinkage=0.01


Tree=67
num_leaves=10
num_cat=0
split_feature=23 23 23 23 23 23 2 2 1
split_gain=106.677 20.7997 20.1058 4.613 3.68721 2.64135 2.2298 1.29951 1.24141
threshold=0.37651384083044986 0.22469723183391005 0.54865916955017313 0.28741349480968864 0.6944204152249136 0.14900519031141871 0.40160034602076128 0.29865916955017308 0.20393598615916958
decision_type=2 2 2 2 2 2 2 2 2
left_child=1 5 6 -3 -4 -1 -2 -5 -7
right_child=2 3 4 7 -6 8 -8 -9 -10
leaf_value=-0.00091178789281722169 0.00051185314553986916 -0.00020309948829371505 0.0016373390388753025 1.9506189338846982e-05 0.0024711980801031663 -0.00065324177562842123 0.00100589142237999 0.00029453098776889173 -0.0004083922172149139
leaf_weight=2376 1895 7932 1421 3603 846 4237 1764 3284 4050
leaf_count=2376 1895 7932 1421 3603 846 4237 1764 3284 4050
internal_value=0 -0.000281047 0.00120851 -3.86979e-05 0.00194852 -0.000617854 0.000750028 0.000150649 -0.00053358
internal_weight=0 25482 5926 14819 2267 10663 3659 6887 8287
internal_count=31408 25482 5926 14819 2267 10663 3659 6887 8287
is_linear=0
shrinkage=0.01


Tree=68
num_leaves=10
num_cat=0
split_feature=23 23 23 23 23 3 23 3 1
split_gain=104.641 28.6205 9.52135 6.97166 3.67349 2.10392 1.69828 1.48954 1.24482
threshold=0.44442041522491355 0.27573529411764713 0.65030276816609012 0.20263840830449828 0.35748269896193779 0.47123702422145336 0.11353806228373704 0.56163494809688597 0.26319204152249137
decision_type=2 2 2 2 2 2 2 2 2
left_child=1 3 5 6 -3 -2 -1 -4 -5
right_child=2 4 7 8 -6 -7 -8 -9 -10
leaf_value=-0.0011309324694846413 0.00092693335771262819 8.0644221238912101e-05 0.0018392181367009549 -0.00036208999358913475 0.0004953493435378856 0.0014905211149991578 -0.00063382051084415832 0.0025670615136218463 -0.00011956301415649243
leaf_weight=760 1307 7211 455 6160 3035 1343 7177 736 3224
leaf_count=760 1307 7211 455 6160 3035 1343 7177 736 3224
internal_value=0 -0.000215456 0.00154634 -0.000463275 0.000203485 0.00121256 -0.000681421 0.002289 -0.000278767
internal_weight=0 27567 3841 17321 10246 2650 7937 1191 9384
internal_count=31408 27567 3841 17321 10246 2650 7937 1191 9384
is_linear=0
shrinkage=0.01


Tree=69
num_leaves=10
num_cat=0
split_feature=23 23 23 23 1 3 23 23 2
split_gain=102.559 28.0515 9.33187 6.74679 3.71864 2.06205 1.56889 1.47174 1.34729
threshold=0.44442041522491355 0.27487024221453293 0.65030276816609012 0.19744809688581316 0.33196366782006925 0.47123702422145336 0.099697231833910036 0.80514705882352955 0.23161764705882357
decision_type=2 2 2 2 2 2 2 2 2
left_child=1 3 5 6 -3 -2 -1 -4 -5
right_child=2 4 7 8 -6 -7 -8 -9 -10
leaf_value=-0.0012285413030940708 0.00091766402590396365 4.3765671191002881e-05 0.0020853807225095743 -0.0004169974078082653 0.00043085488051828702 0.0014756159069278705 -0.00065089798139670782 0.0029498428561122543 -0.00018273336636985741
leaf_weight=505 1307 6230 942 4539 4125 1343 6821 249 5347
leaf_count=505 1307 6230 942 4539 4125 1343 6821 249 5347
internal_value=0 -0.000213301 0.00153087 -0.000460726 0.000197966 0.00120043 -0.000690716 0.00226611 -0.000290292
internal_weight=0 27567 3841 17212 10355 2650 7326 1191 9886
internal_count=31408 27567 3841 17212 10355 2650 7326 1191 9886
is_linear=0
shrinkage=0.01


Tree=70
num_leaves=10
num_cat=0
split_feature=23 23 23 23 23 23 3 4 1
split_gain=100.598 19.6288 19.0179 4.3391 3.48275 2.51735 2.12241 1.36036 1.21864
threshold=0.37651384083044986 0.22469723183391005 0.54865916955017313 0.29000865051903119 0.71993944636678209 0.14727508650519033 0.40160034602076128 0.46561418685121109 0.19355536332179932
decision_type=2 2 2 2 2 2 2 2 2
left_child=1 5 6 -3 7 -1 -2 -4 -7
right_child=2 3 4 -5 -6 8 -8 -9 -10
leaf_value=-0.00089713705680033115 0.0005072216501436624 -0.00019093623133035952 0.0013218290475514344 0.00015333088089814796 0.0024945881698258529 -0.00065281569681517734 0.00099079458202875823 0.0019084042929712784 -0.00041103473856406218
leaf_weight=2251 1991 8214 734 6605 676 3813 1668 857 4599
leaf_count=2251 1991 8214 734 6605 676 3813 1668 857 4599
internal_value=0 -0.000272922 0.00117357 -3.74924e-05 0.00189328 -0.000600112 0.000727664 0.00163779 -0.000520629
internal_weight=0 25482 5926 14819 2267 10663 3659 1591 8412
internal_count=31408 25482 5926 14819 2267 10663 3659 1591 8412
is_linear=0
shrinkage=0.01


Tree=71
num_leaves=10
num_cat=0
split_feature=23 23 23 23 23 3 4 23 1
split_gain=98.6186 26.9583 8.97083 5.87744 4.13168 1.9827 1.43872 1.40019 1.35099
threshold=0.44442041522491355 0.26838235294117652 0.65030276816609012 0.1896626297577855 0.34061418685121109 0.47123702422145336 0.48205017301038072 0.099697231833910036 0.23291522491349484
decision_type=2 2 2 2 2 2 2 2 2
left_child=1 3 5 7 -3 -2 -4 -1 -5
right_child=2 4 6 8 -6 -7 -8 -9 -10
leaf_value=-0.0012072844972999968 0.00089991819944165719 2.2067771594720399e-05 0.0017314544213402211 -0.00043038157965044345 0.00042027994605524268 0.0014470301003820158 0.0024682823229407302 -0.00065886580017042494 -0.00019733143461480175
leaf_weight=505 1307 7004 398 4999 4149 1343 793 5959 4951
leaf_count=505 1307 7004 398 4999 4149 1343 793 5959 4951
internal_value=0 -0.000209164 0.00150118 -0.000466938 0.000170206 0.00117719 0.00222205 -0.000701711 -0.000314419
internal_weight=0 27567 3841 16414 11153 2650 1191 6464 9950
internal_count=31408 27567 3841 16414 11153 2650 1191 6464 9950
is_linear=0
shrinkage=0.01


Tree=72
num_leaves=10
num_cat=0
split_feature=23 23 23 23 23 23 3 4 2
split_gain=96.7026 18.8879 18.3148 3.83625 3.36182 2.66934 2.05128 1.42529 1.12594
threshold=0.37651384083044986 0.22902249134948099 0.54865916955017313 0.2964965397923876 0.7350778546712804 0.1559256055363322 0.40160034602076128 0.46561418685121109 0.25843425605536335
decision_type=2 2 2 2 2 2 2 2 2
left_child=1 5 6 8 7 -1 -2 -4 -3
right_child=2 3 4 -5 -6 -7 -8 -9 -10
leaf_value=-0.00083030962214432401 0.00049632294525110438 -0.00027446146124689006 0.0013092334801880435 0.00016900751105014311 0.0025053983475451947 -0.00048143361398985985 0.00097172437392608474 0.0018948197815269396 -4.1764819464054456e-05
leaf_weight=2988 1991 4381 763 5911 591 8244 1668 913 3958
leaf_count=2988 1991 4381 763 5911 591 8244 1668 913 3958
internal_value=0 -0.000267586 0.00115063 -2.58749e-05 0.00185691 -0.000574244 0.000713041 0.00162823 -0.000164015
internal_weight=0 25482 5926 14250 2267 11232 3659 1676 8339
internal_count=31408 25482 5926 14250 2267 11232 3659 1676 8339
is_linear=0
shrinkage=0.01


Tree=73
num_leaves=10
num_cat=0
split_feature=23 23 23 23 1 3 23 3 2
split_gain=94.8427 26.3909 8.22406 6.3533 3.55232 2.00231 1.6062 1.3054 1.13167
threshold=0.44917820069204156 0.27573529411764713 0.66198096885813162 0.20393598615916958 0.33196366782006925 0.4409602076124568 0.13127162629757788 0.56163494809688597 0.24718858131487892
decision_type=2 2 2 2 2 2 2 2 2
left_child=1 3 5 6 -3 -2 -1 -4 -5
right_child=2 4 7 8 -6 -7 -8 -9 -10
leaf_value=-0.00096888251413643862 0.00087601311819608414 4.4322134891798652e-05 0.0017768254443004941 -0.00036485811724385804 0.00042176951886252603 0.0014313881498807604 -0.00058411471444436603 0.0024855639229174782 -0.00014289210976820019
leaf_weight=1291 1148 6143 418 4940 4197 1494 6797 687 4293
leaf_count=1291 1148 6143 418 4940 4197 1494 6797 687 4293
internal_value=0 -0.000202251 0.00149305 -0.000440904 0.000197528 0.00119007 -0.000645531 0.00221746 -0.000261652
internal_weight=0 27661 3747 17321 10340 2642 8088 1105 9233
internal_count=31408 27661 3747 17321 10340 2642 8088 1105 9233
is_linear=0
shrinkage=0.01


Tree=74
num_leaves=10
num_cat=0
split_feature=23 23 23 23 23 23 2 4 1
split_gain=93.0157 18.1617 17.6204 3.99902 3.05304 2.34758 2.09278 1.26082 1.1704
threshold=0.37651384083044986 0.22469723183391005 0.55428200692041529 0.29000865051903119 0.7350778546712804 0.14727508650519033 0.40160034602076128 0.46561418685121109 0.19355536332179932
decision_type=2 2 2 2 2 2 2 2 2
left_child=1 5 6 -3 7 -1 -2 -4 -7
right_child=2 3 4 -5 -6 8 -8 -9 -10
leaf_value=-0.00086399570053260447 0.00048259958130082237 -0.00018328292266274311 0.0013014714436679236 0.00014721787370472662 0.0024575273715300005 -0.00062994824250244832 0.00095528589925546767 0.0018686425442338533 -0.00039300141892237381
leaf_weight=2251 1922 8214 708 6605 591 3813 1827 878 4599
leaf_count=2251 1922 8214 708 6605 591 3813 1827 878 4599
internal_value=0 -0.000262435 0.00112848 -3.59749e-05 0.00184406 -0.00057716 0.000712954 0.00161545 -0.000500405
internal_weight=0 25482 5926 14819 2177 10663 3749 1586 8412
internal_count=31408 25482 5926 14819 2177 10663 3749 1586 8412
is_linear=0
shrinkage=0.01


Tree=75
num_leaves=10
num_cat=0
split_feature=23 23 23 23 23 4 23 2 23
split_gain=91.2109 22.3161 11.2208 4.32538 3.90438 2.06084 1.84614 1.23772 1.15187
threshold=0.41587370242214539 0.24935121107266439 0.60402249134948105 0.32201557093425609 0.17798442906574397 0.48205017301038072 0.5002162629757787 0.35964532871972327 0.099697231833910036
decision_type=2 2 2 2 2 2 2 2 2
left_child=1 4 6 -3 8 -4 -2 -5 -1
right_child=2 3 5 7 -6 -7 -8 -9 -10
leaf_value=-0.0011685797732950438 0.00071202223115862954 -6.3643089210349164e-05 0.0015244922959996806 0.0001986561622490141 -0.00036877476461673981 0.0022559510057859832 0.0012233073545872186 0.00053436309450442386 -0.00066599645660245363
leaf_weight=505 1580 8088 620 3219 8733 1017 1277 1667 4702
leaf_count=505 1580 8088 620 3219 8733 1017 1277 1667 4702
internal_value=0 -0.000220207 0.00131879 7.82729e-05 -0.000498003 0.00197892 0.000940553 0.000313192 -0.000714739
internal_weight=0 26914 4494 12974 13940 1637 2857 4886 5207
internal_count=31408 26914 4494 12974 13940 1637 2857 4886 5207
is_linear=0
shrinkage=0.01


Tree=76
num_leaves=10
num_cat=0
split_feature=23 23 23 23 2 3 23 23 23
split_gain=89.4192 24.8803 7.78062 6.00648 3.38858 1.91138 1.62139 1.27863 1.06139
threshold=0.44917820069204156 0.27573529411764713 0.66198096885813162 0.20739619377162632 0.33196366782006925 0.4409602076124568 0.14727508650519033 0.82980103806228389 0.36570069204152256
decision_type=2 2 2 2 2 2 2 2 2
left_child=1 3 5 6 -3 -2 -1 -4 -6
right_child=2 4 7 -5 8 -7 -8 -9 -10
leaf_value=-0.00084756826074576313 0.00084819075455954004 4.9659437314411009e-05 0.0020113179000358357 -0.00024486166769260273 0.00027945792912811336 0.0013908082578166661 -0.00053469589958943047 0.002963384288441704 0.00061072675152105515
leaf_weight=2251 1148 6397 939 8800 2242 1494 6270 166 1701
leaf_count=2251 1148 6397 939 8800 2242 1494 6270 166 1701
internal_value=0 -0.000196383 0.00144973 -0.000428105 0.000191786 0.00115503 -0.000617348 0.00215434 0.000422366
internal_weight=0 27661 3747 17321 10340 2642 8521 1105 3943
internal_count=31408 27661 3747 17321 10340 2642 8521 1105 3943
is_linear=0
shrinkage=0.01


Tree=77
num_leaves=10
num_cat=0
split_feature=23 23 23 1 23 23 2 4 1
split_gain=87.6793 17.0606 16.8754 3.6356 3.07812 2.21427 1.93586 1.30596 1.11975
threshold=0.37391868512110732 0.54865916955017313 0.22469723183391005 0.29130622837370251 0.7350778546712804 0.14900519031141871 0.40160034602076128 0.46561418685121109 0.20523356401384085
decision_type=2 2 2 2 2 2 2 2 2
left_child=2 6 5 -4 7 -1 -2 -3 -7
right_child=1 4 3 -5 -6 8 -8 -9 -10
leaf_value=-0.00082970963439023011 0.00045556375968783529 0.0012446708230211413 -0.00016754653036711982 0.00015283403279734776 0.002389362775003648 -0.00059511280574666889 0.00090948046021955208 0.0018052083225298555 -0.00036244363295737922
leaf_weight=2376 1980 763 8767 5943 591 4309 1788 913 3978
leaf_count=2376 1980 763 8767 5943 591 4309 1788 913 3978
internal_value=0 0.00108337 -0.00025768 -3.81093e-05 0.00176884 -0.000560586 0.000670957 0.00155002 -0.000483425
internal_weight=0 6035 25373 14710 2267 10663 3768 1676 8287
internal_count=31408 6035 25373 14710 2267 10663 3768 1676 8287
is_linear=0
shrinkage=0.01


Tree=78
num_leaves=10
num_cat=0
split_feature=23 23 23 23 1 3 23 2 23
split_gain=85.9832 23.9698 7.48395 5.77038 3.259 1.83936 1.35933 1.28709 1.24149
threshold=0.44917820069204156 0.27573529411764713 0.66198096885813162 0.19485294117647062 0.33196366782006925 0.4409602076124568 0.099697231833910036 0.23161764705882357 0.82980103806228389
decision_type=2 2 2 2 2 2 2 2 2
left_child=1 3 5 6 -3 -2 -1 -5 -4
right_child=2 4 8 7 -6 -7 -8 -9 -10
leaf_value=-0.0011401212174113435 0.00083157391899073892 4.1682662513000635e-05 0.0019717204977814764 -0.00038941490023071271 0.00040321139728673877 0.0013638700971970836 -0.00060166850044833574 -0.00016485427098669354 0.0029098569099084443
leaf_weight=505 1148 6143 939 4749 4197 1494 6549 5518 166
leaf_count=505 1148 6143 939 4749 4197 1494 6549 5518 166
internal_value=0 -0.000192573 0.0014216 -0.000420015 0.000188427 0.00113258 -0.000640217 -0.000268725 0.00211265
internal_weight=0 27661 3747 17321 10340 2642 7054 10267 1105
internal_count=31408 27661 3747 17321 10340 2642 7054 10267 1105
is_linear=0
shrinkage=0.01


Tree=79
num_leaves=10
num_cat=0
split_feature=23 23 23 23 23 23 3 4 2
split_gain=84.3506 16.7951 15.9774 3.39835 2.95792 2.13935 1.91819 1.26467 1.10672
threshold=0.37175605536332185 0.54865916955017313 0.22469723183391005 0.2848183391003461 0.7350778546712804 0.1559256055363322 0.38170415224913501 0.46561418685121109 0.29865916955017308
decision_type=2 2 2 2 2 2 2 2 2
left_child=2 6 5 -4 7 -1 -2 -3 -5
right_child=1 4 3 8 -6 -7 -8 -9 -10
leaf_value=-0.00077678599407715002 0.00043294172646264883 0.0012198424502855671 -0.00018591461860465293 1.5367475738102611e-06 0.0023431168715965932 -0.00046139344970209185 0.00087806449495373654 0.0017714469803156493 0.00025454489572260811
leaf_weight=2988 1975 763 7657 3707 591 7675 1899 913 3240
leaf_count=2988 1975 763 7657 3707 591 7675 1899 913 3240
internal_value=0 0.00105119 -0.000255486 -4.06139e-05 0.00173483 -0.000549773 0.000651137 0.00152033 0.000119537
internal_weight=0 6141 25267 14604 2267 10663 3874 1676 6947
internal_count=31408 6141 25267 14604 2267 10663 3874 1676 6947
is_linear=0
shrinkage=0.01


Tree=80
num_leaves=10
num_cat=0
split_feature=23 23 23 23 23 4 3 2 1
split_gain=82.6903 21.9575 8.30326 4.403 3.85388 1.77296 1.45384 1.2694 1.16031
threshold=0.43620242214532878 0.25367647058823534 0.61267301038062294 0.32893598615916958 0.17798442906574397 0.48205017301038072 0.460423875432526 0.35964532871972327 0.22685986159169552
decision_type=2 2 2 2 2 2 2 2 2
left_child=1 4 6 -3 -1 -4 -2 -5 -6
right_child=2 3 5 7 8 -7 -8 -9 -10
leaf_value=-0.00068133314196079393 0.00073664275427879375 -3.8890520683554536e-05 0.0014727820794219557 0.00021510408012148955 -0.00044927981255074248 0.0021731797568997767 0.0012212763909821309 0.00054920168267599638 -0.00022571378652262332
leaf_weight=5207 1236 8071 575 2962 4817 973 1240 1846 4481
leaf_count=5207 1236 8071 575 2962 4817 973 1240 1846 4481
internal_value=0 -0.000196692 0.00133853 0.000103819 -0.000463516 0.00191302 0.000979351 0.000343379 -0.000341536
internal_weight=0 27384 4024 12879 14505 1548 2476 4808 9298
internal_count=31408 27384 4024 12879 14505 1548 2476 4808 9298
is_linear=0
shrinkage=0.01


Tree=81
num_leaves=10
num_cat=0
split_feature=23 23 23 23 23 23 3 4 1
split_gain=81.0788 16.6511 14.2403 3.57398 2.71802 2.39704 1.70683 1.19917 1.18343
threshold=0.38386678200692048 0.23161764705882357 0.55428200692041529 0.30774221453287204 0.75064878892733577 0.16760380622837373 0.40160034602076128 0.46561418685121109 0.27487024221453293
decision_type=2 2 2 2 2 2 2 2 2
left_child=1 5 6 8 7 -1 -2 -4 -3
right_child=2 3 4 -5 -6 -7 -8 -9 -10
leaf_value=-0.00071253233602039921 0.00047588230360930264 -0.00021816291905436008 0.0012266342426427519 0.00020457852507568656 0.0023670744140508399 -0.00041178515762405629 0.00092255303262979459 0.0017658686693082612 1.3927032766317331e-05
leaf_weight=4122 1798 5535 736 5079 503 7422 1632 938 3643
leaf_count=4122 1798 5535 736 5079 503 7422 1632 938 3643
internal_value=0 -0.000236854 0.0010899 -8.25849e-06 0.00172247 -0.000519173 0.000688409 0.00152879 -0.00012604
internal_weight=0 25801 5607 14257 2177 11544 3430 1674 9178
internal_count=31408 25801 5607 14257 2177 11544 3430 1674 9178
is_linear=0
shrinkage=0.01


Tree=82
num_leaves=10
num_cat=0
split_feature=23 23 23 23 1 3 23 1 23
split_gain=79.5436 22.1511 6.94584 4.78565 3.54494 1.69921 1.22326 1.21786 1.18678
threshold=0.44917820069204156 0.26838235294117652 0.66198096885813162 0.1883650519031142 0.33196366782006925 0.4409602076124568 0.099697231833910036 0.23507785467128031 0.82980103806228389
decision_type=2 2 2 2 2 2 2 2 2
left_child=1 3 5 6 -3 -2 -1 -5 -4
right_child=2 4 8 7 -6 -7 -8 -9 -10
leaf_value=-0.0011070135184886431 0.00079958208699512721 1.6887227704306239e-05 0.001895282920192098 -0.00039004758905896423 0.00038217238880837798 0.0013111981533893535 -0.0005939682230702507 -0.00017006177923608093 0.002812515369739877
leaf_weight=505 1148 6944 939 5226 4303 1494 5829 4854 166
leaf_count=505 1148 6944 939 5226 4303 1494 5829 4854 166
internal_value=0 -0.000185221 0.00136733 -0.000419468 0.000156642 0.00108889 -0.000634873 -0.000284114 0.00203308
internal_weight=0 27661 3747 16414 11247 2642 6334 10080 1105
internal_count=31408 27661 3747 16414 11247 2642 6334 10080 1105
is_linear=0
shrinkage=0.01


Tree=83
num_leaves=10
num_cat=0
split_feature=23 23 23 1 23 23 3 4 1
split_gain=78.0229 15.5423 14.787 3.18512 2.75461 2.01808 1.77861 1.26219 1.07195
threshold=0.37175605536332185 0.54865916955017313 0.22469723183391005 0.29130622837370251 0.75064878892733577 0.14727508650519033 0.38170415224913501 0.46561418685121109 0.19355536332179932
decision_type=2 2 2 2 2 2 2 2 2
left_child=2 6 5 -4 7 -1 -2 -3 -7
right_child=1 4 3 -5 -6 8 -8 -9 -10
leaf_value=-0.00079477362544493036 0.00041604332668165964 0.0011858247026951816 -0.00015981596905495518 0.00014152375931193338 0.00232142375311842 -0.00058163883136940126 0.0008446645520070802 0.0017236810991921503 -0.00035487631254985444
leaf_weight=2251 1975 791 8749 5855 503 3813 1899 973 4599
leaf_count=2251 1975 791 8749 5855 503 3813 1899 973 4599
internal_value=0 0.00101099 -0.000245716 -3.90036e-05 0.00166864 -0.000528829 0.00062615 0.0014825 -0.000457663
internal_weight=0 6141 25267 14604 2267 10663 3874 1764 8412
internal_count=31408 6141 25267 14604 2267 10663 3874 1764 8412
is_linear=0
shrinkage=0.01


Tree=84
num_leaves=10
num_cat=0
split_feature=23 23 23 23 2 3 23 4 21
split_gain=76.4949 21.3533 6.68326 5.45032 2.77562 1.63525 1.51312 1.15948 0.977721
threshold=0.44917820069204156 0.27962802768166095 0.66198096885813162 0.21128892733564017 0.33196366782006925 0.45436851211072671 0.1368944636678201 0.52141003460207624 0.26319204152249137
decision_type=2 2 2 2 2 2 2 2 2
left_child=1 3 5 6 -3 -2 -1 -4 -5
right_child=2 4 7 8 -6 -7 -8 -9 -10
leaf_value=-0.00084496563874707101 0.00079689165661257831 5.6374456990832071e-05 0.0016103352614394997 -0.00013108606980805857 0.00039944779666734558 0.0012962618685235345 -0.00050309221644698849 0.0022674691933532091 -0.00034906336156300489
leaf_weight=1570 1209 6054 460 5508 3863 1433 7381 645 3285
leaf_count=1570 1209 6054 460 5508 3863 1433 7381 645 3285
internal_value=0 -0.000181637 0.00134087 -0.000389349 0.000190013 0.00106775 -0.000563057 0.00199391 -0.000212521
internal_weight=0 27661 3747 17744 9917 2642 8951 1105 8793
internal_count=31408 27661 3747 17744 9917 2642 8951 1105 8793
is_linear=0
shrinkage=0.01


Tree=85
num_leaves=10
num_cat=0
split_feature=23 23 23 1 23 23 2 4 1
split_gain=75.0606 14.9482 14.2089 3.07056 2.65732 1.94195 1.71041 1.12788 1.04585
threshold=0.37175605536332185 0.54865916955017313 0.22469723183391005 0.29260380622837373 0.7350778546712804 0.14727508650519033 0.40160034602076128 0.46561418685121109 0.19355536332179932
decision_type=2 2 2 2 2 2 2 2 2
left_child=2 6 5 -4 7 -1 -2 -3 -7
right_child=1 4 3 -5 -6 8 -8 -9 -10
leaf_value=-0.00077941051569507889 0.00041691985690271434 0.0011494922543220409 -0.00015534421104892215 0.00014137702069223648 0.002213122912142079 -0.00057117714028117749 0.00083799910801591107 0.0016704116762092445 -0.00034719204211774995
leaf_weight=2251 2059 763 8847 5757 591 3813 1815 913 4599
leaf_count=2251 2059 763 8847 5757 591 3813 1815 913 4599
internal_value=0 0.000991615 -0.000241006 -3.83746e-05 0.00163657 -0.00051853 0.000614199 0.00143326 -0.00044872
internal_weight=0 6141 25267 14604 2267 10663 3874 1676 8412
internal_count=31408 6141 25267 14604 2267 10663 3874 1676 8412
is_linear=0
shrinkage=0.01


Tree=86
num_leaves=10
num_cat=0
split_feature=23 23 23 1 23 23 3 4 1
split_gain=73.5669 14.6507 13.9288 2.81177 2.60937 2.08195 1.67948 1.18957 0.962116
threshold=0.37175605536332185 0.54865916955017313 0.22902249134948099 0.29130622837370251 0.75064878892733577 0.15722318339100347 0.38170415224913501 0.46561418685121109 0.20523356401384085
decision_type=2 2 2 2 2 2 2 2 2
left_child=2 6 5 -4 7 -1 -2 -3 -7
right_child=1 4 3 -5 -6 8 -8 -9 -10
leaf_value=-0.00072038751948525284 0.00040388960179550828 0.0011510245590535487 -0.00014676780502356442 0.00014091984975499484 0.0022555461716995562 -0.00052850023095745227 0.0008203951070666815 0.0016731787374566663 -0.00031055386991058826
leaf_weight=3124 1975 791 8268 5767 503 3943 1899 973 4165
leaf_count=3124 1975 791 8268 5767 503 3943 1899 973 4165
internal_value=0 0.000981699 -0.000238596 -2.85566e-05 0.0016202 -0.000501053 0.000608057 0.00143904 -0.000416543
internal_weight=0 6141 25267 14035 2267 11232 3874 1764 8108
internal_count=31408 6141 25267 14035 2267 11232 3874 1764 8108
is_linear=0
shrinkage=0.01


Tree=87
num_leaves=10
num_cat=0
split_feature=23 23 23 23 2 3 23 23 2
split_gain=72.1743 20.2188 6.31166 4.93263 2.73304 1.43877 1.26997 1.20811 1.13837
threshold=0.44917820069204156 0.27703287197231841 0.65030276816609012 0.19744809688581316 0.33196366782006925 0.460423875432526 0.099697231833910036 0.82980103806228389 0.23161764705882357
decision_type=2 2 2 2 2 2 2 2 2
left_child=1 3 5 6 -3 -2 -1 -4 -5
right_child=2 4 7 8 -6 -7 -8 -9 -10
leaf_value=-0.0010645479813660725 0.00077147401278057648 4.8411220987701887e-05 0.0017755349827248876 -0.00035568766461724295 0.00038521618233205253 0.0012467173161157708 -0.00054483890716744649 0.0026951208746576884 -0.00014300856734296395
leaf_weight=505 1207 6285 1025 4632 3907 1349 6821 166 5511
leaf_count=505 1207 6285 1025 4632 3907 1349 6821 166 5511
internal_value=0 -0.000176433 0.00130246 -0.000382942 0.000177522 0.0010223 -0.000580664 0.00190371 -0.000240133
internal_weight=0 27661 3747 17469 10192 2556 7326 1191 10143
internal_count=31408 27661 3747 17469 10192 2556 7326 1191 10143
is_linear=0
shrinkage=0.01


Tree=88
num_leaves=10
num_cat=0
split_feature=23 23 23 23 23 23 3 17 1
split_gain=70.7757 14.0868 13.3942 2.94255 2.51273 1.84554 1.61464 1.01881 0.997192
threshold=0.37175605536332185 0.54865916955017313 0.22469723183391005 0.2964965397923876 0.71993944636678209 0.14727508650519033 0.38170415224913501 0.51275951557093435 0.19355536332179932
decision_type=2 2 2 2 2 2 2 2 2
left_child=2 6 5 -4 7 -1 -2 -3 -7
right_child=1 4 3 -5 -6 8 -8 -9 -10
leaf_value=-0.00075779820456112039 0.00039632774474239457 0.0015649487290746176 -0.00015079614964061072 0.00014022386634469686 0.0020997416921312638 -0.00055499547142995862 0.00080471460333909894 0.0010401354106700318 -0.00033628286238028066
leaf_weight=2251 1975 1006 8908 5696 676 3813 1899 585 4599
leaf_count=2251 1975 1006 8908 5696 676 3813 1899 585 4599
internal_value=0 0.000962896 -0.000234026 -3.72896e-05 0.00158899 -0.000503476 0.000596515 0.00137198 -0.000435421
internal_weight=0 6141 25267 14604 2267 10663 3874 1591 8412
internal_count=31408 6141 25267 14604 2267 10663 3874 1591 8412
is_linear=0
shrinkage=0.01


Tree=89
num_leaves=10
num_cat=0
split_feature=23 23 23 23 23 3 2 4 1
split_gain=69.4083 19.441 6.07426 3.69886 3.66756 1.48987 1.16888 1.1003 1.08162
threshold=0.44917820069204156 0.2610294117647059 0.66198096885813162 0.18187716262975781 0.3336937716262976 0.4409602076124568 0.36180795847750874 0.52141003460207624 0.22685986159169552
decision_type=2 2 2 2 2 2 2 2 2
left_child=1 3 5 -1 -3 -2 -6 -4 -5
right_child=2 4 7 8 6 -7 -8 -9 -10
leaf_value=-0.0006129773827839391 0.00074596649180823545 -1.2453644466002387e-05 0.0015261697283257608 -0.00039774572151648558 0.0002141580656221093 0.0012250313606179274 0.00053474503020653464 0.0021663130258404929 -0.00018795710892490717
leaf_weight=5628 1148 7475 460 4853 2820 1494 1906 645 4979
leaf_count=5628 1148 7475 460 4853 2820 1494 1906 645 4979
internal_value=0 -0.000173019 0.00127726 -0.000408534 0.000125404 0.00101687 0.000343451 0.00189983 -0.000291507
internal_weight=0 27661 3747 15460 12201 2642 4726 1105 9832
internal_count=31408 27661 3747 15460 12201 2642 4726 1105 9832
is_linear=0
shrinkage=0.01


Tree=90
num_leaves=10
num_cat=0
split_feature=23 23 23 23 23 4 23 1 2
split_gain=68.0372 16.5056 8.80993 3.38618 2.83563 1.65993 1.54808 0.961277 0.951885
threshold=0.4115484429065745 0.24718858131487892 0.60402249134948105 0.31812283737024227 0.17409169550173012 0.48205017301038072 0.5002162629757787 0.2208044982698962 0.35964532871972327
decision_type=2 2 2 2 2 2 2 2 2
left_child=1 4 6 -3 -1 -4 -2 -6 -5
right_child=2 3 5 8 7 -7 -8 -9 -10
leaf_value=-0.00063176851178987524 0.00059913066992998043 -6.8291380282020189e-05 0.0013051715431314323 0.00016599927348053654 -0.0004338782338862268 0.0019616382293249301 0.0010610571062117933 -0.00022551888573028731 0.00045644782161266507
leaf_weight=4803 1680 8015 620 3466 4442 1017 1277 4415 1673
leaf_count=4803 1680 8015 620 3466 4442 1017 1277 4415 1673
internal_value=0 -0.000192649 0.00112445 6.01821e-05 -0.000436115 0.00171301 0.000798617 -0.000330016 0.000260555
internal_weight=0 26814 4594 13154 13660 1637 2957 8857 5139
internal_count=31408 26814 4594 13154 13660 1637 2957 8857 5139
is_linear=0
shrinkage=0.01


Tree=91
num_leaves=10
num_cat=0
split_feature=23 23 23 1 23 23 3 4 23
split_gain=66.7089 13.2971 12.6519 2.9807 2.40782 1.63813 1.53577 1.19178 0.952546
threshold=0.37175605536332185 0.54865916955017313 0.2208044982698962 0.29130622837370251 0.7670847750865053 0.14727508650519033 0.4115484429065745 0.46561418685121109 0.28611591695501731
decision_type=2 2 2 2 2 2 2 2 2
left_child=2 6 5 8 7 -1 -2 -3 -4
right_child=1 4 3 -5 -6 -7 -8 -9 -10
leaf_value=-0.00073777275926998048 0.00040627351364749717 0.0011029685813305139 -0.00022603642326788728 0.00013159317880266148 0.0022275460203820597 -0.00043208651985306097 0.00080855889185409873 0.001614242398623124 -7.4547772930247468e-06
leaf_weight=2251 2212 818 6248 5915 419 7925 1662 1030 2928
leaf_count=2251 2212 818 6248 5915 419 7925 1662 1030 2928
internal_value=0 0.000934822 -0.000227203 -4.34517e-05 0.00154311 -0.000499706 0.00057886 0.00138793 -0.000156288
internal_weight=0 6141 25267 15091 2267 10176 3874 1848 9176
internal_count=31408 6141 25267 15091 2267 10176 3874 1848 9176
is_linear=0
shrinkage=0.01


Tree=92
num_leaves=10
num_cat=0
split_feature=23 23 23 23 2 3 23 23 21
split_gain=65.4422 18.359 5.7528 4.65725 2.42148 1.42004 1.36097 1.06781 0.941458
threshold=0.44917820069204156 0.27962802768166095 0.66198096885813162 0.2099913494809689 0.33196366782006925 0.460423875432526 0.10748269896193773 0.82980103806228389 0.26319204152249137
decision_type=2 2 2 2 2 2 2 2 2
left_child=1 3 5 6 -3 -2 -1 -4 -5
right_child=2 4 7 8 -6 -7 -8 -9 -10
leaf_value=-0.00096955675640547612 0.0007391791387548484 5.1783298704901975e-05 0.0017153979418154596 -0.00012138120219229633 0.00037222345829855853 0.0012038635077293624 -0.00048927808133716855 0.0025854434880865623 -0.00033384593607914707
leaf_weight=636 1234 6054 939 5638 3863 1408 8160 166 3310
leaf_count=636 1234 6054 939 5638 3863 1408 8160 166 3310
