tree
version=v4
num_class=1
num_tree_per_iteration=1
label_index=0
max_feature_idx=23
objective=regression
feature_names=Column_0 Column_1 Column_2 Column_3 Column_4 Column_5 Column_6 Column_7 Column_8 Column_9 Column_10 Column_11 Column_12 Column_13 Column_14 Column_15 Column_16 Column_17 Column_18 Column_19 Column_20 Column_21 Column_22 Column_23
feature_infos=[0:1] [0:1] [0:1] [0:1] [0:1] [0:1] [0:1] [0:1] [0:1] [0:1] [0:1] [0:1] [0:1] [0:1] [0:1] [0:1] [0:1] [0:1] [0:1] [0:1] [0:1] [0:1] [0:1] [0:1]
tree_sizes=1019 1064 1070 1070 1065 1064 1065 1069 1064 1067 1072 1071 1073 1068 1069 1072 1072 1072 1069 1069 1072 1073 1073 1074 1073 1072 1070 1070 1070 1074 1071 1073 1074 1075 1074 1071 1071 1070 1069 1072 1073 1071 1068 1074 1072 1075 1074 1072 1070 1077 1069 1074 1071 1074 1077 1076 1075 1077 1077 1071 1079 1070 1074 1074 1073 1072 1077 1077 1075 1074 1075 1076 1073 1078 1075 1071 1076 1079 1070 1075 1078 1074 1071 1070 1073 1082 1065 1069 1072 1076 1074 1078 1078 1078 1073 1073 1077 1077 1072 1079

Tree=0
num_leaves=10
num_cat=0
split_feature=23 23 23 23 23 23 23 23 23
split_gain=485.89 83.9584 78.13 13.9594 13.1278 13.0667 11.9676 2.46817 2.14825
threshold=0.36917077829062556 0.23006525545121762 0.53151360814897364 0.64292535413019281 0.15255451217571228 0.44254337100111424 0.30041381505650172 0.75274550374025162 0.10607989813783227
decision_type=2 2 2 2 2 2 2 2 2
left_child=1 4 5 -4 8 -2 -3 -5 -1
right_child=2 6 3 7 -6 -7 -8 -9 -10
leaf_value=0.34251105994435171 0.34570881441631296 0.34434232348754129 0.34739605039902299 0.34847420781372407 0.34364344315231532 0.34648338925631061 0.34500883775753055 0.34965860315252056 0.34302869214563064
leaf_weight=1386 4553 5769 2998 895 4457 4175 5054 219 1902
leaf_count=1386 4553 5769 2998 895 4457 4175 5054 219 1902
internal_value=0.345119 0.344085 0.346615 0.347751 0.34329 0.346079 0.344654 0.348707 0.34281
internal_weight=0 18568 12840 4112 7745 8728 10823 1114 3288
internal_count=31408 18568 12840 4112 7745 8728 10823 1114 3288
is_linear=0
shrinkage=1


Tree=1
num_leaves=10
num_cat=0
split_feature=23 23 23 23 23 23 23 23 2
split_gain=476.221 82.3051 76.5752 13.6915 12.8067 12.5855 11.9725 2.73642 2.0768
threshold=0.36917077829062556 0.22672290307178103 0.53151360814897364 0.63592233009708743 0.44254337100111424 0.29754894158841322 0.14953047907050773 0.72918987744707964 0.31394238421136406
decision_type=2 2 2 2 2 2 2 2 2
left_child=1 6 4 -4 -2 -3 -1 -5 -7
right_child=2 5 3 7 -6 8 -8 -9 -10
leaf_value=-0.0023016102051693454 0.00058388170008615546 -0.0008000884656775805 0.0022297683412019404 0.003205063439398971 0.0013507107437136557 -0.00035081138931680674 -0.0014920057253384523 0.0042712729480853563 4.802364486237688e-05
leaf_weight=3162 4553 5769 2886 897 4175 2311 4325 329 3001
leaf_count=3162 4553 5769 2886 897 4175 2311 4325 329 3001
internal_value=0 -0.00102396 0.00148076 0.00260586 0.000950691 -0.0004767 -0.00183393 0.00349118 -0.000125491
internal_weight=0 18568 12840 4112 8728 11081 7487 1226 5312
internal_count=31408 18568 12840 4112 8728 11081 7487 1226 5312
is_linear=0
shrinkage=0.01


Tree=2
num_leaves=10
num_cat=0
split_feature=23 23 23 23 23 23 23 23 23
split_gain=466.744 80.6738 75.0821 14.5217 12.6123 11.5163 11.4397 2.68197 2.10109
threshold=0.36917077829062556 0.23006525545121762 0.52594302084991262 0.63592233009708743 0.15255451217571228 0.30646188126691076 0.43458538914531281 0.72918987744707964 0.10607989813783227
decision_type=2 2 2 2 2 2 2 2 2
left_child=1 4 6 -4 8 -3 -2 -5 -1
right_child=2 5 3 7 -6 -7 -8 -9 -10
leaf_value=-0.0025588791522843839 0.00053527358859009372 -0.00073367371388531513 0.0021721275891543805 0.0031730128298103478 -0.0014463163358434143 -7.2749001716306761e-05 0.0012701756304403567 0.0042285602596393111 -0.0020469595757082936
leaf_weight=1386 4063 6278 3126 897 4457 4545 4425 329 1902
leaf_count=1386 4063 6278 3126 897 4457 4545 4425 329 1902
internal_value=0 -0.00101372 0.00146595 0.00253388 -0.00179292 -0.000456126 0.000918396 0.00345627 -0.00226275
internal_weight=0 18568 12840 4352 7745 10823 8488 1226 3288
internal_count=31408 18568 12840 4352 7745 10823 8488 1226 3288
is_linear=0
shrinkage=0.01


Tree=3
num_leaves=10
num_cat=0
split_feature=23 23 23 23 23 23 23 23 23
split_gain=457.456 79.0833 73.5909 13.1828 12.3528 12.1153 11.4997 2.64693 2.25163
threshold=0.36917077829062556 0.22672290307178103 0.53151360814897364 0.66218367022123203 0.45336622632500406 0.29754894158841322 0.13775266592392169 0.58658284259111904 0.40577749482731185
decision_type=2 2 2 2 2 2 2 2 2
left_child=1 6 4 7 8 -3 -1 -4 -2
right_child=2 5 3 -5 -6 -7 -8 -9 -10
leaf_value=-0.0023259446758175416 0.00038981775582249171 -0.00078443213431458186 0.002012508779228565 0.003633894720435008 0.0013836421944985265 -0.00012255391414809131 -0.0015068623446444858 0.0025925836649167023 0.00080946824199678419
leaf_weight=2657 2346 5769 1864 887 3572 5312 4830 1361 2810
leaf_count=2657 2346 5769 1864 887 3572 5312 4830 1361 2810
internal_value=0 -0.00100359 0.00145129 0.00255425 0.000931655 -0.000467142 -0.00179754 0.00225731 0.000618526
internal_weight=0 18568 12840 4112 8728 11081 7487 3225 5156
internal_count=31408 18568 12840 4112 8728 11081 7487 3225 5156
is_linear=0
shrinkage=0.01


Tree=4
num_leaves=10
num_cat=0
split_feature=23 23 23 23 23 23 23 23 23
split_gain=448.385 75.9305 73.8167 14.4885 11.7867 11.3613 10.5382 2.60884 2.12907
threshold=0.36391851026579664 0.52275982810759203 0.2232213910552284 0.63592233009708743 0.43458538914531281 0.29468406812032472 0.13775266592392169 0.72918987744707964 0.5786248607353176
decision_type=2 2 2 2 2 2 2 2 2
left_child=2 4 6 8 -2 -4 -1 -5 -3
right_child=1 3 5 7 -6 -7 -8 -9 -10
leaf_value=-0.0023026852500384852 0.00049797768756614142 0.0019098668514720132 -0.00080587620581440498 0.0031088790611479193 0.0012326880718695075 -0.00016108632161035947 -0.0015110657942277836 0.0041499357727160938 0.0024361954186800676
leaf_weight=2657 4432 1998 5768 897 4304 5193 4581 329 1249
leaf_count=2657 4432 1998 5768 897 4304 5193 4581 329 1249
internal_value=0 0.00140247 -0.00101793 0.00246204 0.00085995 -0.000500394 -0.00180166 0.00338825 0.00211233
internal_weight=0 13209 18199 4473 8736 10961 7238 1226 3247
internal_count=31408 13209 18199 4473 8736 10961 7238 1226 3247
is_linear=0
shrinkage=0.01


Tree=5
num_leaves=10
num_cat=0
split_feature=23 23 23 23 23 23 23 23 23
split_gain=439.482 76.0075 70.711 13.6872 12.7655 10.7763 10.1662 2.55692 2.0431
threshold=0.36917077829062556 0.23372592710488624 0.52594302084991262 0.63592233009708743 0.15255451217571228 0.43458538914531281 0.30646188126691076 0.72918987744707964 0.47405697915008754
decision_type=2 2 2 2 2 2 2 2 2
left_child=1 4 5 -4 -1 -2 -3 -5 -7
right_child=2 6 3 7 -6 8 -8 -9 -10
leaf_value=-0.0021969278144974196 0.0005192694770198463 -0.00069630405182622953 0.0021076659995869461 0.0030777902753323884 -0.0013852194757594668 0.0010134007049103042 -6.9720189336468517e-05 0.0041084363594605933 0.0014432355833193617
leaf_weight=3288 4063 6018 3126 897 4717 2169 4545 329 2256
leaf_count=3288 4063 6018 3126 897 4717 2169 4545 329 2256
internal_value=0 -0.000983672 0.00142249 0.00245887 -0.00171862 0.000891117 -0.0004267 0.00335437 0.00123254
internal_weight=0 18568 12840 4352 8005 8488 10563 1226 4425
internal_count=31408 18568 12840 4352 8005 8488 10563 1226 4425
is_linear=0
shrinkage=0.01


Tree=6
num_leaves=10
num_cat=0
split_feature=23 23 23 23 23 23 23 23 23
split_gain=430.771 74.2216 69.7311 15.8751 10.4982 10.1448 9.75032 2.84409 2.41581
threshold=0.36216775425752035 0.51161865350947011 0.2232213910552284 0.62923762533821437 0.29006843864395998 0.13775266592392169 0.42805984402355568 0.7123189559127806 0.56684704758873161
decision_type=2 2 2 2 2 2 2 2 2
left_child=2 6 5 8 -4 -1 -2 -5 -3
right_child=1 3 4 7 -6 -7 -8 -9 -10
leaf_value=-0.0022576891112964675 0.00044969070869374322 0.0017730986570529907 -0.00081153109144494742 0.0029436910217078829 -0.00018888676280923882 -0.0014809848226466974 0.0011311692279202135 0.0039256374446297558 0.0022991070587240615
leaf_weight=2657 4192 2115 5384 899 5448 4581 4206 439 1487
leaf_count=2657 4192 2115 5384 899 5448 4581 4206 439 1487
internal_value=0 0.00136313 -0.00100617 0.00233575 -0.00049837 -0.00176611 0.000790998 0.00326587 0.00199025
internal_weight=0 13338 18070 4940 10832 7238 8398 1338 3602
internal_count=31408 13338 18070 4940 10832 7238 8398 1338 3602
is_linear=0
shrinkage=0.01


Tree=7
num_leaves=10
num_cat=0
split_feature=23 23 23 23 23 23 23 23 3
split_gain=422.223 73.0547 67.9745 12.218 11.4787 11.4702 10.4797 2.46666 2.15938
threshold=0.36917077829062556 0.23006525545121762 0.53151360814897364 0.66218367022123203 0.15255451217571228 0.45336622632500406 0.30646188126691076 0.59501830335826844 0.35564220913576322
decision_type=2 2 2 2 2 2 2 2 2
left_child=1 4 5 7 -1 8 -3 -4 -2
right_child=2 6 3 -5 -6 -7 -8 -9 -10
leaf_value=-0.0021538722065080258 0.00033752171043742278 -0.00069831287514824747 0.0019647826943751416 0.0034937080495655872 -0.0013749937385731056 0.0013304107821871624 -6.7833820708873636e-05 0.0025439927679678748 0.00075697915120291365
leaf_weight=3288 2014 6278 2091 887 4457 3572 4545 1134 3142
leaf_count=3288 2014 6278 2091 887 4457 3572 4545 1134 3142
internal_value=0 -0.000964164 0.00139428 0.00245432 -0.00170565 0.00089487 -0.00043355 0.00216845 0.000593134
internal_weight=0 18568 12840 4112 7745 8728 10823 3225 5156
internal_count=31408 18568 12840 4112 7745 8728 10823 3225 5156
is_linear=0
shrinkage=0.01


Tree=8
num_leaves=10
num_cat=0
split_feature=23 23 23 23 23 23 23 23 23
split_gain=413.858 71.3946 67.0424 16.178 10.8792 9.07498 8.45352 2.76024 2.63011
threshold=0.36216775425752035 0.50572974693617712 0.21971987903867582 0.62923762533821437 0.28545280916759513 0.13775266592392169 0.42805984402355568 0.7123189559127806 0.56684704758873161
decision_type=2 2 2 2 2 2 2 2 2
left_child=2 6 5 8 -4 -1 -2 -5 -3
right_child=1 3 4 7 -6 -7 -8 -9 -10
leaf_value=-0.0022135734790287658 0.00044014781651240001 0.0017165461148555311 -0.00083297030927114454 0.0028840813554566482 -0.00020553934771851308 -0.0014711244984068556 0.0010841204444650724 0.003851443970393483 0.0022538077900913951
leaf_weight=2657 4192 2353 5250 899 5835 4328 3968 439 1487
leaf_count=2657 4192 2353 5250 899 5835 4328 3968 439 1487
internal_value=0 0.0013361 -0.000986215 0.00225454 -0.000502699 -0.00175354 0.000753295 0.00320147 0.0019246
internal_weight=0 13338 18070 5178 11085 6985 8160 1338 3840
internal_count=31408 13338 18070 5178 11085 6985 8160 1338 3840
is_linear=0
shrinkage=0.01


Tree=9
num_leaves=10
num_cat=0
split_feature=23 23 23 23 23 23 23 23 23
split_gain=405.653 76.2401 59.6963 12.6443 11.7505 10.7185 9.14411 2.41898 2.37238
threshold=0.3780837179691231 0.23722743912143882 0.53151360814897364 0.1608308133057457 0.66218367022123203 0.31362406493713196 0.45559446124462838 0.10942225051726885 0.58658284259111904
decision_type=2 2 2 2 2 2 2 2 2
left_child=1 3 6 7 8 -3 -2 -1 -4
right_child=2 5 4 -5 -6 -7 -8 -9 -10
leaf_value=-0.002376797660790532 0.00063701294336938332 -0.00062835544056673233 0.001893731853285157 -0.0012822441751490427 0.0034251424898692697 4.9104882459160359e-06 0.001316267839654769 -0.0018549332859605122 0.0024428997062349214
leaf_weight=1510 4650 6284 1864 4590 887 4651 3454 2157 1361
leaf_count=1510 4650 6284 1864 4590 887 4651 3454 2157 1361
internal_value=0 -0.000906696 0.00142447 -0.00163202 0.00240584 -0.000359007 0.000926518 -0.00206983 0.00212549
internal_weight=0 19192 12216 8257 4112 10935 8104 3667 3225
internal_count=31408 19192 12216 8257 4112 10935 8104 3667 3225
is_linear=0
shrinkage=0.01


Tree=10
num_leaves=10
num_cat=0
split_feature=23 23 23 23 23 23 23 23 2
split_gain=397.662 69.8262 63.4397 15.5514 11.1738 8.44729 7.71807 3.0011 2.25153
threshold=0.36057615788636005 0.50572974693617712 0.21414929173961486 0.6225529205793412 0.28545280916759513 0.42805984402355568 0.13775266592392169 0.7123189559127806 0.31394238421136406
decision_type=2 2 2 2 2 2 2 2 2
left_child=2 5 6 -3 -4 -2 -1 -5 -6
right_child=1 3 4 7 8 -7 -8 -9 -10
leaf_value=-0.0021699226142591131 0.00042356325249532609 0.0018680719165276422 -0.00083687764026686067 0.0027887888338052748 -0.00041661746767285366 0.0010628212639769499 -0.0014729818265980296 0.0037786780443712898 -1.9141425587138744e-05
leaf_weight=2657 4315 3726 5625 1013 2728 3968 3953 439 2984
leaf_count=2657 4315 3726 5625 1013 2728 3968 3953 439 2984
internal_value=0 0.00129925 -0.000974495 0.00221018 -0.000520516 0.000729802 -0.00175313 0.00308807 -0.000208972
internal_weight=0 13461 17947 5178 11337 8283 6610 1452 5712
internal_count=31408 13461 17947 5178 11337 8283 6610 1452 5712
is_linear=0
shrinkage=0.01


Tree=11
num_leaves=10
num_cat=0
split_feature=23 23 23 23 23 23 23 23 2
split_gain=389.79 73.3009 57.4385 12.1607 10.3051 10.2631 10.0976 2.34098 1.82956
threshold=0.3780837179691231 0.23722743912143882 0.54042654782747113 0.1608308133057457 0.31139583001750765 0.45559446124462838 0.66218367022123203 0.10942225051726885 0.42248925672449472
decision_type=2 2 2 2 2 2 2 2 2
left_child=1 3 5 7 -3 8 -4 -1 -2
right_child=2 4 6 -5 -6 -7 -8 -9 -10
leaf_value=-0.0023313304192775133 0.00045447059993750506 -0.00062249559402221763 0.0021372539391078709 -0.0012569744217459089 -3.6716033756506765e-06 0.001324244372945497 0.0033581039608532844 -0.0018179480873452439 0.00085599899414773046
leaf_weight=1510 2684 6151 2868 4590 4784 3811 887 2157 1966
leaf_count=1510 2684 6151 2868 4590 4784 3811 887 2157 1966
internal_value=0 -0.000888791 0.00139634 -0.00159999 -0.000351764 0.000939533 0.00242564 -0.00202935 0.000624235
internal_weight=0 19192 12216 8257 10935 8461 3755 3667 4650
internal_count=31408 19192 12216 8257 10935 8461 3755 3667 4650
is_linear=0
shrinkage=0.01


Tree=12
num_leaves=10
num_cat=0
split_feature=23 23 23 23 23 23 23 23 2
split_gain=382.113 64.8402 63.0333 12.3827 10.4539 10.0837 8.36769 2.36517 2.33263
threshold=0.36391851026579664 0.52275982810759203 0.21971987903867582 0.63592233009708743 0.28545280916759513 0.43458538914531281 0.13775266592392169 0.75274550374025162 0.31394238421136406
decision_type=2 2 2 2 2 2 2 2 2
left_child=2 5 6 -3 -4 -2 -1 -5 -6
right_child=1 3 4 7 8 -7 -8 -9 -10
leaf_value=-0.0021271263169230577 0.00045854570637913475 0.0019505204551477212 -0.00080064180658308379 0.0029252512030887986 -0.00039771452419750921 0.001138110298438851 -0.0014141968090100948 0.0040719245272139984 -1.5807550504826656e-06
leaf_weight=2657 4432 3247 5250 1007 2818 4304 4328 219 3146
leaf_count=2657 4432 3247 5250 1007 2818 4304 4328 219 3146
internal_value=0 0.00129469 -0.000939696 0.00227383 -0.000475219 0.00079335 -0.00168539 0.00313008 -0.000188755
internal_weight=0 13209 18199 4473 11214 8736 6985 1226 5964
internal_count=31408 13209 18199 4473 11214 8736 6985 1226 5964
is_linear=0
shrinkage=0.01


Tree=13
num_leaves=10
num_cat=0
split_feature=23 23 23 23 23 23 23 23 2
split_gain=374.54 65.8696 59.8045 14.6902 10.5269 7.95753 7.25582 2.85377 2.20744
threshold=0.36057615788636005 0.50572974693617712 0.21414929173961486 0.6225529205793412 0.28386121279643489 0.42153429890179855 0.13775266592392169 0.7123189559127806 0.31394238421136406
decision_type=2 2 2 2 2 2 2 2 2
left_child=2 5 6 -3 -4 -2 -1 -5 -6
right_child=1 3 4 7 8 -7 -8 -9 -10
leaf_value=-0.0021058550581341631 0.00038335733649638048 0.0018131555979636507 -0.00081948601624681945 0.0027070512857218249 -0.0004116850021483663 0.0010039125975265331 -0.0014301070127831269 0.0036723373426391761 -2.2823602704589238e-05
leaf_weight=2657 3952 3726 5489 1013 2811 4331 3953 439 3037
leaf_count=2657 3952 3726 5489 1013 2811 4331 3953 439 3037
internal_value=0 0.00126092 -0.00094574 0.00214566 -0.000504959 0.000707832 -0.00170174 0.0029989 -0.00020974
internal_weight=0 13461 17947 5178 11337 8283 6610 1452 5848
internal_count=31408 13461 17947 5178 11337 8283 6610 1452 5848
is_linear=0
shrinkage=0.01


Tree=14
num_leaves=10
num_cat=0
split_feature=23 23 23 23 23 23 23 23 2
split_gain=367.185 69.1177 54.222 11.4877 9.73488 9.6919 9.51743 2.2408 1.99165
threshold=0.3780837179691231 0.23722743912143882 0.54042654782747113 0.1608308133057457 0.31362406493713196 0.46450740092312598 0.66218367022123203 0.10607989813783227 0.42248925672449472
decision_type=2 2 2 2 2 2 2 2 2
left_child=1 3 5 7 -3 8 -4 -1 -2
right_child=2 4 6 -5 -6 -7 -8 -9 -10
leaf_value=-0.0022876731049360824 0.00046606810932336854 -0.00059784699296219453 0.0020753315454959411 -0.0012198529978727107 5.6614676302835896e-06 0.0013310139937915545 0.0032605912424665969 -0.0017778579683313763 0.00086385343966344436
leaf_weight=1386 2905 6284 2868 4590 4651 3335 887 2281 2221
leaf_count=1386 2905 6284 2868 4590 4651 3335 887 2281 2221
internal_value=0 -0.000862634 0.00135525 -0.00155324 -0.000341156 0.000911414 0.00235531 -0.00197055 0.000638421
internal_weight=0 19192 12216 8257 10935 8461 3755 3667 5126
internal_count=31408 19192 12216 8257 10935 8461 3755 3667 5126
is_linear=0
shrinkage=0.01


Tree=15
num_leaves=10
num_cat=0
split_feature=23 23 23 23 23 23 23 23 2
split_gain=359.926 65.5526 55.6007 14.1516 9.79706 8.27807 6.71029 2.75842 2.28177
threshold=0.35691548623269148 0.50572974693617712 0.21208021645710648 0.6225529205793412 0.2763807098519816 0.42153429890179855 0.12613401241445168 0.7123189559127806 0.30407448671017034
decision_type=2 2 2 2 2 2 2 2 2
left_child=2 5 6 -3 -4 -2 -1 -5 -6
right_child=1 3 4 7 8 -7 -8 -9 -10
leaf_value=-0.0021350515010236533 0.00036151925794371753 0.001777113354302467 -0.00084652862187066925 0.0026539857185428257 -0.00045828239046881382 0.00098430136833610612 -0.0014524147876906212 0.0036030081837758387 -7.4164127866141073e-05
leaf_weight=2159 4208 3726 4986 1013 2874 4331 4324 439 3348
leaf_count=2159 4208 3726 4986 1013 2874 4331 4324 439 3348
internal_value=0 0.00121572 -0.000942627 0.00210346 -0.000516256 0.000677396 -0.00167975 0.00294091 -0.000251592
internal_weight=0 13717 17691 5178 11208 8539 6483 1452 6222
internal_count=31408 13717 17691 5178 11208 8539 6483 1452 6222
is_linear=0
shrinkage=0.01


Tree=16
num_leaves=10
num_cat=0
split_feature=23 23 23 23 23 23 23 23 2
split_gain=352.828 66.4414 52.1765 11.8242 9.80138 8.77101 8.76132 2.56068 1.94507
threshold=0.3780837179691231 0.24104727041222349 0.54392805984402359 0.16847047588731498 0.46450740092312598 0.66218367022123203 0.31967213114754106 0.11292376253382143 0.42248925672449472
decision_type=2 2 2 2 2 2 2 2 2
left_child=1 3 4 7 8 -4 -3 -1 -2
right_child=2 6 5 -5 -6 -7 -8 -9 -10
leaf_value=-0.0022002270464953752 0.00045515746920637658 -0.00054881620964491247 0.0020532143837899263 -0.0011497971169164157 0.0013147884895938727 0.0031967485592760392 3.871042375007229e-05 -0.0016880054880373688 0.00084826288663870822
leaf_weight=1643 2905 6520 2751 4469 3452 887 4156 2404 2221
leaf_count=1643 2905 6520 2751 4469 3452 887 4156 2404 2221
internal_value=0 -0.000845601 0.00132849 -0.00150439 0.000902876 0.00233203 -0.000320101 -0.00189596 0.000625483
internal_weight=0 19192 12216 8516 8578 3638 10676 4047 5126
internal_count=31408 19192 12216 8516 8578 3638 10676 4047 5126
is_linear=0
shrinkage=0.01


Tree=17
num_leaves=10
num_cat=0
split_feature=23 23 23 23 23 23 23 23 2
split_gain=345.838 63.0228 53.4612 13.6294 9.44113 7.97191 6.44257 2.66695 2.22399
threshold=0.35691548623269148 0.50572974693617712 0.21208021645710648 0.6225529205793412 0.2763807098519816 0.42153429890179855 0.12613401241445168 0.7123189559127806 0.30407448671017034
decision_type=2 2 2 2 2 2 2 2 2
left_child=2 5 6 -3 -4 -2 -1 -5 -6
right_child=1 3 4 7 8 -7 -8 -9 -10
leaf_value=-0.0020929229279506422 0.00035387481582246889 0.0017418620675018382 -0.00083012472115283819 0.0026018563318935106 -0.00045015143616800919 0.00096503165011437107 -0.0014240426803567722 0.0035350106096484939 -7.0928112488229448e-05
leaf_weight=2159 4208 3726 4986 1013 2874 4331 4324 439 3348
leaf_count=2159 4208 3726 4986 1013 2874 4331 4324 439 3348
internal_value=0 0.00119169 -0.000923994 0.00206213 -0.000505907 0.000663855 -0.0016468 0.00288399 -0.000246095
internal_weight=0 13717 17691 5178 11208 8539 6483 1452 6222
internal_count=31408 13717 17691 5178 11208 8539 6483 1452 6222
is_linear=0
shrinkage=0.01


Tree=18
num_leaves=10
num_cat=0
split_feature=23 23 23 23 23 23 23 23 2
split_gain=339.032 63.8806 50.2138 10.6664 9.0311 8.97193 8.77989 2.09171 1.70019
threshold=0.3780837179691231 0.23722743912143882 0.54042654782747113 0.1608308133057457 0.31139583001750765 0.45559446124462838 0.66218367022123203 0.10273754575839568 0.42248925672449472
decision_type=2 2 2 2 2 2 2 2 2
left_child=1 3 5 7 -3 8 -4 -1 -2
right_child=2 4 6 -5 -6 -7 -8 -9 -10
leaf_value=-0.0022254492693087637 0.00041669225322071515 -0.00058101697711712902 0.00199573590598138 -0.0011715835178253689 -1.7065488038233402e-06 0.0012348419837277297 0.0031341440767352182 -0.001722357712636577 0.00080376481234834625
leaf_weight=1258 2684 6151 2868 4590 4784 3811 887 2409 1966
leaf_count=1258 2684 6151 2868 4590 4784 3811 887 2409 1966
internal_value=0 -0.000828905 0.00130225 -0.00149284 -0.000327572 0.000875143 0.00226465 -0.00189495 0.000580345
internal_weight=0 19192 12216 8257 10935 8461 3755 3667 4650
internal_count=31408 19192 12216 8257 10935 8461 3755 3667 4650
is_linear=0
shrinkage=0.01


Tree=19
num_leaves=10
num_cat=0
split_feature=23 23 23 23 23 23 23 23 3
split_gain=332.329 57.7204 53.8239 9.78702 9.64068 9.08136 7.81722 1.98153 1.97538
threshold=0.36917077829062556 0.23372592710488624 0.53151360814897364 0.15796593983765719 0.64292535413019281 0.45336622632500406 0.30646188126691076 0.75274550374025162 0.35564220913576322
decision_type=2 2 2 2 2 2 2 2 2
left_child=1 3 5 -1 -4 8 -3 -6 -2
right_child=2 6 4 -5 7 -7 -8 -9 -10
leaf_value=-0.0018882493433972855 0.00027962071780694654 -0.00060643771369193458 0.0018850957710243726 -0.0011842769801152051 0.0027659565829697935 0.0011801255774900135 -5.6989451622185253e-05 0.0038271866936117551 0.00068080955367381371
leaf_weight=3543 2014 6018 2998 4462 895 3572 4545 219 3142
leaf_count=3543 2014 6018 2998 4462 895 3572 4545 219 3142
internal_value=0 -0.000855389 0.00123698 -0.00149585 0.00218025 0.000792583 -0.000370024 0.00297458 0.0005241
internal_weight=0 18568 12840 8005 4112 8728 10563 1114 5156
internal_count=31408 18568 12840 8005 4112 8728 10563 1114 5156
is_linear=0
shrinkage=0.01


Tree=20
num_leaves=10
num_cat=0
split_feature=23 23 23 23 23 23 23 23 2
split_gain=325.79 59.4586 50.4308 14.1457 8.93089 6.45098 6.10061 3.01726 2.15758
threshold=0.35691548623269148 0.49777176508037574 0.21208021645710648 0.61045678815852311 0.2763807098519816 0.41532707305427347 0.12613401241445168 0.7123189559127806 0.30407448671017034
decision_type=2 2 2 2 2 2 2 2 2
left_child=2 5 6 -3 -4 -2 -1 -5 -6
right_child=1 3 4 7 8 -7 -8 -9 -10
leaf_value=-0.0020329562250236606 0.00031645331249169004 0.0016233321357671238 -0.00080608383278398758 0.0024708768391258859 -0.00043904212595368834 0.00087905999775275234 -0.0013820695956939769 0.0034353653770916011 -6.552345607144522e-05
leaf_weight=2159 3837 3852 4986 1242 2874 4347 4324 439 3348
leaf_count=2159 3837 3852 4986 1242 2874 4347 4324 439 3348
internal_value=0 0.00115663 -0.000896814 0.00195735 -0.000490749 0.000615287 -0.00159883 0.00272276 -0.000238055
internal_weight=0 13717 17691 5533 11208 8184 6483 1681 6222
internal_count=31408 13717 17691 5533 11208 8184 6483 1681 6222
is_linear=0
shrinkage=0.01


Tree=21
num_leaves=10
num_cat=0
split_feature=23 23 23 23 23 23 23 23 2
split_gain=319.372 62.2028 45.6974 12.1696 8.21606 7.93626 7.55428 2.35531 1.73868
threshold=0.38190354925990772 0.24757281553398061 0.54392805984402359 0.16847047588731498 0.46450740092312598 0.66218367022123203 0.32174120643004939 0.10942225051726885 0.42248925672449472
decision_type=2 2 2 2 2 2 2 2 2
left_child=1 3 4 7 8 -4 -3 -1 -2
right_child=2 6 5 -5 -6 -7 -8 -9 -10
leaf_value=-0.0021183202561755841 0.00044581696164599615 -0.00048912581378736191 0.0019552826552483569 -0.0010675255723716093 0.0012502728087011711 0.0030430404946056805 5.8376355323988994e-05 -0.0016195029305910145 0.0008264754060617681
leaf_weight=1510 2738 6133 2751 4986 3452 887 4278 2537 2136
leaf_count=1510 2738 6133 2751 4986 3452 887 4278 2537 2136
internal_value=0 -0.000790995 0.00128553 -0.00139821 0.000877005 0.00222049 -0.000264151 -0.00180562 0.000612638
internal_weight=0 19444 11964 9033 8326 3638 10411 4047 4874
internal_count=31408 19444 11964 9033 8326 3638 10411 4047 4874
is_linear=0
shrinkage=0.01


Tree=22
num_leaves=10
num_cat=0
split_feature=23 23 23 23 23 23 23 23 3
split_gain=313.043 57.1711 48.5255 12.4558 9.84007 7.25075 4.88352 2.9143 2.18099
threshold=0.35691548623269148 0.50572974693617712 0.20428139423842115 0.61045678815852311 0.27494827311793735 0.42153429890179855 0.11929014801846251 0.7123189559127806 0.31394238421136406
decision_type=2 2 2 2 2 2 2 2 2
left_child=2 5 6 -3 -4 -2 -1 -5 -6
right_child=1 3 4 7 8 -7 -8 -9 -10
leaf_value=-0.0020317771622205862 0.00033542089793071704 0.0016227817860963811 -0.00082036824380953899 0.0024226916410424858 -0.00042263258063155639 0.00091827937661259108 -0.001417651149313851 0.0033705813795803347 -5.1963941272057853e-05
leaf_weight=1899 4208 3497 5372 1242 3202 4331 4070 439 3148
leaf_count=1899 4208 3497 5372 1242 3202 4331 4070 439 3148
internal_value=0 0.00113378 -0.000879094 0.00196283 -0.000505363 0.000631048 -0.00161303 0.00267024 -0.000238874
internal_weight=0 13717 17691 5178 11722 8539 5969 1681 6350
internal_count=31408 13717 17691 5178 11722 8539 5969 1681 6350
is_linear=0
shrinkage=0.01


Tree=23
num_leaves=10
num_cat=0
split_feature=23 23 23 23 23 23 23 23 2
split_gain=306.894 59.8203 43.9925 10.3752 9.11786 8.28773 6.71392 2.26148 1.84858
threshold=0.38190354925990772 0.24104727041222349 0.55315931879675329 0.16847047588731498 0.46450740092312598 0.32174120643004939 0.67324526500079596 0.10273754575839568 0.27256087856119693
decision_type=2 2 2 2 2 2 2 2 2
left_child=1 3 4 7 -2 8 -4 -1 -3
right_child=2 5 6 -5 -6 -7 -8 -9 -10
leaf_value=-0.0021224817277090725 0.00060026478399931023 -0.00069092357065478793 0.0019936527563828598 -0.0010715567375393449 0.0012538736543830553 5.760429218352456e-05 0.0030580535665635138 -0.001611743438728461 -0.00035579251721301516
leaf_weight=1258 4874 2993 2518 4469 3797 4278 775 2789 3657
leaf_count=1258 4874 2993 2518 4469 3797 4278 775 2789 3657
internal_value=0 -0.000775389 0.00126017 -0.00140371 0.000886478 -0.000285746 0.00224416 -0.00177051 -0.000506627
internal_weight=0 19444 11964 8516 8671 10928 3293 4047 6650
internal_count=31408 19444 11964 8516 8671 10928 3293 4047 6650
is_linear=0
shrinkage=0.01


Tree=24
num_leaves=10
num_cat=0
split_feature=23 23 23 23 23 23 23 23 3
split_gain=300.795 55.9533 45.9223 13.1218 9.15078 6.21519 4.70152 2.80923 2.04309
threshold=0.35500557058729915 0.49777176508037574 0.20428139423842115 0.61045678815852311 0.27494827311793735 0.41532707305427347 0.12613401241445168 0.7123189559127806 0.30407448671017034
decision_type=2 2 2 2 2 2 2 2 2
left_child=2 5 6 -3 -4 -2 -1 -5 -6
right_child=1 3 4 7 8 -7 -8 -9 -10
leaf_value=-0.0019542713159796206 0.00029716456654812855 0.0015598011454871952 -0.00080429846022025671 0.0023756485980082056 -0.00043237000439181781 0.00084471071804428726 -0.0013701794790764025 0.0033062950183970507 -6.94629086455704e-05
leaf_weight=2159 3963 3852 5372 1242 2941 4347 3810 439 3283
leaf_count=2159 3963 3852 5372 1242 2941 4347 3810 439 3283
internal_value=0 0.00110236 -0.000868773 0.00188151 -0.000501926 0.000583589 -0.00158145 0.00261869 -0.000240946
internal_weight=0 13843 17565 5533 11596 8310 5969 1681 6224
internal_count=31408 13843 17565 5533 11596 8310 5969 1681 6224
is_linear=0
shrinkage=0.01


Tree=25
num_leaves=10
num_cat=0
split_feature=23 23 23 23 23 23 23 23 2
split_gain=294.891 57.5365 42.349 11.2614 8.75614 6.98975 6.44989 2.18195 1.7166
threshold=0.38190354925990772 0.24757281553398061 0.55315931879675329 0.16847047588731498 0.46450740092312598 0.32174120643004939 0.67324526500079596 0.10273754575839568 0.1753143402833042
decision_type=2 2 2 2 2 2 2 2 2
left_child=1 3 4 7 -2 -3 -4 -1 -5
right_child=2 5 6 8 -6 -7 -8 -9 -10
leaf_value=-0.0020817142286129143 0.00058815620077522083 -0.00046978182780506918 0.0019551827249689006 -0.0013351835240751053 0.0012286691949541836 5.6865859033571732e-05 0.0029984448832850305 -0.0015800372799527863 -0.00091462428079596911
leaf_weight=1258 4874 6133 2518 1320 3797 4278 775 2789 3666
leaf_count=1258 4874 6133 2518 1320 3797 4278 775 2789 3666
internal_value=0 -0.000760074 0.00123528 -0.00134407 0.000868635 -0.000253376 0.00220071 -0.00173598 -0.00102596
internal_weight=0 19444 11964 9033 8671 10411 3293 4047 4986
internal_count=31408 19444 11964 9033 8671 10411 3293 4047 4986
is_linear=0
shrinkage=0.01


Tree=26
num_leaves=10
num_cat=0
split_feature=23 23 23 23 23 23 23 23 2
split_gain=289.033 52.893 44.8865 11.5528 8.53354 6.72976 4.96764 2.70803 1.9951
threshold=0.35691548623269148 0.50572974693617712 0.20810122552920582 0.61045678815852311 0.2763807098519816 0.42805984402355568 0.12613401241445168 0.7123189559127806 0.30407448671017034
decision_type=2 2 2 2 2 2 2 2 2
left_child=2 5 6 -3 -4 -2 -1 -5 -6
right_child=1 3 4 7 8 -7 -8 -9 -10
leaf_value=-0.0019160050693286851 0.00034431318330716871 0.0015593714266104975 -0.00077072358882200674 0.0023295179714903163 -0.00041638097880662516 0.00090718821284873046 -0.0013224856800775823 0.003243247607981697 -5.7201918104683604e-05
leaf_weight=2159 4571 3497 5244 1242 2874 3968 4066 439 3348
leaf_count=2159 4571 3497 5244 1242 2874 3968 4066 439 3348
internal_value=0 0.00108943 -0.000844709 0.00188686 -0.000473562 0.000605876 -0.00152833 0.00256814 -0.00022311
internal_weight=0 13717 17691 5178 11466 8539 6225 1681 6222
internal_count=31408 13717 17691 5178 11466 8539 6225 1681 6222
is_linear=0
shrinkage=0.01


Tree=27
num_leaves=10
num_cat=0
split_feature=23 23 23 23 23 23 23 23 2
split_gain=283.385 55.3135 40.7543 10.8412 7.27016 7.05839 6.72287 2.10938 1.6866
threshold=0.38190354925990772 0.24757281553398061 0.54392805984402359 0.16847047588731498 0.46450740092312598 0.66218367022123203 0.32174120643004939 0.095575362088174423 0.42248925672449472
decision_type=2 2 2 2 2 2 2 2 2
left_child=1 3 4 7 8 -4 -3 -1 -2
right_child=2 6 5 -5 -6 -7 -8 -9 -10
leaf_value=-0.0020986422831340444 0.0004121533216133236 -0.00046051949946258739 0.0018437745164360776 -0.0010055865749857059 0.0011762648933461347 0.0028696081648751878 5.5976208249694691e-05 -0.0015707465452572634 0.0007870675378094501
leaf_weight=1008 2738 6133 2751 4986 3452 887 4278 3039 2136
leaf_count=1008 2738 6133 2751 4986 3452 887 4278 3039 2136
internal_value=0 -0.000745098 0.00121094 -0.0013177 0.00082514 0.00209389 -0.000248285 -0.00170223 0.000576457
internal_weight=0 19444 11964 9033 8326 3638 10411 4047 4874
internal_count=31408 19444 11964 9033 8326 3638 10411 4047 4874
is_linear=0
shrinkage=0.01


Tree=28
num_leaves=10
num_cat=0
split_feature=23 23 23 23 23 23 23 23 2
split_gain=277.758 52.5308 41.4294 8.24782 7.9708 7.7204 6.92129 1.72159 1.60321
threshold=0.3780837179691231 0.23372592710488624 0.54392805984402359 0.15796593983765719 0.30821263727518705 0.45559446124462838 0.67324526500079596 0.09135763170459972 0.26062390577749489
decision_type=2 2 2 2 2 2 2 2 2
left_child=1 3 5 7 8 -2 -4 -1 -3
right_child=2 4 6 -5 -6 -7 -8 -9 -10
leaf_value=-0.0021115615462730317 0.00052373108160135148 -0.00074144612366630592 0.0018460140630103181 -0.0010827171085128942 -1.3188983217511336e-05 0.0011258756497612211 0.0029112932420546004 -0.0016019617712783409 -0.00041354971688101276
leaf_weight=883 4650 2549 2863 4462 5045 3928 775 2660 3593
leaf_count=883 4650 2549 2863 4462 5045 3928 775 2660 3593
internal_value=0 -0.00075027 0.00117871 -0.00136875 -0.000307712 0.000799462 0.00207295 -0.00172897 -0.00054963
internal_weight=0 19192 12216 8005 11187 8578 3638 3543 6142
internal_count=31408 19192 12216 8005 11187 8578 3638 3543 6142
is_linear=0
shrinkage=0.01


Tree=29
num_leaves=10
num_cat=0
split_feature=23 23 23 23 23 23 23 23 3
split_gain=272.315 50.7755 41.6902 11.9719 8.30686 5.66027 4.27523 2.59056 1.93035
threshold=0.35500557058729915 0.49777176508037574 0.20428139423842115 0.61045678815852311 0.27494827311793735 0.41532707305427347 0.11610695527614197 0.72918987744707964 0.30407448671017034
decision_type=2 2 2 2 2 2 2 2 2
left_child=2 5 6 -3 -4 -2 -1 -5 -6
right_child=1 3 4 7 8 -7 -8 -9 -10
leaf_value=-0.0019178697725726389 0.00028135124412531377 0.0014838121243924685 -0.00076517983742941211 0.0023015862201290899 -0.00041450049239414146 0.00080388248564191613 -0.0013319058712038662 0.0032910381302826311 -6.1747866957334105e-05
leaf_weight=1770 3963 3852 5372 1352 2941 4347 4199 329 3283
leaf_count=1770 3963 3852 5372 1352 2941 4347 4199 329 3283
internal_value=0 0.00104888 -0.000826622 0.0017911 -0.000477088 0.00055469 -0.00150566 0.00249524 -0.000228433
internal_weight=0 13843 17565 5533 11596 8310 5969 1681 6224
internal_count=31408 13843 17565 5533 11596 8310 5969 1681 6224
is_linear=0
shrinkage=0.01


Tree=30
num_leaves=10
num_cat=0
split_feature=23 23 23 23 23 23 23 23 3
split_gain=266.91 46.6141 43.5911 7.84212 7.35357 7.33374 6.90418 1.90905 1.62811
threshold=0.36917077829062556 0.22672290307178103 0.53151360814897364 0.63592233009708743 0.44254337100111424 0.29754894158841322 0.14953047907050773 0.75274550374025162 0.31187330892885573
decision_type=2 2 2 2 2 2 2 2 2
left_child=1 6 4 -4 -2 -3 -1 -5 -7
right_child=2 5 3 7 -6 8 -8 -9 -10
leaf_value=-0.00173129452507917 0.00043068472687214491 -0.00060159819647911494 0.0016728159667225718 0.0024434561651595892 0.0010117559838813833 -0.00028568251759293839 -0.0011164915296846645 0.0034736452962709891 6.7345971093569679e-05
leaf_weight=3162 4553 5769 2886 1007 4175 2317 4325 219 2995
leaf_count=3162 4553 5769 2886 1007 4175 2317 4325 219 2995
internal_value=0 -0.000766589 0.00110857 0.00195745 0.000708638 -0.000354737 -0.00137614 0.00262748 -8.66388e-05
internal_weight=0 18568 12840 4112 8728 11081 7487 1226 5312
internal_count=31408 18568 12840 4112 8728 11081 7487 1226 5312
is_linear=0
shrinkage=0.01


Tree=31
num_leaves=10
num_cat=0
split_feature=23 23 23 23 23 23 23 23 3
split_gain=261.674 51.1758 37.7811 10.0436 7.76899 6.23269 5.73322 1.97793 1.92921
threshold=0.38190354925990772 0.24757281553398061 0.55315931879675329 0.16847047588731498 0.47405697915008754 0.32556103772083406 0.67324526500079596 0.099076874104727056 0.37155817284736598
decision_type=2 2 2 2 2 2 2 2 2
left_child=1 3 4 7 8 -3 -4 -1 -2
right_child=2 5 6 -5 -6 -7 -8 -9 -10
leaf_value=-0.0019916342197532368 0.00035231401739314525 -0.0004320133928685139 0.0018440229584839466 -0.000966343011609436 0.0011977976152089003 7.0637811845712924e-05 0.0028276183972435615 -0.0014991075700311882 0.00073876853206711769
leaf_weight=1132 2175 6395 2518 4986 3315 4016 775 2915 3181
leaf_count=1132 2175 6395 2518 4986 3315 4016 775 2915 3181
internal_value=0 -0.000715987 0.00116363 -0.00126676 0.000817323 -0.000238118 0.00207551 -0.00163687 0.000581835
internal_weight=0 19444 11964 9033 8671 10411 3293 4047 5356
internal_count=31408 19444 11964 9033 8671 10411 3293 4047 5356
is_linear=0
shrinkage=0.01


Tree=32
num_leaves=10
num_cat=0
split_feature=23 23 23 23 23 23 23 23 2
split_gain=256.517 49.476 38.1193 11.3226 7.54487 5.74763 3.88984 2.45653 1.70473
threshold=0.35134489893363047 0.49777176508037574 0.20205315931879678 0.61045678815852311 0.27494827311793735 0.41341715740888119 0.11292376253382143 0.72918987744707964 0.28322457424797076
decision_type=2 2 2 2 2 2 2 2 2
left_child=2 5 6 -3 -4 -2 -1 -5 -6
right_child=1 3 4 7 8 -7 -8 -9 -10
leaf_value=-0.001884957653942518 0.00025443976896397243 0.0014400021642372051 -0.00074771185998269505 0.0022350443908999837 -0.00044698668455154546 0.00077329311251038272 -0.0013111095352604891 0.0031985593562249355 -0.00010021892180983839
leaf_weight=1643 4088 3852 5495 1352 2312 4469 4203 329 3665
leaf_count=1643 4088 3852 5495 1352 2312 4469 4203 329 3665
internal_value=0 0.00100192 -0.000815163 0.00173884 -0.000480249 0.000525417 -0.00147239 0.00242362 -0.000234354
internal_weight=0 14090 17318 5533 11472 8557 5846 1681 5977
internal_count=31408 14090 17318 5533 11472 8557 5846 1681 5977
is_linear=0
shrinkage=0.01


Tree=33
num_leaves=10
num_cat=0
split_feature=23 23 23 23 23 23 23 23 2
split_gain=251.439 49.2107 36.3699 8.5686 7.46393 6.83495 5.51368 1.90634 1.67161
threshold=0.38190354925990772 0.24104727041222349 0.55315931879675329 0.16847047588731498 0.46450740092312598 0.32174120643004939 0.67324526500079596 0.095575362088174423 0.27256087856119693
decision_type=2 2 2 2 2 2 2 2 2
left_child=1 3 4 7 -2 8 -4 -1 -3
right_child=2 5 6 -5 -6 -7 -8 -9 -10
leaf_value=-0.001981914626020524 0.00054191179680768966 -0.0006335837869342419 0.0018083220587398286 -0.00096987814301357415 0.0011332762801303747 5.4066683187386838e-05 0.0027729015750269739 -0.0014800675503490355 -0.00031489803945187344
leaf_weight=1008 4874 2993 2518 4469 3797 4278 775 3039 3657
leaf_count=1008 4874 2993 2518 4469 3797 4278 775 3039 3657
internal_value=0 -0.000701845 0.00114065 -0.00127173 0.000800868 -0.000257742 0.00203533 -0.00160506 -0.000458331
internal_weight=0 19444 11964 8516 8671 10928 3293 4047 6650
internal_count=31408 19444 11964 8516 8671 10928 3293 4047 6650
is_linear=0
shrinkage=0.01


Tree=34
num_leaves=10
num_cat=0
split_feature=23 23 23 23 23 23 23 23 3
split_gain=246.494 46.0499 37.8416 10.9073 7.55021 5.15613 3.90209 2.38913 1.73884
threshold=0.35500557058729915 0.49777176508037574 0.20428139423842115 0.61045678815852311 0.2763807098519816 0.41532707305427347 0.12279166003501508 0.75274550374025162 0.31394238421136406
decision_type=2 2 2 2 2 2 2 2 2
left_child=2 5 6 -3 -4 -2 -1 -5 -6
right_child=1 3 4 7 8 -7 -8 -9 -10
leaf_value=-0.0017898193311085833 0.00026640003685246528 0.0014114444159326236 -0.00072208299829223748 0.0022309443120183438 -0.00037885921234026207 0.00076511860571554192 -0.0012499825603810022 0.0033509178595727985 -4.106934747143278e-05
leaf_weight=2028 3963 3852 5500 1462 3068 4347 3941 219 3028
leaf_count=2028 3963 3852 5500 1462 3068 4347 3941 219 3028
internal_value=0 0.000997912 -0.000786455 0.00170475 -0.000453446 0.000527282 -0.0014334 0.00237685 -0.000211073
internal_weight=0 13843 17565 5533 11596 8310 5969 1681 6096
internal_count=31408 13843 17565 5533 11596 8310 5969 1681 6096
is_linear=0
shrinkage=0.01


Tree=35
num_leaves=10
num_cat=0
split_feature=23 23 23 23 23 23 23 23 3
split_gain=241.602 46.6214 35.9314 10.6902 7.11676 5.42241 3.67721 2.34158 1.62083
threshold=0.35134489893363047 0.49777176508037574 0.20205315931879678 0.61045678815852311 0.27494827311793735 0.41341715740888119 0.11292376253382143 0.75274550374025162 0.28449785134489897
decision_type=2 2 2 2 2 2 2 2 2
left_child=2 5 6 -3 -4 -2 -1 -5 -6
right_child=1 3 4 7 8 -7 -8 -9 -10
leaf_value=-0.0018303303253211704 0.00024660534579625307 0.001397329970736343 -0.00072571403620478811 0.0022086348542089992 -0.00042581262848554824 0.00075056570358834375 -0.0012723872270732021 0.00331740871684192 -9.0643500900405402e-05
leaf_weight=1643 4088 3852 5495 1462 2434 4469 4203 219 3543
leaf_count=1643 4088 3852 5495 1462 2434 4469 4203 219 3543
internal_value=0 0.000972353 -0.000791111 0.0016877 -0.00046595 0.000509805 -0.0014292 0.00235309 -0.000227134
internal_weight=0 14090 17318 5533 11472 8557 5846 1681 5977
internal_count=31408 14090 17318 5533 11472 8557 5846 1681 5977
is_linear=0
shrinkage=0.01


Tree=36
num_leaves=10
num_cat=0
split_feature=23 23 23 23 23 23 23 23 2
split_gain=236.866 46.4498 34.3894 9.13066 7.02373 5.65718 5.21618 1.81023 1.64969
threshold=0.38190354925990772 0.24757281553398061 0.55315931879675329 0.16847047588731498 0.46450740092312598 0.32556103772083406 0.67324526500079596 0.09135763170459972 0.20666878879516157
decision_type=2 2 2 2 2 2 2 2 2
left_child=1 3 4 7 -2 -3 -4 -1 -5
right_child=2 5 6 8 -6 -7 -8 -9 -10
leaf_value=-0.0019591677308690102 0.00052549689055238419 -0.00041066044535733969 0.0017562833097167878 -0.0011580555049516565 0.0010991582287450893 6.8222064450132878e-05 0.0026944786998533434 -0.0014470916533991034 -0.000780800983819529
leaf_weight=883 4874 6395 2518 1833 3797 4016 775 3164 3153
leaf_count=883 4874 6395 2518 1833 3797 4016 775 3164 3153
internal_value=0 -0.000681203 0.0011071 -0.00120593 0.000776701 -0.000225934 0.00197709 -0.00155882 -0.000919491
internal_weight=0 19444 11964 9033 8671 10411 3293 4047 4986
internal_count=31408 19444 11964 9033 8671 10411 3293 4047 4986
is_linear=0
shrinkage=0.01


Tree=37
num_leaves=10
num_cat=0
split_feature=23 23 23 23 23 23 23 23 2
split_gain=232.153 40.7721 38.131 7.72967 6.52326 6.3466 5.23669 1.71381 1.56088
threshold=0.36216775425752035 0.52275982810759203 0.21971987903867582 0.63592233009708743 0.43458538914531281 0.29325163138628046 0.13775266592392169 0.75274550374025162 0.22926945726563744
decision_type=2 2 2 2 2 2 2 2 2
left_child=2 4 6 -3 -2 8 -1 -5 -4
right_child=1 3 5 7 -6 -7 -8 -9 -10
leaf_value=-0.001666784994914079 0.00034444869691095762 0.0015236065650191292 -0.00083633556780616895 0.0022811999076527895 0.00088720577558439777 -0.00011930195654132304 -0.0011027937804025396 0.0032572899765619949 -0.00048719282284184789
leaf_weight=2657 4561 3247 1882 1007 4304 5197 4328 219 4006
leaf_count=2657 4561 3247 1882 1007 4304 5197 4328 219 4006
internal_value=0 0.00100069 -0.00073864 0.00177904 0.00060796 -0.000373991 -0.00131733 0.00245556 -0.00059879
internal_weight=0 13338 18070 4473 8865 11085 6985 1226 5888
internal_count=31408 13338 18070 4473 8865 11085 6985 1226 5888
is_linear=0
shrinkage=0.01


Tree=38
num_leaves=10
num_cat=0
split_feature=23 23 23 23 23 23 23 3 23
split_gain=227.616 44.6577 33.0861 8.78905 6.76478 5.44354 5.01403 1.86252 1.7569
threshold=0.38190354925990772 0.24757281553398061 0.55315931879675329 0.16847047588731498 0.47405697915008754 0.32174120643004939 0.67324526500079596 0.37155817284736598 0.09135763170459972
decision_type=2 2 2 2 2 2 2 2 2
left_child=1 3 4 8 7 -3 -4 -2 -1
right_child=2 5 6 -5 -6 -7 -8 -9 -10
leaf_value=-0.001922908213542245 0.00031592992328662001 -0.00041234492322988608 0.0017221274975309261 -0.00090124546364629221 0.0011162254588696389 5.2416626558260754e-05 0.0026419637010943503 0.00069564646508515167 -0.0014184305922972454
leaf_weight=883 2175 6133 2518 4986 3315 4278 775 3181 3164
leaf_count=883 2175 6133 2518 4986 3315 4278 775 3181 3164
internal_value=0 -0.00066777 0.00108527 -0.00118227 0.000761191 -0.000221369 0.00193861 0.000541449 -0.0015285
internal_weight=0 19444 11964 9033 8671 10411 3293 5356 4047
internal_count=31408 19444 11964 9033 8671 10411 3293 5356 4047
is_linear=0
shrinkage=0.01


Tree=39
num_leaves=10
num_cat=0
split_feature=23 23 23 23 23 23 23 23 2
split_gain=223.131 43.8051 32.7417 9.94281 6.37134 5.20289 3.4223 2.19723 1.81327
threshold=0.34991246219958622 0.49777176508037574 0.20205315931879678 0.61045678815852311 0.26587617380232381 0.41341715740888119 0.11292376253382143 0.75274550374025162 0.28322457424797076
decision_type=2 2 2 2 2 2 2 2 2
left_child=2 5 6 -3 -4 -2 -1 -5 -6
right_child=1 3 4 7 8 -7 -8 -9 -10
leaf_value=-0.001761240652256163 0.00023159848664114509 0.0013424324721388321 -0.00073344120464304094 0.0021242440739587948 -0.00045303838105255746 0.00072150247735836904 -0.001222983195986878 0.0031982974578800812 -0.00011604847433245395
leaf_weight=1643 4210 3852 4729 1462 2688 4469 4203 219 3933
leaf_count=1643 4210 3852 4729 1462 2688 4469 4203 219 3933
internal_value=0 0.000927142 -0.000766256 0.00162247 -0.000453095 0.00048386 -0.00137426 0.00226417 -0.00025286
internal_weight=0 14212 17196 5533 11350 8679 5846 1681 6621
internal_count=31408 14212 17196 5533 11350 8679 5846 1681 6621
is_linear=0
shrinkage=0.01


Tree=40
num_leaves=10
num_cat=0
split_feature=23 23 23 23 23 23 23 23 3
split_gain=218.716 42.9219 31.8506 8.7005 6.49489 5.07312 4.82785 1.76667 1.57249
threshold=0.38190354925990772 0.24900525226802486 0.55315931879675329 0.17149450899251953 0.46450740092312598 0.32556103772083406 0.67324526500079596 0.095575362088174423 0.35564220913576322
decision_type=2 2 2 2 2 2 2 2 2
left_child=1 3 4 7 8 -3 -4 -1 -2
right_child=2 5 6 -5 -6 -7 -8 -9 -10
leaf_value=-0.0018540536017999762 0.00026453286425250604 -0.00038899408901768313 0.0016886688503309141 -0.00087056783648770304 0.00105594834704767 6.6235133026557413e-05 0.0025912665463262989 -0.0013733233300340273 0.00063886217413136354
leaf_weight=1008 1752 6270 2518 4986 3797 4016 775 3164 3122
leaf_count=1008 1752 6270 2518 4986 3797 4016 775 3164 3122
internal_value=0 -0.000654584 0.00106384 -0.00115251 0.000745868 -0.000211257 0.00190109 -0.00148947 0.000504306
internal_weight=0 19444 11964 9158 8671 10286 3293 4172 4874
internal_count=31408 19444 11964 9158 8671 10286 3293 4172 4874
is_linear=0
shrinkage=0.01


Tree=41
num_leaves=10
num_cat=0
split_feature=23 23 23 23 23 23 23 23 2
split_gain=214.398 43.4385 30.4615 9.5782 5.71237 5.3414 3.29215 2.13327 1.73635
threshold=0.34641095018303364 0.49777176508037574 0.20205315931879678 0.61045678815852311 0.26587617380232381 0.40577749482731185 0.11292376253382143 0.72918987744707964 0.45639025943020856
decision_type=2 2 2 2 2 2 2 2 2
left_child=2 5 6 -3 -4 -2 -1 -5 -7
right_child=1 3 4 7 -6 8 -8 -9 -10
leaf_value=-0.001726945695431582 0.00018938960647954035 0.0013158008178522616 -0.00071884410052246552 0.002044750496734088 -0.00026011917222210144 0.00053182129105122156 -0.0011990225424202544 0.0029426349187694424 0.00091523427341989275
leaf_weight=1643 3966 3852 4729 1352 6373 3022 4203 329 1939
leaf_count=1643 3966 3852 4729 1352 6373 3022 4203 329 1939
internal_value=0 0.000894469 -0.000763159 0.00159066 -0.000455517 0.000462969 -0.00134739 0.00222048 0.000681678
internal_weight=0 14460 16948 5533 11102 8927 5846 1681 4961
internal_count=31408 14460 16948 5533 11102 8927 5846 1681 4961
is_linear=0
shrinkage=0.01


Tree=42
num_leaves=10
num_cat=0
split_feature=23 23 23 23 23 23 23 3 2
split_gain=210.144 41.2778 30.6648 7.231 6.24403 5.7919 4.64241 1.76948 1.60479
threshold=0.38190354925990772 0.24104727041222349 0.55315931879675329 0.1608308133057457 0.47405697915008754 0.31362406493713196 0.67324526500079596 0.37155817284736598 0.20666878879516157
decision_type=2 2 2 2 2 2 2 2 2
left_child=1 3 4 -1 7 -3 -4 -2 -5
right_child=2 5 6 8 -6 -7 -8 -9 -10
leaf_value=-0.0014986488279254912 0.0002998603949945349 -0.00044257151093373814 0.001656001328627155 -0.0011380870373620764 0.0010718851015574001 2.0311490828229784e-05 0.002541094712095876 0.00066997152577516028 -0.00076496052770746645
leaf_weight=3667 2175 6025 2518 1887 3315 4903 775 3181 2962
leaf_count=3667 2175 6025 2518 1887 3315 4903 775 3181 2962
internal_value=0 -0.000641629 0.00104278 -0.00116357 0.000730789 -0.000234893 0.00186431 0.000519674 -0.000910164
internal_weight=0 19444 11964 8516 8671 10928 3293 5356 4849
internal_count=31408 19444 11964 8516 8671 10928 3293 5356 4849
is_linear=0
shrinkage=0.01


Tree=43
num_leaves=10
num_cat=0
split_feature=23 23 23 23 23 23 23 23 3
split_gain=206.043 40.4757 30.2819 9.2367 5.91175 4.83012 3.19043 2.20978 1.48964
threshold=0.34991246219958622 0.49777176508037574 0.20205315931879678 0.60536367977081029 0.27494827311793735 0.41532707305427347 0.11292376253382143 0.7123189559127806 0.30407448671017034
decision_type=2 2 2 2 2 2 2 2 2
left_child=2 5 6 -3 -4 -2 -1 -5 -6
right_child=1 3 4 7 8 -7 -8 -9 -10
leaf_value=-0.0016946897485672666 0.00022851161891856858 0.0012762971306017939 -0.00067074239844587091 0.0019493993467950294 -0.00038022152677428866 0.00070033011290535204 -0.0011749866570282019 0.0027657642190032777 -6.0942987130924202e-05
leaf_weight=1643 4332 3739 5495 1355 2808 4347 4203 439 3047
leaf_count=1643 4332 3739 5495 1355 2808 4347 4203 439 3047
internal_value=0 0.000890932 -0.00073633 0.00155931 -0.000435162 0.000464829 -0.00132105 0.00214917 -0.000214066
internal_weight=0 14212 17196 5533 11350 8679 5846 1794 5855
internal_count=31408 14212 17196 5533 11350 8679 5846 1794 5855
is_linear=0
shrinkage=0.01


Tree=44
num_leaves=10
num_cat=0
split_feature=23 23 23 23 23 23 23 23 2
split_gain=201.96 40.9163 28.7055 9.32118 5.39606 4.82609 3.12694 2.31121 1.61947
threshold=0.34641095018303364 0.49506605124940323 0.20205315931879678 0.59979309247174928 0.26587617380232381 0.40577749482731185 0.11292376253382143 0.7123189559127806 0.45639025943020856
decision_type=2 2 2 2 2 2 2 2 2
left_child=2 5 6 -3 -4 -2 -1 -5 -7
right_child=1 3 4 7 -6 8 -8 -9 -10
leaf_value=-0.0016777428258176411 0.00018353034488484841 0.0012424923942430828 -0.00069798035845628468 0.0019111176245726585 -0.00025213695964465012 0.00050837018520296794 -0.001163236792971538 0.0027381065301172827 0.00088355247126433974
leaf_weight=1643 3966 3742 4729 1468 6373 2965 4203 439 1880
leaf_count=1643 3966 3742 4729 1468 6373 2965 4203 439 1880
internal_value=0 0.000868135 -0.000740691 0.00153248 -0.000442048 0.000442206 -0.00130784 0.00210149 0.000653952
internal_weight=0 14460 16948 5649 11102 8811 5846 1907 4845
internal_count=31408 14460 16948 5649 11102 8811 5846 1907 4845
is_linear=0
shrinkage=0.01


Tree=45
num_leaves=10
num_cat=0
split_feature=23 23 23 23 23 23 23 23 2
split_gain=197.973 35.3837 32.2405 5.91625 5.76723 5.35073 5.2565 1.53119 1.50695
threshold=0.37108069393601789 0.22672290307178103 0.53151360814897364 0.63592233009708743 0.29754894158841322 0.44445328664650657 0.14953047907050773 0.75274550374025162 0.35564220913576322
decision_type=2 2 2 2 2 2 2 2 2
left_child=1 6 5 -4 -3 -2 -1 -5 -6
right_child=2 4 3 7 8 -7 -8 -9 -10
leaf_value=-0.0014971193768835709 0.00037907064350872484 -0.00051943859203312662 0.0014435176498031378 0.0021079045849322327 -0.00020441032016854999 0.00087854513760853351 -0.00096067042742032196 0.0030305256248881287 0.00013417397982827805
leaf_weight=3162 4553 5769 2886 1007 3202 4055 4325 219 2230
leaf_count=3162 4553 5769 2886 1007 3202 4055 4325 219 2230
internal_value=0 -0.000655006 0.000962323 0.00169074 -0.000299255 0.00061436 -0.00118723 0.00227271 -6.54112e-05
internal_weight=0 18688 12720 4112 11201 8608 7487 1226 5432
internal_count=31408 18688 12720 4112 11201 8608 7487 1226 5432
is_linear=0
shrinkage=0.01


Tree=46
num_leaves=10
num_cat=0
split_feature=23 23 23 23 23 23 23 23 2
split_gain=194.083 39.3398 27.6228 8.97204 5.77266 4.64039 2.62536 2.22289 1.58886
threshold=0.34641095018303364 0.49506605124940323 0.1953684545599236 0.59979309247174928 0.26587617380232381 0.40577749482731185 0.11292376253382143 0.7123189559127806 0.28322457424797076
decision_type=2 2 2 2 2 2 2 2 2
left_child=2 5 6 -3 -4 -2 -1 -5 -6
right_child=1 3 4 7 8 -7 -8 -9 -10
leaf_value=-0.0016459942329278168 0.00017974369832994167 0.0012179528833258667 -0.00069799842116429964 0.0018740094778424876 -0.00043595975855668825 0.00064102570933675896 -0.0011678837975672598 0.002685043845402081 -0.00011505605866541589
leaf_weight=1643 3966 3742 5116 1468 2620 4845 3816 439 3753
leaf_count=1643 3966 3742 5116 1468 2620 4845 3816 439 3753
internal_value=0 0.000851037 -0.000726103 0.00150245 -0.000447818 0.000433394 -0.00131178 0.00206071 -0.000246983
internal_weight=0 14460 16948 5649 11489 8811 5459 1907 6373
internal_count=31408 14460 16948 5649 11489 8811 5459 1907 6373
is_linear=0
shrinkage=0.01


Tree=47
num_leaves=10
num_cat=0
split_feature=23 23 23 23 23 23 23 23 2
split_gain=190.247 37.4542 27.9257 7.64491 5.66089 4.45931 4.21114 1.60991 1.50982
threshold=0.38190354925990772 0.24900525226802486 0.55315931879675329 0.17149450899251953 0.46450740092312598 0.32556103772083406 0.67324526500079596 0.087139901321025018 0.1753143402833042
decision_type=2 2 2 2 2 2 2 2 2
left_child=1 3 4 7 -2 -3 -4 -1 -5
right_child=2 5 6 8 -6 -7 -8 -9 -10
leaf_value=-0.0018080497791251959 0.000468935280094304 -0.00036300807485710804 0.0015777694959359168 -0.0011060469061543745 0.00098394323193113828 6.379416552883152e-05 0.0024207494162744093 -0.0012988549938172738 -0.00070859285009735608
leaf_weight=759 4874 6270 2518 1289 3797 4016 775 3413 3697
leaf_count=759 4874 6270 2518 1289 3797 4016 775 3413 3697
internal_value=0 -0.000610498 0.000992187 -0.00107563 0.000694455 -0.00019637 0.00177616 -0.00139149 -0.000811344
internal_weight=0 19444 11964 9158 8671 10286 3293 4172 4986
internal_count=31408 19444 11964 9158 8671 10286 3293 4172 4986
is_linear=0
shrinkage=0.01


Tree=48
num_leaves=10
num_cat=0
split_feature=23 23 23 23 23 23 23 23 3
split_gain=186.482 37.8335 26.5601 7.68075 5.55223 5.4093 2.53093 1.70524 1.59235
threshold=0.34641095018303364 0.50572974693617712 0.1953684545599236 0.6225529205793412 0.26587617380232381 0.42153429890179855 0.11292376253382143 0.75274550374025162 0.34863918510265801
decision_type=2 2 2 2 2 2 2 2 2
left_child=2 5 6 -3 -4 8 -1 -5 -2
right_child=1 3 4 7 -6 -7 -8 -9 -10
leaf_value=-0.0016141934658395612 1.9903110086491371e-05 0.0012786275836085713 -0.0006842215706539458 0.0019915894512615839 -0.00024190061852642013 0.00071027084603592582 -0.001144760317170106 0.0029491625787460641 0.00038214594340183454
leaf_weight=1643 2129 3726 5116 1233 6373 4331 3816 219 2822
leaf_count=1643 2129 3726 5116 1233 6373 4331 3816 219 2822
internal_value=0 0.000834207 -0.000711744 0.00151905 -0.000438864 0.000452163 -0.00128605 0.00213602 0.000226376
internal_weight=0 14460 16948 5178 11489 9282 5459 1452 4951
internal_count=31408 14460 16948 5178 11489 9282 5459 1452 4951
is_linear=0
shrinkage=0.01


Tree=49
num_leaves=10
num_cat=0
split_feature=23 23 23 23 23 23 23 3 2
split_gain=182.826 37.1642 25.9546 7.35697 5.04441 4.61053 4.05271 1.59743 1.54811
threshold=0.38588254018780843 0.24900525226802486 0.55315931879675329 0.16847047588731498 0.47405697915008754 0.32556103772083406 0.68438643959891787 0.40641413337577598 0.20666878879516157
decision_type=2 2 2 2 2 2 2 2 2
left_child=1 3 4 -1 7 -3 -4 -2 -5
right_child=2 5 6 8 -6 -7 -8 -9 -10
leaf_value=-0.0013729679933766397 0.00032527219171457519 -0.00035595935794898229 0.0015658617122838623 -0.0010323297654338663 0.00099859140609458706 7.0286583385180642e-05 0.0024412064029190835 0.00067903495761333489 -0.00067059611176573022
leaf_weight=4047 2619 6270 2631 1860 3315 4263 662 2490 3251
leaf_count=4047 2619 6270 2631 1860 3315 4263 662 2490 3251
internal_value=0 -0.000588537 0.000989065 -0.00105445 0.000694802 -0.000183446 0.00174183 0.000497687 -0.000802239
internal_weight=0 19691 11717 9158 8424 10533 3293 5109 5111
internal_count=31408 19691 11717 9158 8424 10533 3293 5109 5111
is_linear=0
shrinkage=0.01


Tree=50
num_leaves=10
num_cat=0
split_feature=23 23 23 23 23 23 23 23 3
split_gain=179.21 32.263 29.1716 6.06871 5.33092 5.29066 3.70573 1.5335 1.47847
threshold=0.36057615788636005 0.52275982810759203 0.21414929173961486 0.62923762533821437 0.28545280916759513 0.43458538914531281 0.13775266592392169 0.75274550374025162 0.31394238421136406
decision_type=2 2 2 2 2 2 2 2 2
left_child=2 5 6 -3 -4 -2 -1 -5 -6
right_child=1 3 4 7 8 -7 -8 -9 -10
leaf_value=-0.0014709926957434895 0.00029426817636649707 0.0013255481502543274 -0.00056485869255805865 0.0019802328883616171 -0.0002994757465282329 0.00077993866797617002 -0.00098806939759854074 0.0028952588202202155 2.2620609385883921e-05
leaf_weight=2657 4684 3135 5625 1119 2727 4304 3953 219 2985
leaf_count=2657 4684 3135 5625 1119 2727 4304 3953 219 2985
internal_value=0 0.000872204 -0.00065419 0.00156618 -0.000346342 0.000526837 -0.00118219 0.00213 -0.000131153
internal_weight=0 13461 17947 4473 11337 8988 6610 1338 5712
internal_count=31408 13461 17947 4473 11337 8988 6610 1338 5712
is_linear=0
shrinkage=0.01


Tree=51
num_leaves=10
num_cat=0
split_feature=23 23 23 23 23 23 23 23 3
split_gain=175.698 35.7326 24.9664 7.07968 4.85002 4.43002 3.90236 1.59548 1.56302
threshold=0.38588254018780843 0.24900525226802486 0.55315931879675329 0.17404106318637594 0.47405697915008754 0.32556103772083406 0.67324526500079596 0.087139901321025018 0.42026102180487035
decision_type=2 2 2 2 2 2 2 2 2
left_child=1 3 4 7 8 -3 -4 -1 -2
right_child=2 5 6 -5 -6 -7 -8 -9 -10
leaf_value=-0.0017453877164519665 0.00033155077431482646 -0.00034883981430660038 0.0015169107169615635 -0.00077221559708660285 0.00097886398168200647 6.8978339588225259e-05 0.002328396276408626 -0.0012401492396657311 0.00068362350327530518
leaf_weight=759 2843 6270 2518 4858 3315 4263 775 3541 2266
leaf_count=759 2843 6270 2518 4858 3315 4263 775 3541 2266
internal_value=0 -0.000576949 0.000969592 -0.0010338 0.000680986 -0.000179737 0.00170789 -0.00132933 0.000487706
internal_weight=0 19691 11717 9158 8424 10533 3293 4300 5109
internal_count=31408 19691 11717 9158 8424 10533 3293 4300 5109
is_linear=0
shrinkage=0.01


Tree=52
num_leaves=10
num_cat=0
split_feature=23 23 23 23 23 23 1 23 2
split_gain=172.222 34.9955 24.5839 8.06993 5.1398 4.15083 2.41324 1.99906 1.52637
threshold=0.34641095018303364 0.49506605124940323 0.1953684545599236 0.59979309247174928 0.26587617380232381 0.40577749482731185 0.1824765239535254 0.72918987744707964 0.45639025943020856
decision_type=2 2 2 2 2 2 2 2 2
left_child=2 5 6 -3 -4 -2 -1 -5 -7
right_child=1 3 4 7 -6 8 -8 -9 -10
leaf_value=-0.0014210904357236506 0.00016787119781880522 0.0011462542218617759 -0.00065752633747267466 0.0017976873408393943 -0.00023195048508557812 0.0004628075155369163 -0.00099701094657483717 0.0026546011665852958 0.00082704566922520248
leaf_weight=3083 3966 3742 5116 1578 6373 2965 2376 329 1880
leaf_count=3083 3966 3742 5116 1578 6373 2965 2376 329 1880
internal_value=0 0.000801677 -0.000683989 0.00141607 -0.000421457 0.000407768 -0.00123651 0.00194552 0.000604142
internal_weight=0 14460 16948 5649 11489 8811 5459 1907 4845
internal_count=31408 14460 16948 5649 11489 8811 5459 1907 4845
is_linear=0
shrinkage=0.01


Tree=53
num_leaves=10
num_cat=0
split_feature=23 23 23 23 23 23 23 2 2
split_gain=168.815 32.3053 25.7835 5.21971 5.03802 4.78259 4.31921 1.47619 1.38769
threshold=0.3780837179691231 0.23372592710488624 0.54392805984402359 0.15255451217571228 0.30646188126691076 0.45559446124462838 0.66218367022123203 0.1753143402833042 0.35564220913576322
decision_type=2 2 2 2 2 2 2 2 2
left_child=1 3 5 -1 -3 -2 -4 -5 -6
right_child=2 4 6 7 8 -7 -8 -9 -10
leaf_value=-0.0013757746734564622 0.00040272025622950709 -0.00043453028597494189 0.0014287276151385233 -0.0011275157164307053 -0.00015329501753134269 0.00087664846584189289 0.0022311928853174208 -0.00074115805910558729 0.0001770162442003935
leaf_weight=3288 4650 6018 2751 1411 2909 3928 887 3306 2260
leaf_count=3288 4650 6018 2751 1411 2909 3928 887 3306 2260
internal_value=0 -0.000584912 0.000918928 -0.00106992 -0.000237855 0.000619739 0.00162438 -0.00085673 -8.8757e-06
internal_weight=0 19192 12216 8005 11187 8578 3638 4717 5169
internal_count=31408 19192 12216 8005 11187 8578 3638 4717 5169
is_linear=0
shrinkage=0.01


Tree=54
num_leaves=10
num_cat=0
split_feature=23 23 23 23 23 23 23 2 3
split_gain=165.503 33.6519 23.6454 6.46511 5.27576 4.4602 2.68354 1.52492 1.50964
threshold=0.34641095018303364 0.51161865350947011 0.20205315931879678 0.62923762533821437 0.42153429890179855 0.27494827311793735 0.11610695527614197 0.46084672926945741 0.34863918510265801
decision_type=2 2 2 2 2 2 2 2 2
left_child=2 4 6 -3 8 -4 -1 -6 -2
right_child=1 3 5 -5 7 -7 -8 -9 -10
leaf_value=-0.0015103796830369255 1.1189589677369445e-05 0.0012350906120966922 -0.00060193691820398427 0.0020491412783707023 0.00053011943428885424 -0.00020104369932040939 -0.0010440641530730943 0.00090112828135885544 0.00036389880932842652
leaf_weight=1770 2129 3602 5495 1338 2681 5607 4076 1888 2822
leaf_count=1770 2129 3602 5495 1338 2681 5607 4076 1888 2822
internal_value=0 0.000785883 -0.000670514 0.00145558 0.000438375 -0.000399468 -0.00118525 0.000683428 0.000212229
internal_weight=0 14460 16948 4940 9520 11102 5846 4569 4951
internal_count=31408 14460 16948 4940 9520 11102 5846 4569 4951
is_linear=0
shrinkage=0.01


Tree=55
num_leaves=10
num_cat=0
split_feature=23 23 23 23 23 23 23 3 2
split_gain=162.249 33.0496 23.1456 6.57304 4.47633 4.10642 3.64557 1.49015 1.47369
threshold=0.38588254018780843 0.24900525226802486 0.55315931879675329 0.16847047588731498 0.47405697915008754 0.32174120643004939 0.69990450421773054 0.37155817284736598 0.20666878879516157
decision_type=2 2 2 2 2 2 2 2 2
left_child=1 3 4 -1 7 -3 -4 -2 -5
right_child=2 5 6 8 -6 -7 -8 -9 -10
leaf_value=-0.0012948645838410447 0.0002605717894788237 -0.0003437763787714187 0.0014934626187216205 -0.00097989146263208443 0.00094003418460538812 5.5095700718634843e-05 0.0023848554151244257 0.00060866998110484325 -0.00062695911254255249
leaf_weight=4047 2062 6008 2742 1860 3315 4525 551 3047 3251
leaf_count=4047 2062 6008 2742 1860 3315 4525 551 3047 3251
internal_value=0 -0.000554429 0.000931745 -0.000993793 0.000653862 -0.00017242 0.00164261 0.000468177 -0.000755399
internal_weight=0 19691 11717 9158 8424 10533 3293 5109 5111
internal_count=31408 19691 11717 9158 8424 10533 3293 5109 5111
is_linear=0
shrinkage=0.01


Tree=56
num_leaves=10
num_cat=0
split_feature=23 23 23 23 23 23 23 3 21
split_gain=159.045 30.0827 24.6871 5.4388 5.20771 4.40532 3.23168 1.51932 1.45981
threshold=0.35500557058729915 0.52275982810759203 0.21208021645710648 0.62923762533821437 0.42805984402355568 0.28545280916759513 0.12915804551965623 0.45432118414770023 0.38588254018780843
decision_type=2 2 2 2 2 2 2 2 2
left_child=2 4 6 -3 8 -4 -1 -6 -2
right_child=1 3 5 -5 7 -7 -8 -9 -10
leaf_value=-0.0014246095334189484 0.00042287220704788071 0.0012484845712578943 -0.00053691459308436644 0.0020100444128182795 0.00055610029182412478 -0.00013786678383715086 -0.00095721795997029228 0.00091937248682073 7.0256012596336815e-05
leaf_weight=2284 2319 3135 5752 1338 2618 5330 4199 2055 2378
leaf_count=2284 2319 3135 5752 1338 2618 5330 4199 2055 2378
internal_value=0 0.000801584 -0.00063173 0.00147629 0.000479497 -0.000344989 -0.00112188 0.000715853 0.000244349
internal_weight=0 13843 17565 4473 9370 11082 6483 4673 4697
internal_count=31408 13843 17565 4473 9370 11082 6483 4673 4697
is_linear=0
shrinkage=0.01


Tree=57
num_leaves=10
num_cat=0
split_feature=23 23 23 23 23 23 23 23 3
split_gain=155.946 31.7726 22.2761 6.32826 5.23367 3.94608 2.92655 1.45906 1.44784
threshold=0.38588254018780843 0.24900525226802486 0.56684704758873161 0.17149450899251953 0.47405697915008754 0.32556103772083406 0.69990450421773054 0.087139901321025018 0.35564220913576322
decision_type=2 2 2 2 2 2 2 2 2
left_child=1 3 4 7 8 -3 -4 -1 -2
right_child=2 5 6 -5 -6 -7 -8 -9 -10
leaf_value=-0.0016582812745816154 0.00022742531469818251 -0.00032859623170439488 0.0015286065087299025 -0.00073388789930039437 0.00094964010914995651 6.5740722698164365e-05 0.0023409063470450158 -0.0011735285339462785 0.00058134633841885723
leaf_weight=759 1767 6270 2274 4986 3783 4263 551 3413 3342
leaf_count=759 1767 6270 2274 4986 3783 4263 551 3413 3342
internal_value=0 -0.000543553 0.000913468 -0.000974345 0.000667702 -0.000168997 0.00168704 -0.00126172 0.000458939
internal_weight=0 19691 11717 9158 8892 10533 2825 4172 5109
internal_count=31408 19691 11717 9158 8892 10533 2825 4172 5109
is_linear=0
shrinkage=0.01


Tree=58
num_leaves=10
num_cat=0
split_feature=23 23 23 23 23 23 23 1 21
split_gain=152.858 32.6214 20.7353 6.38515 4.54989 4.13447 2.86831 1.48718 1.39623
threshold=0.39145312748686939 0.25043768900206914 0.56684704758873161 0.17404106318637594 0.47405697915008754 0.32906254973738663 0.69990450421773054 0.18438643959891773 0.35898456151519981
decision_type=2 2 2 2 2 2 2 2 2
left_child=1 3 4 7 -2 -3 -4 -1 -7
right_child=2 5 6 -5 -6 8 -8 -9 -10
leaf_value=-0.0013846492054088344 0.00047503922750984556 -0.00031219694241860067 0.0015133204372811048 -0.00071546371891693917 0.00094014371884398981 0.00026727290151507032 0.0023174972966069967 -0.0010000491448918024 -8.9996587115274119e-05
leaf_weight=2697 4737 6398 2274 4989 3783 2164 551 1603 2212
leaf_count=2697 4737 6398 2274 4989 3783 2164 551 1603 2212
internal_value=0 -0.0005246 0.000927726 -0.000958868 0.000681552 -0.000150188 0.00167017 -0.00124127 8.66787e-05
internal_weight=0 20063 11345 9289 8520 10774 2825 4300 4376
internal_count=31408 20063 11345 9289 8520 10774 2825 4300 4376
is_linear=0
shrinkage=0.01


Tree=59
num_leaves=10
num_cat=0
split_feature=23 23 23 23 23 23 1 23 3
split_gain=149.854 31.014 21.1293 7.13511 4.33241 3.7594 2.23126 1.84514 1.41748
threshold=0.34466019417475735 0.49506605124940323 0.1953684545599236 0.59979309247174928 0.26587617380232381 0.40577749482731185 0.1824765239535254 0.75274550374025162 0.27415247493235723
decision_type=2 2 2 2 2 2 2 2 2
left_child=2 5 6 -3 -4 -2 -1 -5 -6
right_child=1 3 4 7 8 -7 -8 -9 -10
leaf_value=-0.0013320671554299588 0.00015206599631946042 0.0010680067263167648 -0.0006133463761619091 0.0017075179073897796 -0.00040891898735948354 0.00056367322552717744 -0.00092429085192015804 0.0026831398965561225 -0.00010015893113248547
leaf_weight=3083 4094 3742 5116 1688 2441 4845 2376 219 3804
leaf_count=3083 4094 3742 5116 1688 2441 4845 2376 219 3804
internal_value=0 0.000741701 -0.000643278 0.00132172 -0.000397593 0.00037516 -0.00115458 0.00181956 -0.000220845
internal_weight=0 14588 16820 5649 11361 8939 5459 1907 6245
internal_count=31408 14588 16820 5649 11361 8939 5459 1907 6245
is_linear=0
shrinkage=0.01


Tree=60
num_leaves=10
num_cat=0
split_feature=23 23 23 23 23 23 23 2 3
split_gain=146.899 26.0477 24.5627 4.50837 4.24613 4.19507 4.04284 1.49235 1.43019
threshold=0.36917077829062556 0.22672290307178103 0.53151360814897364 0.64292535413019281 0.29754894158841322 0.43856438007321358 0.13775266592392169 0.20666878879516157 0.45877765398694897
decision_type=2 2 2 2 2 2 2 2 2
left_child=1 6 5 -4 -3 -2 -1 -8 -7
right_child=2 4 3 -5 -6 8 7 -9 -10
leaf_value=-0.0013376692134410637 0.00030008268031193902 -0.00044867689052254179 0.0012577859061552532 0.0020028229063139354 -5.6838653591582264e-05 0.00057660335861898788 -0.001052684402882162 -0.00069804246393619985 0.00093829721599262249
leaf_weight=2657 4307 5769 2998 1114 5312 2441 2097 2733 1980
leaf_count=2657 4307 5769 2998 1114 5312 2441 2097 2733 1980
internal_value=0 -0.000568707 0.000822411 0.00145963 -0.000260838 0.000522201 -0.00102436 -0.000852014 0.000738592
internal_weight=0 18568 12840 4112 11081 8728 7487 4830 4421
internal_count=31408 18568 12840 4112 11081 8728 7487 4830 4421
is_linear=0
shrinkage=0.01


Tree=61
num_leaves=10
num_cat=0
split_feature=23 23 23 23 23 23 1 23 21
split_gain=144.017 29.8143 20.3213 6.87358 4.16496 3.61156 2.15674 1.79534 1.39221
threshold=0.34466019417475735 0.49506605124940323 0.1953684545599236 0.59979309247174928 0.26587617380232381 0.40577749482731185 0.1824765239535254 0.75274550374025162 0.37983447397739939
decision_type=2 2 2 2 2 2 2 2 2
left_child=2 5 6 -3 -4 8 -1 -5 -2
right_child=1 3 4 7 -6 -7 -8 -9 -10
leaf_value=-0.001306554327942153 0.00031625865826951429 0.0010467831007603973 -0.0006012274560149867 0.0016739146046614126 -0.00021638579830988151 0.00055250129767465191 -0.00090564590276864538 0.00263628021494983 -5.4329722510749493e-05
leaf_weight=3083 2247 3742 5116 1688 6245 4845 2376 219 1847
leaf_count=3083 2247 3742 5116 1688 6245 4845 2376 219 1847
internal_value=0 0.000727113 -0.000630626 0.0012958 -0.000389685 0.000367732 -0.00113206 0.00178443 0.000149068
internal_weight=0 14588 16820 5649 11361 8939 5459 1907 4094
internal_count=31408 14588 16820 5649 11361 8939 5459 1907 4094
is_linear=0
shrinkage=0.01


Tree=62
num_leaves=10
num_cat=0
split_feature=23 23 23 23 23 2 23 2 23
split_gain=141.173 29.7186 19.5698 5.77269 4.37212 3.92018 2.68264 1.40094 1.35175
threshold=0.3897023714785931 0.24900525226802486 0.56684704758873161 0.16847047588731498 0.47405697915008754 0.31394238421136406 0.69990450421773054 0.23786407766990295 0.087139901321025018
decision_type=2 2 2 2 2 2 2 2 2
left_child=1 3 4 8 -2 -3 -4 -5 -1
right_child=2 5 6 7 -6 -7 -8 -9 -10
leaf_value=-0.0015897829874819919 0.00044945488308614036 -0.000342469795764525 0.0014550638223098052 -0.00087436515901138218 0.00090287502715194078 3.8838787754059788e-05 0.0022327770849862247 -0.00054309933884929499 -0.0011215872960754301
leaf_weight=759 4857 5415 2274 2480 3783 5370 551 2631 3288
leaf_count=759 4857 5415 2274 2480 3783 5370 551 2631 3288
internal_value=0 -0.000508331 0.000884226 -0.000927249 0.000647984 -0.000152611 0.00160675 -0.000703839 -0.0012094
internal_weight=0 19943 11465 9158 8640 10785 2825 5111 4047
internal_count=31408 19943 11465 9158 8640 10785 2825 5111 4047
is_linear=0
shrinkage=0.01


Tree=63
num_leaves=10
num_cat=0
split_feature=23 23 23 23 23 23 1 3 2
split_gain=138.509 28.2182 19.8499 5.49371 4.43002 4.15196 2.09149 1.49999 1.37367
threshold=0.34641095018303364 0.51161865350947011 0.1953684545599236 0.62923762533821437 0.42805984402355568 0.26730861053636806 0.1824765239535254 0.33097246538277897 0.28322457424797076
decision_type=2 2 2 2 2 2 2 2 2
left_child=2 4 6 -3 7 -4 -1 -2 -7
right_child=1 3 5 -5 -6 8 -8 -9 -10
leaf_value=-0.0012817168733649719 -1.3570271711911821e-05 0.001128941242507662 -0.0005848394656212967 0.0018793472923305003 0.00064319464475241317 -0.0003818812508971211 -0.00088691908011572776 0.00033574109826629096 -8.0038040636601934e-05
leaf_weight=3083 1931 3602 5247 1338 4206 2547 2376 3383 3695
leaf_count=3083 1931 3602 5247 1338 4206 2547 2376 3383 3695
internal_value=0 0.000718942 -0.0006134 0.00133219 0.000400723 -0.000377495 -0.00110988 0.000208808 -0.000203203
internal_weight=0 14460 16948 4940 9520 11489 5459 5314 6242
internal_count=31408 14460 16948 4940 9520 11489 5459 5314 6242
is_linear=0
shrinkage=0.01


Tree=64
num_leaves=10
num_cat=0
split_feature=23 23 23 23 23 2 23 23 3
split_gain=135.759 28.0778 19.1292 6.50925 3.9187 3.45629 2.0697 1.80034 1.29612
threshold=0.34466019417475735 0.49506605124940323 0.1953684545599236 0.59501830335826844 0.26730861053636806 0.38986153111570915 0.11292376253382143 0.75274550374025162 0.27415247493235723
decision_type=2 2 2 2 2 2 2 2 2
left_child=2 5 6 -3 -4 -2 -1 -5 -6
right_child=1 3 4 7 8 -7 -8 -9 -10
leaf_value=-0.0013955290169340043 0.00015218219239478069 0.0010044815902591352 -0.00057899107174586299 0.0016085970915696863 -0.00038902193475831982 0.00054579496394908705 -0.0009710194364506644 0.0025687962076435351 -9.0339732901187253e-05
leaf_weight=1643 4283 3628 5247 1802 2377 4656 3816 219 3737
leaf_count=1643 4283 3628 5247 1802 2377 4656 3816 219 3737
internal_value=0 0.000705959 -0.000612279 0.00125784 -0.000378512 0.000357201 -0.00109878 0.00171265 -0.000206461
internal_weight=0 14588 16820 5649 11361 8939 5459 2021 6114
internal_count=31408 14588 16820 5649 11361 8939 5459 2021 6114
is_linear=0
shrinkage=0.01


Tree=65
num_leaves=10
num_cat=0
split_feature=23 23 23 23 23 2 23 23 3
split_gain=133.142 28.3975 18.1647 5.76474 3.94201 3.58625 2.55561 1.38979 1.32165
threshold=0.39145312748686939 0.25202928537322938 0.56684704758873161 0.17404106318637594 0.47405697915008754 0.31394238421136406 0.69990450421773054 0.09135763170459972 0.15589686455514881
decision_type=2 2 2 2 2 2 2 2 2
left_child=1 3 4 7 -2 -3 -4 -1 -5
right_child=2 5 6 8 -6 -7 -8 -9 -10
leaf_value=-0.0015130933645019983 0.00044319745391197923 -0.00032149309418064273 0.0014126766928805002 -0.0009831457262980028 0.00087611832379518365 4.5663315564957472e-05 0.0021717534851140854 -0.0010680460742011639 -0.00058221305948307736
leaf_weight=883 4737 5256 2274 1029 3783 5387 551 3417 4091
leaf_count=883 4737 5256 2274 1029 3783 5387 551 3417 4091
internal_value=0 -0.0004896 0.00086583 -0.000889497 0.00063542 -0.000135655 0.00156073 -0.00115944 -0.000662791
internal_weight=0 20063 11345 9420 8520 10643 2825 4300 5120
internal_count=31408 20063 11345 9420 8520 10643 2825 4300 5120
is_linear=0
shrinkage=0.01


Tree=66
num_leaves=10
num_cat=0
split_feature=23 23 23 23 23 2 1 23 21
split_gain=130.567 25.1247 19.9753 4.54269 4.4368 3.79617 2.60743 1.46551 1.42573
threshold=0.3532548145790228 0.52275982810759203 0.20810122552920582 0.63592233009708743 0.42805984402355568 0.27256087856119693 0.16974375298424318 0.29325163138628046 0.38588254018780843
decision_type=2 2 2 2 2 2 2 2 2
left_child=2 4 6 -3 8 -4 -1 -7 -2
right_child=1 3 5 -5 -6 7 -8 -9 -10
leaf_value=-0.0012427724855600959 0.0003891982389351483 0.0011426516838915575 -0.00053029709354024629 0.0018570981588561034 0.00064896561322183132 -0.00031475274179914605 -0.00083322235293428943 -7.9224031023238387e-06 4.5186276058871093e-05
leaf_weight=3009 2400 3247 4991 1226 4673 3089 3216 3138 2419
leaf_count=3009 2400 3247 4991 1226 4673 3089 3216 3138 2419
internal_value=0 0.000720586 -0.000576907 0.00133847 0.000429414 -0.000324821 -0.00103119 -0.00016013 0.000216514
internal_weight=0 13965 17443 4473 9492 11218 6225 6227 4819
internal_count=31408 13965 17443 4473 9492 11218 6225 6227 4819
is_linear=0
shrinkage=0.01


Tree=67
num_leaves=10
num_cat=0
split_feature=23 23 23 23 23 23 23 2 3
split_gain=128.004 23.0572 21.1055 4.04858 3.84944 3.65861 3.53204 1.44576 1.36738
threshold=0.37108069393601789 0.23006525545121762 0.54042654782747113 0.45336622632500406 0.13775266592392169 0.30502944453286651 0.66218367022123203 0.20666878879516157 0.34863918510265801
decision_type=2 2 2 2 2 2 2 2 2
left_child=1 4 3 8 -1 -3 -4 -6 -2
right_child=2 5 6 -5 7 -7 -8 -9 -10
leaf_value=-0.0012527167205661986 0.00010558251501126559 -0.00039251263733192186 0.0012326358906079456 0.00075076682333923266 -0.00097709206619806823 -2.3946660496446738e-05 0.0019546839682198429 -0.00063662588944515765 0.00044766058756878877
leaf_weight=2657 1843 6153 2868 3929 2189 4790 887 2899 3193
leaf_count=2657 1843 6153 2868 3929 2189 4790 887 2899 3193
internal_value=0 -0.000526688 0.0007738 0.000510176 -0.000944209 -0.000231183 0.0014032 -0.000783104 0.000322472
internal_weight=0 18688 12720 8965 7745 10943 3755 5088 5036
internal_count=31408 18688 12720 8965 7745 10943 3755 5088 5036
is_linear=0
shrinkage=0.01


Tree=68
num_leaves=10
num_cat=0
split_feature=23 23 23 23 2 2 1 23 23
split_gain=125.502 25.9487 17.6917 5.88606 3.70481 3.39191 1.95557 1.57303 1.34399
threshold=0.34466019417475735 0.49777176508037574 0.1953684545599236 0.60536367977081029 0.26508037561674364 0.38986153111570915 0.19170778290625498 0.75274550374025162 0.29181919465223621
decision_type=2 2 2 2 2 2 2 2 2
left_child=2 5 6 -3 -4 -2 -1 -5 -6
right_child=1 3 4 7 8 -7 -8 -9 -10
leaf_value=-0.0012112996043128043 0.00014605204536663732 0.00099237993149839518 -0.00056862178441448189 0.0015787552206525726 -0.0003337073940636485 0.00053358154513821786 -0.00082505537943073921 0.0024832729199161271 -4.1689160483138124e-05
leaf_weight=3272 4311 3739 4971 1575 3565 4744 2187 219 2825
leaf_count=3272 4311 3739 4971 1575 3565 4744 2187 219 2825
internal_value=0 0.000678765 -0.000588694 0.00121831 -0.000363881 0.000349082 -0.00105656 0.00168917 -0.000204607
internal_weight=0 14588 16820 5533 11361 9055 5459 1794 6390
internal_count=31408 14588 16820 5533 11361 9055 5459 1794 6390
is_linear=0
shrinkage=0.01


Tree=69
num_leaves=10
num_cat=0
split_feature=23 23 23 23 2 2 23 2 23
split_gain=123.142 26.303 16.8344 5.35479 3.71956 3.34699 2.38991 1.53145 1.26147
threshold=0.39145312748686939 0.25202928537322938 0.56684704758873161 0.1608308133057457 0.46084672926945741 0.31394238421136406 0.69990450421773054 0.2361133216616266 0.45559446124462838
decision_type=2 2 2 2 2 2 2 2 2
left_child=1 3 4 -1 8 -3 -4 -5 -2
right_child=2 5 6 7 -6 -7 -8 -9 -10
leaf_value=-0.0011543561756572267 0.00027804003651549957 -0.00030974547191784817 0.0013584804168608278 -0.00083492186551985845 0.0008512369308981716 4.4952160431550775e-05 0.0020925354900788481 -0.00050836836960957356 0.00060115475763231226
leaf_weight=3667 2582 5256 2274 2766 3667 5387 551 2987 2271
leaf_count=3667 2582 5256 2274 2766 3667 5387 551 2987 2271
internal_value=0 -0.000470856 0.000832682 -0.000855723 0.000610869 -0.000130214 0.00150165 -0.000665373 0.000429244
internal_weight=0 20063 11345 9420 8520 10643 2825 5753 4853
internal_count=31408 20063 11345 9420 8520 10643 2825 5753 4853
is_linear=0
shrinkage=0.01


Tree=70
num_leaves=10
num_cat=0
split_feature=23 23 23 23 23 2 23 21 21
split_gain=120.7 24.9658 17.0007 4.83163 4.03625 3.56473 1.92098 1.39607 1.39599
threshold=0.34466019417475735 0.51161865350947011 0.1953684545599236 0.6225529205793412 0.42153429890179855 0.26508037561674364 0.11292376253382143 0.36742002228234927 0.46021009072099323
decision_type=2 2 2 2 2 2 2 2 2
left_child=2 4 6 -3 7 -4 -1 -2 -6
right_child=1 3 5 -5 8 -7 -8 -9 -10
leaf_value=-0.0013218468870475608 0.00036690458087278377 0.0010420104224672412 -0.00055777693546971434 0.0017285076660917401 0.00075469315438189417 -0.00020071027909284567 -0.00091287349294220683 3.1927419472482019e-05 0.00040493009539096153
leaf_weight=1643 2179 3488 4971 1452 2356 6390 3816 2900 2213
leaf_count=1643 2179 3488 4971 1452 2356 6390 3816 2900 2213
internal_value=0 0.000665654 -0.000577323 0.00124379 0.000369635 -0.000356945 -0.00103596 0.00017564 0.000585285
internal_weight=0 14588 16820 4940 9648 11361 5459 5079 4569
internal_count=31408 14588 16820 4940 9648 11361 5459 5079 4569
is_linear=0
shrinkage=0.01


Tree=71
num_leaves=10
num_cat=0
split_feature=23 23 23 23 2 2 23 2 23
split_gain=118.364 25.3488 16.2039 5.13515 3.61297 3.22605 2.3157 1.53563 1.20877
threshold=0.39145312748686939 0.25202928537322938 0.56684704758873161 0.15796593983765719 0.46084672926945741 0.31394238421136406 0.69990450421773054 0.2361133216616266 0.45559446124462838
decision_type=2 2 2 2 2 2 2 2 2
left_child=1 3 4 -1 8 -3 -4 -5 -2
right_child=2 5 6 7 -6 -7 -8 -9 -10
leaf_value=-0.0011401582502681398 0.00027173055994801724 -0.00030348139720683646 0.0013317554831183734 -0.00082498496808585341 0.00083564530609090706 4.4748950747422629e-05 0.0020543250384759122 -0.00050153223664227181 0.00058802422199712948
leaf_weight=3543 2582 5256 2274 2846 3667 5387 551 3031 2271
leaf_count=3543 2582 5256 2274 2846 3667 5387 551 3031 2271
internal_value=0 -0.000461629 0.000816366 -0.000839451 0.000598747 -0.000127223 0.00147269 -0.000658168 0.000419743
internal_weight=0 20063 11345 9420 8520 10643 2825 5877 4853
internal_count=31408 20063 11345 9420 8520 10643 2825 5877 4853
is_linear=0
shrinkage=0.01


Tree=72
num_leaves=10
num_cat=0
split_feature=23 23 23 23 2 2 1 23 3
split_gain=116.083 24.0386 16.3394 5.61179 3.19688 3.07324 2.12743 1.62725 1.19664
threshold=0.34466019417475735 0.49506605124940323 0.20205315931879678 0.59501830335826844 0.27256087856119693 0.4084832086582843 0.16974375298424318 0.75274550374025162 0.45432118414770023
decision_type=2 2 2 2 2 2 2 2 2
left_child=2 5 6 8 -4 -2 -1 -5 -3
right_child=1 3 4 7 -6 -7 -8 -9 -10
leaf_value=-0.0011839018028304963 0.00015846072410544588 0.00071731989559209615 -0.00052162575667402135 0.0014868115222435052 -0.00017944584568669391 0.00053040493765040247 -0.00080237224156075109 0.0023996865307087225 0.0010846072206013458
leaf_weight=2924 4814 1545 5107 1802 5867 4125 2922 219 2083
leaf_count=2924 4814 1545 5107 1802 5867 4125 2922 219 2083
internal_value=0 0.000652798 -0.000566172 0.00116344 -0.000338687 0.000330098 -0.000993202 0.00158573 0.000928196
internal_weight=0 14588 16820 5649 10974 8939 5846 2021 3628
internal_count=31408 14588 16820 5649 10974 8939 5846 2021 3628
is_linear=0
shrinkage=0.01


Tree=73
num_leaves=10
num_cat=0
split_feature=23 23 23 23 23 2 23 2 21
split_gain=113.845 23.3082 16.4199 4.24537 3.44039 3.26183 2.6846 1.42132 1.27296
threshold=0.38588254018780843 0.24295718605761582 0.55315931879675329 0.14953047907050773 0.31139583001750765 0.45639025943020856 0.68438643959891787 0.16974375298424318 0.34641095018303364
decision_type=2 2 2 2 2 2 2 2 2
left_child=1 3 5 -1 -3 -2 -4 -5 -6
right_child=2 4 6 7 8 -7 -8 -9 -10
leaf_value=-0.0011451664536244164 0.00037755227651308003 -0.00032903375673806821 0.0012360023706231066 -0.00094596571448746745 0.00018151792887387605 0.00077571238278190645 0.0019484389086009152 -0.00058568276039545311 -0.00012896294997330276
leaf_weight=3162 4851 5764 2631 1512 2607 3573 662 3970 2676
leaf_count=3162 4851 5764 2631 1512 2607 3573 662 3970 2676
internal_value=0 -0.000464421 0.000780483 -0.000853364 -0.000160083 0.00054643 0.00137923 -0.000685053 2.42499e-05
internal_weight=0 19691 11717 8644 11047 8424 3293 5482 5283
internal_count=31408 19691 11717 8644 11047 8424 3293 5482 5283
is_linear=0
shrinkage=0.01


Tree=74
num_leaves=10
num_cat=0
split_feature=23 23 23 23 2 2 23 23 21
split_gain=111.635 25.0352 14.4693 5.0942 3.15406 3.14667 2.19236 1.336 1.20364
threshold=0.39718287442304639 0.25553079738978202 0.56684704758873161 0.17674677701734845 0.46084672926945741 0.34704758873149771 0.69990450421773054 0.087139901321025018 0.25696323412382621
decision_type=2 2 2 2 2 2 2 2 2
left_child=1 3 4 7 -2 -3 -4 -1 -5
right_child=2 5 6 8 -6 -7 -8 -9 -10
leaf_value=-0.0014380010582595005 0.00042568302259008795 -0.00024527216226506824 0.0012927379549162344 -0.00049491350470839772 0.00082196848164270246 0.00010366292609581673 0.0019958009856149636 -0.00097708414972370286 -0.00082369589685762023
leaf_weight=759 4580 6435 2274 3641 3577 4319 551 3668 1604
leaf_count=759 4580 6435 2274 3641 3577 4319 551 3668 1604
internal_value=0 -0.000437148 0.000813074 -0.000806304 0.000599462 -0.000105134 0.00142987 -0.00105611 -0.00059546
internal_weight=0 20426 10982 9672 8157 10754 2825 4427 5245
internal_count=31408 20426 10982 9672 8157 10754 2825 4427 5245
is_linear=0
shrinkage=0.01


Tree=75
num_leaves=10
num_cat=0
split_feature=23 23 23 23 23 2 1 23 2
split_gain=109.502 22.749 15.4125 5.28093 3.38019 2.91092 1.73726 1.49436 1.31595
threshold=0.34466019417475735 0.49506605124940323 0.19314021964029923 0.59979309247174928 0.27494827311793735 0.38986153111570915 0.16974375298424318 0.75274550374025162 0.24948273117937295
decision_type=2 2 2 2 2 2 2 2 2
left_child=2 5 6 -3 8 -2 -1 -5 -4
right_child=1 3 4 7 -6 -7 -8 -9 -10
leaf_value=-0.0011672896994347399 0.0001319508293648719 0.00091251009518303274 -0.00066689149566316738 0.001458248150053818 -0.00016402422671587123 0.00049317692388476308 -0.00080596203859532509 0.0023362472265550534 -0.0003700988737450408
leaf_weight=2778 4283 3742 2781 1688 5479 4656 2554 219 3228
leaf_count=2778 4283 3742 2781 1688 5479 4656 2554 219 3228
internal_value=0 0.000634025 -0.00054989 0.00113078 -0.000343662 0.0003201 -0.000994216 0.00155908 -0.000507456
internal_weight=0 14588 16820 5649 11488 8939 5332 1907 6009
internal_count=31408 14588 16820 5649 11488 8939 5332 1907 6009
is_linear=0
shrinkage=0.01


Tree=76
num_leaves=10
num_cat=0
split_feature=23 23 23 23 2 2 23 3 23
split_gain=107.379 24.0343 13.907 4.90688 3.25477 3.04169 1.89843 1.30979 1.19346
threshold=0.39718287442304639 0.25553079738978202 0.57496418908164904 0.16847047588731498 0.46084672926945741 0.34704758873149771 0.7123189559127806 0.15589686455514881 0.081410154384848013
decision_type=2 2 2 2 2 2 2 2 2
left_child=1 3 4 8 -2 -3 -4 -5 -1
right_child=2 5 6 7 -6 -7 -8 -9 -10
leaf_value=-0.0014566706692811791 0.00042349077308224785 -0.00024120532390188798 0.0013156748877908395 -0.00090272209882628809 0.00081979541826390182 0.00010186002270328468 0.0020372712189556529 -0.00052262161434391582 -0.00098238360784505497
leaf_weight=628 4660 6435 2151 1136 3732 4319 439 4489 3419
leaf_count=628 4660 6435 2151 1136 3732 4319 439 4489 3419
internal_value=0 -0.000428734 0.000797425 -0.000790436 0.000599731 -0.000103424 0.00143798 -0.000599385 -0.00105598
internal_weight=0 20426 10982 9672 8392 10754 2590 5625 4047
internal_count=31408 20426 10982 9672 8392 10754 2590 5625 4047
is_linear=0
shrinkage=0.01


Tree=77
num_leaves=10
num_cat=0
split_feature=23 23 23 23 23 2 23 21 21
split_gain=105.335 18.9134 17.5505 3.57685 3.31559 3.01846 2.87388 1.28702 1.26724
threshold=0.36216775425752035 0.53151360814897364 0.2232213910552284 0.43856438007321358 0.65215661308292228 0.28322457424797076 0.13456947318160115 0.39320388349514568 0.47166958459334724
decision_type=2 2 2 2 2 2 2 2 2
left_child=2 3 6 7 -3 -4 -1 -2 -5
right_child=1 4 5 8 -6 -7 -8 -9 -10
leaf_value=-0.0011503698224656982 0.00039927573339401087 0.0010771504833983531 -0.00042520258208341864 0.00080257441031706994 0.0017390429289638996 -9.0026210183351228e-05 -0.00073259149720333221 7.1933397320088116e-05 0.0004638018658582884
leaf_weight=2533 2376 3112 4937 2142 1000 5895 4705 2429 2279
leaf_count=2533 2376 3112 4937 2142 1000 5895 4705 2429 2279
internal_value=0 0.000674064 -0.000497546 0.000422667 0.00123812 -0.000242793 -0.000878797 0.000233799 0.000627939
internal_weight=0 13338 18070 9226 4112 10832 7238 4805 4421
internal_count=31408 13338 18070 9226 4112 10832 7238 4805 4421
is_linear=0
shrinkage=0.01


Tree=78
num_leaves=10
num_cat=0
split_feature=23 23 23 23 2 2 1 23 3
split_gain=103.304 22.1455 14.0561 5.12316 3.05382 2.80481 1.67489 1.48966 1.15608
threshold=0.34115868215820472 0.49220117778131472 0.19314021964029923 0.59501830335826844 0.26237466178577118 0.4084832086582843 0.16974375298424318 0.75274550374025162 0.45432118414770023
decision_type=2 2 2 2 2 2 2 2 2
left_child=2 5 6 8 -4 -2 -1 -5 -3
right_child=1 3 4 7 -6 -7 -8 -9 -10
leaf_value=-0.0011353943235108094 0.00013782405209994926 0.00066941399018512063 -0.00053113127951949783 0.0014016940665806537 -0.0001983669099007993 0.00049115543897310489 -0.0007806117964548661 0.002275121665164216 0.0010241806434156267
leaf_weight=2778 4957 1611 4853 1802 6388 4109 2554 219 2137
leaf_count=2778 4957 1611 4853 1802 6388 4109 2554 219 2137
internal_value=0 0.000606172 -0.000542603 0.00109052 -0.000342029 0.000297965 -0.000965455 0.00149634 0.000871692
internal_weight=0 14835 16573 5769 11241 9066 5332 2021 3748
internal_count=31408 14835 16573 5769 11241 9066 5332 2021 3748
is_linear=0
shrinkage=0.01


Tree=79
num_leaves=10
num_cat=0
split_feature=23 23 23 23 2 2 23 3 23
split_gain=101.308 22.7251 13.1227 4.61569 2.90491 2.88463 2.01116 1.43643 1.03962
threshold=0.39718287442304639 0.25553079738978202 0.56684704758873161 0.15796593983765719 0.46084672926945741 0.31394238421136406 0.69990450421773054 0.16146745185420977 0.32906254973738663
decision_type=2 2 2 2 2 2 2 2 2
left_child=1 3 4 -1 -2 -3 -4 -5 -7
right_child=2 5 6 7 -6 8 -8 -9 -10
leaf_value=-0.001055472657056076 0.0004043503640564119 -0.0002704814166688891 0.0012306041002565161 -0.00088886902493344542 0.00078466192760726344 -9.8227894882173958e-05 0.0019039859426648994 -0.00052034300993535998 0.00017690837659725334
leaf_weight=3543 4580 5165 2274 1359 3577 2429 551 4770 3160
leaf_count=3543 4580 5165 2274 1359 3577 2429 551 4770 3160
internal_value=0 -0.000416437 0.000774554 -0.00076815 0.000571124 -0.000100112 0.00136194 -0.000602057 5.73331e-05
internal_weight=0 20426 10982 9672 8157 10754 2825 6129 5589
internal_count=31408 20426 10982 9672 8157 10754 2825 6129 5589
is_linear=0
shrinkage=0.01


Tree=80
num_leaves=10
num_cat=0
split_feature=23 23 23 23 23 2 1 21 21
split_gain=99.2929 19.8223 14.7266 4.00396 3.12074 2.66631 2.35205 1.34212 1.30401
threshold=0.34991246219958622 0.51161865350947011 0.21414929173961486 0.62923762533821437 0.42805984402355568 0.27256087856119693 0.20666878879516157 0.38588254018780843 0.46021009072099323
decision_type=2 2 2 2 2 2 2 2 2
left_child=2 4 6 -3 7 -4 -1 -2 -6
right_child=1 3 5 -5 8 -7 -8 -9 -10
leaf_value=-0.0010310888445700802 0.00033829825888569793 0.00095661383677655011 -0.00045857016150795561 0.0015972457833376523 0.0007233854917306266 -0.00013893218588404915 -0.0006436283080404801 1.2702733027315489e-05 0.00037122830145054706
leaf_weight=4058 2583 3602 4669 1338 2102 5917 2552 2483 2104
leaf_count=4058 2583 3602 4669 1338 2102 5917 2552 2483 2104
internal_value=0 0.000618479 -0.000511155 0.00113013 0.000345879 -0.00027991 -0.000881497 0.000178714 0.000547223
internal_weight=0 14212 17196 4940 9272 10586 6610 5066 4206
internal_count=31408 14212 17196 4940 9272 10586 6610 5066 4206
is_linear=0
shrinkage=0.01


Tree=81
num_leaves=10
num_cat=0
split_feature=23 23 23 23 23 2 23 2 21
split_gain=97.3834 21.8806 12.6464 4.45509 3.11151 2.79887 1.66297 1.48415 1.21945
threshold=0.39718287442304639 0.25553079738978202 0.5786248607353176 0.15255451217571228 0.47930924717491658 0.3519815374820946 0.72918987744707964 0.2361133216616266 0.4259907687410473
decision_type=2 2 2 2 2 2 2 2 2
left_child=1 3 4 -1 8 -3 -4 -5 -2
right_child=2 5 6 7 -6 -7 -8 -9 -10
leaf_value=-0.0010524632885186523 0.00057723580789397779 -0.00022538587022474807 0.0012870452236965688 -0.00075626773963977448 0.00078462244526153479 0.00010625050958909966 0.002050559207751758 -0.00045119816814325907 0.00025102721411394285
leaf_weight=3288 2118 6620 2146 3101 3892 4134 329 3283 2497
leaf_count=3288 2118 6620 2146 3101 3892 4134 329 3283 2497
internal_value=0 -0.000408293 0.000759405 -0.000753409 0.000576367 -9.78998e-05 0.00138854 -0.000599384 0.000400737
internal_weight=0 20426 10982 9672 8507 10754 2475 6384 4615
internal_count=31408 20426 10982 9672 8507 10754 2475 6384 4615
is_linear=0
shrinkage=0.01


Tree=82
num_leaves=10
num_cat=0
split_feature=23 23 23 23 2 2 23 3 23
split_gain=95.5635 21.3959 12.348 4.74521 2.78995 2.61864 1.60632 1.25569 1.23623
threshold=0.3359064141333758 0.49220117778131472 0.19314021964029923 0.61045678815852311 0.38604169982492448 0.26062390577749489 0.10942225051726885 0.49045042177303838 0.75274550374025162
decision_type=2 2 2 2 2 2 2 2 2
left_child=2 4 6 7 -2 -4 -1 -3 -5
right_child=1 3 5 8 -6 -7 -8 -9 -10
leaf_value=-0.0012049127367405308 9.7096438599769086e-05 0.00070369481579442283 -0.00051906739398226154 0.001391218894552414 0.00044111132640502356 -0.00020565487836888985 -0.00081967609493656586 0.0010554217522740364 0.0021968525375949738
leaf_weight=1510 4533 2213 4697 1462 4912 6165 3822 1875 219
leaf_count=1510 4533 2213 4697 1462 4912 6165 3822 1875 219
internal_value=0 0.00056909 -0.000534651 0.00104893 0.000276006 -0.000341182 -0.000928773 0.000865018 0.00149618
internal_weight=0 15214 16194 5769 9445 10862 5332 4088 1681
internal_count=31408 15214 16194 5769 9445 10862 5332 4088 1681
is_linear=0
shrinkage=0.01


Tree=83
num_leaves=10
num_cat=0
split_feature=23 23 23 23 2 2 23 3 23
split_gain=93.6819 21.061 12.1546 4.27697 3.004 2.6894 1.60251 1.19521 1.1295
threshold=0.39718287442304639 0.25553079738978202 0.5786248607353176 0.16847047588731498 0.46084672926945741 0.3519815374820946 0.7123189559127806 0.15589686455514881 0.081410154384848013
decision_type=2 2 2 2 2 2 2 2 2
left_child=1 3 4 8 -2 -3 -4 -5 -1
right_child=2 5 6 7 -6 -7 -8 -9 -10
leaf_value=-0.0013767692088416429 0.00039630508560823205 -0.00022090200278389354 0.001243456815093141 -0.00085044696758391385 0.00077423278430102215 0.00010418386966982947 0.0019095979627552771 -0.00048735197821148882 -0.00091536554126535265
leaf_weight=628 4701 6620 2036 1136 3806 4134 439 4489 3419
leaf_count=628 4701 6620 2036 1136 3806 4134 439 4489 3419
internal_value=0 -0.000400458 0.000744833 -0.000739048 0.000565389 -9.59341e-05 0.00136161 -0.000560681 -0.000986965
internal_weight=0 20426 10982 9672 8507 10754 2475 5625 4047
internal_count=31408 20426 10982 9672 8507 10754 2475 5625 4047
is_linear=0
shrinkage=0.01


Tree=84
num_leaves=10
num_cat=0
split_feature=23 23 23 23 2 2 2 23 23
split_gain=91.9267 20.6106 11.8577 4.81728 2.53811 2.53472 1.56432 1.36067 1.2177
threshold=0.3359064141333758 0.48678975011936981 0.19314021964029923 0.59501830335826844 0.22926945726563744 0.38604169982492448 0.21462677065096294 0.75274550374025162 0.2763807098519816
decision_type=2 2 2 2 2 2 2 2 2
left_child=2 5 6 -3 -4 -2 -1 -5 -6
right_child=1 3 4 7 8 -7 -8 -9 -10
leaf_value=-0.0010482859561445779 8.9498387940796108e-05 0.00081216485876531937 -0.00056280877367386958 0.0013210296055992505 -0.00035739095458352786 0.00042153158907011137 -0.0006975191674258416 0.0021557879828971271 -0.00010240197807617101
leaf_weight=3239 4456 3987 3368 1802 3818 4750 2093 219 3676
leaf_count=3239 4456 3987 3368 1802 3818 4750 2093 219 3676
internal_value=0 0.000558157 -0.000524379 0.00101377 -0.00033479 0.000260817 -0.000910597 0.00141149 -0.000232312
internal_weight=0 15214 16194 6008 10862 9206 5332 2021 7494
internal_count=31408 15214 16194 6008 10862 9206 5332 2021 7494
is_linear=0
shrinkage=0.01


Tree=85
num_leaves=10
num_cat=0
split_feature=23 23 23 23 23 23 23 21 20
split_gain=90.1277 16.317 15.0078 3.00153 2.8693 2.65084 2.60153 1.26836 1.23776
threshold=0.37108069393601789 0.23372592710488624 0.53151360814897364 0.13775266592392169 0.65215661308292228 0.44445328664650657 0.30041381505650172 0.41341715740888119 0.2232213910552284
decision_type=2 2 2 2 2 2 2 2 2
left_child=1 3 5 -1 -4 7 -3 -2 -5
right_child=2 6 4 8 -6 -7 -8 -9 -10
leaf_value=-0.0010580221364414127 0.00039633342322207741 -0.00033739626535384432 0.00099654111879039276 -0.00050949682122133151 0.0016122776437550784 0.00059784590586657907 -2.5139924732355737e-05 6.0626936587583698e-05 -0.00081536033718995304
leaf_weight=2657 2518 5509 3112 2947 1000 4055 5174 2035 2401
leaf_count=2657 2518 5509 3112 2947 1000 4055 5174 2035 2401
internal_value=0 -0.000441948 0.000649302 -0.000783302 0.00114628 0.000411897 -0.000186164 0.000246287 -0.000646815
internal_weight=0 18688 12720 8005 4112 8608 10683 4553 5348
internal_count=31408 18688 12720 8005 4112 8608 10683 4553 5348
is_linear=0
shrinkage=0.01


Tree=86
num_leaves=10
num_cat=0
split_feature=23 23 23 23 2 2 3 3 23
split_gain=88.3802 19.8399 11.4779 4.05383 2.6449 2.57245 1.81485 1.39948 0.959028
threshold=0.39718287442304639 0.25553079738978202 0.56684704758873161 0.15255451217571228 0.46084672926945741 0.31394238421136406 0.54504217730383586 0.15589686455514881 0.7941270093904188
decision_type=2 2 2 2 2 2 2 2 2
left_child=1 3 4 -1 -2 -3 -4 -5 -8
right_child=2 5 6 7 -6 -7 8 -9 -10
leaf_value=-0.0010028590434208204 0.00037406055150577584 -0.00025428430912378161 0.00103677049188112 -0.0008572466977262613 0.00073695262985283886 5.5283566203516864e-05 0.0014707369466663385 -0.00049417146529807932 0.002529524423829887
leaf_weight=3288 4580 5165 1513 1345 3577 5589 1220 5039 92
leaf_count=3288 4580 5165 1513 1345 3577 5589 1220 5039 92
internal_value=0 -0.000388961 0.00072345 -0.00071759 0.000533196 -9.33977e-05 0.0012728 -0.000570665 0.00154498
internal_weight=0 20426 10982 9672 8157 10754 2825 6384 1312
internal_count=31408 20426 10982 9672 8157 10754 2825 6384 1312
is_linear=0
shrinkage=0.01


Tree=87
num_leaves=10
num_cat=0
split_feature=23 23 23 23 2 2 2 3 23
split_gain=86.7106 19.4632 11.199 4.30425 2.56409 2.43315 1.50688 1.1882 1.14403
threshold=0.3359064141333758 0.49220117778131472 0.19314021964029923 0.61045678815852311 0.4084832086582843 0.22926945726563744 0.21462677065096294 0.49283781632977891 0.75274550374025162
decision_type=2 2 2 2 2 2 2 2 2
left_child=2 4 6 7 -2 -4 -1 -3 -5
right_child=1 3 5 8 -6 -7 -8 -9 -10
leaf_value=-0.0010197586849739866 0.00011451336114000559 0.00067072595406149642 -0.00054829126615477607 0.0013247366127635768 0.00044593266682704162 -0.00022470054209230248 -0.00067549242552130545 0.0010134950890345372 0.0020997447258533407
leaf_weight=3239 5226 2253 3368 1462 4219 7494 2093 1835 219
leaf_count=3239 5226 2253 3368 1462 4219 7494 2093 1835 219
internal_value=0 0.00054209 -0.000509285 0.000999743 0.000262556 -0.000325037 -0.000884622 0.000824586 0.0014257
internal_weight=0 15214 16194 5769 9445 10862 5332 4088 1681
internal_count=31408 15214 16194 5769 9445 10862 5332 4088 1681
is_linear=0
shrinkage=0.01


Tree=88
num_leaves=10
num_cat=0
split_feature=23 23 23 1 2 2 23 23 3
split_gain=85.024 17.9966 11.8797 3.50761 2.58187 2.46637 2.07411 1.29233 0.95448
threshold=0.3897023714785931 0.24757281553398061 0.55315931879675329 0.20666878879516157 0.31394238421136406 0.46275664491484975 0.68438643959891787 0.12915804551965623 0.28322457424797076
decision_type=2 2 2 2 2 2 2 2 2
left_child=1 3 5 7 -3 8 -4 -1 -2
right_child=2 4 6 -5 -6 -7 -8 -9 -10
leaf_value=-0.0011166657009338205 7.6318278528643072e-05 -0.00027330778936768469 0.001067412975733602 -0.00051442179283448886 3.4380484237441763e-05 0.0006915209930461974 0.0016936264081303806 -0.00077970174015229671 0.00041322271489466726
leaf_weight=1850 1083 5515 2631 4225 5395 3327 662 2958 3762
leaf_count=1850 1083 5515 2631 4225 5395 3327 662 2958 3762
internal_value=0 -0.000394496 0.000686213 -0.000724634 -0.000121156 0.000481876 0.0011933 -0.000909357 0.000337915
internal_weight=0 19943 11465 9033 10910 8172 3293 4808 4845
internal_count=31408 19943 11465 9033 10910 8172 3293 4808 4845
is_linear=0
shrinkage=0.01


Tree=89
num_leaves=10
num_cat=0
split_feature=23 23 23 23 2 2 23 23 20
split_gain=83.4069 18.7426 10.7775 4.37645 2.3533 2.3336 1.47214 1.26124 1.17524
threshold=0.3359064141333758 0.48678975011936981 0.19314021964029923 0.59501830335826844 0.26237466178577118 0.37155817284736598 0.10607989813783227 0.75274550374025162 0.17690593665446444
decision_type=2 2 2 2 2 2 2 2 2
left_child=2 5 6 -3 -4 -2 -1 -5 -8
right_child=1 3 4 7 -6 -7 8 -9 -10
leaf_value=-0.0011480616934834019 6.6039699645098349e-05 0.00077398041007799539 -0.00048502217209599012 0.0012581332356045717 -0.00018844736228365439 0.00038733622136187729 -0.00057737771661357036 0.002061810966019761 -0.00092446702536313379
leaf_weight=1386 3989 3987 4772 1802 6090 5217 1765 219 2181
leaf_count=1386 3989 3987 4772 1802 6090 5217 1765 219 2181
internal_value=0 0.000531663 -0.000499489 0.000966137 -0.000318742 0.000248117 -0.000867695 0.00134522 -0.000769218
internal_weight=0 15214 16194 6008 10862 9206 5332 2021 3946
internal_count=31408 15214 16194 6008 10862 9206 5332 2021 3946
is_linear=0
shrinkage=0.01


Tree=90
num_leaves=10
num_cat=0
split_feature=23 23 23 23 2 2 3 3 23
split_gain=81.8076 18.3947 10.6164 3.76545 2.69534 2.3919 1.47245 1.37618 1.12045
threshold=0.39718287442304639 0.25553079738978202 0.5786248607353176 0.14953047907050773 0.4958618494349834 0.3519815374820946 0.54504217730383586 0.15589686455514881 0.47930924717491658
decision_type=2 2 2 2 2 2 2 2 2
left_child=1 3 4 -1 8 -3 -4 -5 -2
right_child=2 5 6 7 -6 -7 -8 -9 -10
leaf_value=-0.00097376514745759564 0.00028870938835224972 -0.00020747707215280892 0.0010335249128373177 -0.00083282524549372033 0.00077693427373791315 9.9101806329841206e-05 0.0015214527189030803 -0.00047755659848653211 0.00057848959205221136
leaf_weight=3162 3447 6620 1263 1385 2883 4134 1212 5125 2177
leaf_count=3162 3447 6620 1263 1385 2883 4134 1212 5125 2177
internal_value=0 -0.000374219 0.00069603 -0.000690652 0.000528324 -8.96235e-05 0.00127246 -0.00055314 0.000400881
internal_weight=0 20426 10982 9672 8507 10754 2475 6510 5624
internal_count=31408 20426 10982 9672 8507 10754 2475 6510 5624
is_linear=0
shrinkage=0.01


Tree=91
num_leaves=10
num_cat=0
split_feature=23 23 23 23 2 2 23 20 3
split_gain=80.2381 17.2406 10.9232 3.98752 2.41868 2.24969 1.48215 1.15293 1.13576
threshold=0.34115868215820472 0.49220117778131472 0.1953684545599236 0.61045678815852311 0.26508037561674364 0.4084832086582843 0.10942225051726885 0.17690593665446444 0.45877765398694897
decision_type=2 2 2 2 2 2 2 2 2
left_child=2 5 6 8 -4 -2 -1 -8 -3
right_child=1 3 4 -5 -6 -7 7 -9 -10
leaf_value=-0.0011109844717314306 0.00011886634270971687 0.00060423048492125363 -0.0004639511102107233 0.001371574397755655 -0.0001669200695604305 0.00043530642443845665 -0.00055000525829840231 -0.00089419609479178422 0.00094017778231341082
leaf_weight=1510 4957 1791 4915 1681 6199 4109 1739 2210 2297
leaf_count=1510 4957 1791 4915 1681 6199 4109 1739 2210 2297
internal_value=0 0.000534228 -0.000478204 0.000961585 -0.000298278 0.000262287 -0.000844517 -0.000742627 0.000792995
internal_weight=0 14835 16573 5769 11114 9066 5459 3949 4088
internal_count=31408 14835 16573 5769 11114 9066 5459 3949 4088
is_linear=0
shrinkage=0.01


Tree=92
num_leaves=10
num_cat=0
split_feature=23 23 23 23 2 2 3 3 2
split_gain=78.6906 17.7099 10.2077 3.6158 2.37602 2.3024 1.68823 1.33423 0.947277
threshold=0.39718287442304639 0.25553079738978202 0.56684704758873161 0.14953047907050773 0.46084672926945741 0.34704758873149771 0.54504217730383586 0.15589686455514881 0.19170778290625498
decision_type=2 2 2 2 2 2 2 2 2
