tree
version=v4
num_class=1
num_tree_per_iteration=1
label_index=0
max_feature_idx=23
objective=regression
feature_names=Column_0 Column_1 Column_2 Column_3 Column_4 Column_5 Column_6 Column_7 Column_8 Column_9 Column_10 Column_11 Column_12 Column_13 Column_14 Column_15 Column_16 Column_17 Column_18 Column_19 Column_20 Column_21 Column_22 Column_23
feature_infos=[0:1] [0:1] [0:1] [0:1] [0:1] [0:1] [0:1] [0:1] [0:1] [0:1] [0:1] [0:1] [0:1] [0:1] [0:1] [0:1] [0:1] [0:1] [0:1] [0:1] [0:1] [0:1] [0:1] [0:1]
tree_sizes=1022 1067 1064 1069 1062 1068 1059 1068 1061 1068 1066 1072 1068 1070 1065 1072 1070 1066 1072 1064 1073 1068 1070 1075 1072 1070 1072 1068 1071 1073 1063 1071 1071 1067 1073 1073 1068 1073 1076 1073 1068 1069 1066 1070 1071 1068 1069 1067 1071 1071 1076 1074 1066 1075 1073 1068 1067 1079 1067 1071 1072 1075 1073 1067 1074 1071 1072 1072 1074 1073 1073 1072 1070 1077 1073 1074 1070 1072 1077 1076 1075 1075 1073 1076 1074 1068 1072 1075 1076 1071 1079 1072 1076 1078 1075 1075 1078 1073 1073 1073

Tree=0
num_leaves=10
num_cat=0
split_feature=23 23 23 23 23 23 23 23 23
split_gain=452.752 102.343 96.6046 17.6259 14.2635 12.8084 11.7104 2.75361 2.43904
threshold=0.40351634793337454 0.60653917334978424 0.25582973473164727 0.48951264651449738 0.33109191856878484 0.17612584824182606 0.74774830351634813 0.54170265268352891 0.44250462677359664
decision_type=2 2 2 2 2 2 2 2 2
left_child=2 3 5 8 -4 -1 -3 -5 -2
right_child=1 6 4 7 -6 -7 -8 -9 -10
leaf_value=0.36293163509699145 0.36574535852428025 0.3681970176643885 0.3645079492746004 0.36663790882871938 0.3651917041475769 0.3637569541908543 0.36972130272931431 0.36718975697454642 0.36617609125876599
leaf_weight=3023 2604 1380 5945 2256 6267 4975 794 1509 2655
leaf_count=3023 2604 1380 5945 2256 6267 4975 794 1509 2655
internal_value=0.365193 0.366806 0.364299 0.366337 0.364859 0.363445 0.368754 0.366859 0.365963
internal_weight=0 11198 20210 9024 12212 7998 2174 3765 5259
internal_count=31408 11198 20210 9024 12212 7998 2174 3765 5259
is_linear=0
shrinkage=1


Tree=1
num_leaves=10
num_cat=0
split_feature=23 23 23 23 23 23 23 23 23
split_gain=443.763 101.479 93.3336 17.8229 13.5517 12.5535 11.4774 2.69881 2.55075
threshold=0.40203578038248006 0.60653917334978424 0.25582973473164727 0.48951264651449738 0.32492288710672435 0.17612584824182606 0.74774830351634813 0.54170265268352891 0.44250462677359664
decision_type=2 2 2 2 2 2 2 2 2
left_child=2 3 5 8 -4 -1 -3 -5 -2
right_child=1 6 4 7 -6 -7 -8 -9 -10
leaf_value=-0.002238786073633862 0.00053790061767062733 0.002973942644786144 -0.00070810658975118963 0.0014304248957584301 -3.5038662342808189e-05 -0.0014217201578557192 0.0044829849384593725 0.001976754668090342 0.00097322549761737535
leaf_weight=3023 2730 1380 5440 2256 6646 4975 794 1509 2655
leaf_count=3023 2730 1380 5440 2256 6646 4975 794 1509 2655
internal_value=0 0.001583 -0.000892545 0.00112157 -0.000337992 -0.00173055 0.00352508 0.00164939 0.000752532
internal_weight=0 11324 20084 9150 12086 7998 2174 3765 5385
internal_count=31408 11324 20084 9150 12086 7998 2174 3765 5385
is_linear=0
shrinkage=0.01


Tree=2
num_leaves=10
num_cat=0
split_feature=23 23 23 23 23 23 23 23 23
split_gain=434.932 99.4592 91.4956 17.4808 14.7352 11.2497 10.9043 3.19417 2.47679
threshold=0.40203578038248006 0.60653917334978424 0.26668723010487361 0.48247995064774846 0.1788402220851327 0.76428130783467019 0.33923504009870464 0.53466995681677998 0.22769895126465153
decision_type=2 2 2 2 2 2 2 2 2
left_child=2 3 4 -2 -1 -3 -4 -5 -6
right_child=1 5 6 7 8 -7 -8 -9 -10
leaf_value=-0.002199348673186581 0.00071302178531214245 0.0030045209503875999 -0.00058567351687883497 0.001354552748876656 -0.0015436373333702173 0.004556090176982038 3.540312097964402e-05 0.0019172366988823237 -0.001122429773202872
leaf_weight=3148 5010 1494 5952 2399 2949 680 5384 1741 2651
leaf_count=3148 5010 1494 5952 2399 2949 680 5384 1741 2651
internal_value=0 0.00156717 -0.00088362 0.00111035 -0.00165195 0.00348983 -0.000290695 0.00159118 -0.00134424
internal_weight=0 11324 20084 9150 8748 2174 11336 4140 5600
internal_count=31408 11324 20084 9150 8748 2174 11336 4140 5600
is_linear=0
shrinkage=0.01


Tree=3
num_leaves=10
num_cat=0
split_feature=23 23 23 23 23 23 23 23 23
split_gain=426.334 101.785 84.6763 19.2951 11.9907 11.6807 11.0498 3.13208 2.44405
threshold=0.39524984577421352 0.60653917334978424 0.2534855027760643 0.48247995064774846 0.32492288710672435 0.16539173349784095 0.74774830351634813 0.53146206045650846 0.44250462677359664
decision_type=2 2 2 2 2 2 2 2 2
left_child=2 3 5 8 -4 -1 -3 -5 -2
right_child=1 6 4 7 -6 -7 -8 -9 -10
leaf_value=-0.0022681073814028322 0.0004941458249149124 0.0029141580343678376 -0.00070241204669878429 0.0013272002366613361 -6.2124830774415478e-05 -0.0014425859212292267 0.004394821828648786 0.0018802414176906383 0.00092201678970575392
leaf_weight=2524 3221 1380 5573 2283 6155 5341 794 1857 2280
leaf_count=2524 3221 1380 5573 2283 6155 5341 794 1857 2280
internal_value=0 0.00150034 -0.000904735 0.00105958 -0.000366381 -0.00170751 0.00345493 0.00157527 0.000671486
internal_weight=0 11815 19593 9641 11728 7865 2174 4140 5501
internal_count=31408 11815 19593 9641 11728 7865 2174 4140 5501
is_linear=0
shrinkage=0.01


Tree=4
num_leaves=10
num_cat=0
split_feature=23 23 23 23 23 23 23 23 23
split_gain=417.857 94.4212 89.2789 16.2785 14.1775 10.8644 10.8459 2.44283 2.40661
threshold=0.40351634793337454 0.60653917334978424 0.26668723010487361 0.49185687847008025 0.1788402220851327 0.33923504009870464 0.7338062924120915 0.44250462677359664 0.8311536088834055
decision_type=2 2 2 2 2 2 2 2 2
left_child=2 3 4 7 -1 -4 -3 -2 -8
right_child=1 6 5 -5 -6 -7 8 -9 -10
leaf_value=-0.0021563104617739574 0.00052934943303231934 0.0028222086619568098 -0.00057415025698257221 0.0016150368713793474 -0.0013175395181254964 4.2054488568152583e-05 0.0038570279171052002 0.00095570302617308651 0.0049213900177528021
leaf_weight=3148 2604 1266 5952 3643 5600 5510 569 2777 339
leaf_count=3148 2604 1266 5952 3643 5600 5510 569 2777 339
internal_value=0 0.00154955 -0.00085858 0.00109885 -0.00161937 -0.000277929 0.00342038 0.00074938 0.00425441
internal_weight=0 11198 20210 9024 8748 11462 2174 5381 908
internal_count=31408 11198 20210 9024 8748 11462 2174 5381 908
is_linear=0
shrinkage=0.01


Tree=5
num_leaves=10
num_cat=0
split_feature=23 23 23 23 23 23 23 23 23
split_gain=409.616 97.7599 81.3985 18.5391 11.5314 11.2417 10.6311 3.05654 2.33699
threshold=0.39524984577421352 0.60653917334978424 0.2534855027760643 0.48247995064774846 0.31900061690314629 0.16539173349784095 0.76428130783467019 0.53466995681677998 0.44250462677359664
decision_type=2 2 2 2 2 2 2 2 2
left_child=2 3 5 8 -4 -1 -3 -5 -2
right_child=1 6 4 7 -6 -7 -8 -9 -10
leaf_value=-0.0022238631537641663 0.00048484432331749637 0.0029144030715646837 -0.0007185704804472282 0.0013126834408038852 -8.5548457955603535e-05 -0.0014140047039243782 0.0044227045248536505 0.001863111554677633 0.00090323957511722459
leaf_weight=2524 3221 1494 5066 2399 6662 5341 680 1741 2280
leaf_count=2524 3221 1494 5066 2399 6662 5341 680 1741 2280
internal_value=0 0.00147062 -0.000886818 0.00103868 -0.000358987 -0.0016739 0.00338618 0.00154416 0.000658257
internal_weight=0 11815 19593 9641 11728 7865 2174 4140 5501
internal_count=31408 11815 19593 9641 11728 7865 2174 4140 5501
is_linear=0
shrinkage=0.01


Tree=6
num_leaves=10
num_cat=0
split_feature=23 23 23 23 23 23 23 23 23
split_gain=401.465 95.8145 79.7786 18.1702 11.3175 11.018 10.4614 3.00116 2.33173
threshold=0.39524984577421352 0.60653917334978424 0.2534855027760643 0.48247995064774846 0.32492288710672435 0.16539173349784095 0.7338062924120915 0.54170265268352891 0.8311536088834055
decision_type=2 2 2 2 2 2 2 2 2
left_child=2 3 5 -2 -4 -1 -3 -5 -8
right_child=1 6 4 7 -6 -7 8 -9 -10
leaf_value=-0.0022016245112555155 0.00065167407891579998 0.00276484266923973 -0.00068185874219277656 0.0013248089572654757 -5.9805204208833851e-05 -0.0013998646711736382 0.0037802743555581842 0.0018842308422225924 0.0048279492491114457
leaf_weight=2524 5501 1266 5573 2631 6155 5341 569 1509 339
leaf_count=2524 5501 1266 5573 2631 6155 5341 569 1509 339
internal_value=0 0.00145592 -0.00087795 0.00102829 -0.000355397 -0.00165716 0.00335232 0.00152871 0.00417142
internal_weight=0 11815 19593 9641 11728 7865 2174 4140 908
internal_count=31408 11815 19593 9641 11728 7865 2174 4140 908
is_linear=0
shrinkage=0.01


Tree=7
num_leaves=10
num_cat=0
split_feature=23 23 23 23 23 23 23 23 23
split_gain=393.549 88.8687 84.1428 15.3352 13.393 10.275 10.2532 2.34779 2.33881
threshold=0.40351634793337454 0.60653917334978424 0.26668723010487361 0.49185687847008025 0.1788402220851327 0.33923504009870464 0.7338062924120915 0.22572486119679222 0.12541640962368913
decision_type=2 2 2 2 2 2 2 2 2
left_child=2 3 4 -2 8 -4 -3 -6 -1
right_child=1 6 5 -5 7 -7 -8 -9 -10
leaf_value=-0.0024931687982380391 0.00072736177311077423 0.0027371942125978817 -0.00055760482781510418 0.0015675638197437279 -0.0014816798235018048 4.1652058460844761e-05 0.0041297074443443233 -0.0010721569860666321 -0.0019077085842009031
leaf_weight=1000 5381 1266 5952 3643 2821 5510 908 2779 2148
leaf_count=1000 5381 1266 5952 3643 2821 5510 908 2779 2148
internal_value=0 0.00150381 -0.000833233 0.00106655 -0.00157182 -0.000269531 0.0033188 -0.00127845 -0.00209369
internal_weight=0 11198 20210 9024 8748 11462 2174 5600 3148
internal_count=31408 11198 20210 9024 8748 11462 2174 5600 3148
is_linear=0
shrinkage=0.01


Tree=8
num_leaves=10
num_cat=0
split_feature=23 23 23 23 23 23 23 23 23
split_gain=385.732 93.0268 75.5116 16.9588 11.7723 11.1539 9.62159 2.7574 2.28533
threshold=0.39352251696483664 0.59895126465144988 0.24818013571869221 0.48038247995064781 0.31900061690314629 0.7338062924120915 0.16539173349784095 0.53146206045650846 0.8311536088834055
decision_type=2 2 2 2 2 2 2 2 2
left_child=2 3 6 -2 -4 -3 -1 -5 -7
right_child=1 5 4 7 -6 8 -8 -9 -10
leaf_value=-0.0021582115971720919 0.00062157627066889852 0.0026615024533373651 -0.00071903040205574639 0.0012487725788521132 -8.9387414812292645e-05 0.003701174521069116 -0.001399954937366927 0.0017713482368065967 0.0047383725959642799
leaf_weight=2524 5507 1381 5441 2402 6537 569 4966 1742 339
leaf_count=2524 5507 1381 5441 2402 6537 569 4966 1742 339
internal_value=0 0.00141508 -0.000867889 0.00098521 -0.000375402 0.00322753 -0.00165547 0.00146845 0.00408841
internal_weight=0 11940 19468 9651 11978 2289 7490 4144 908
internal_count=31408 11940 19468 9651 11978 2289 7490 4144 908
is_linear=0
shrinkage=0.01


Tree=9
num_leaves=10
num_cat=0
split_feature=23 23 23 23 23 23 23 23 23
split_gain=378.15 85.3896 80.8799 15.758 12.889 9.88859 8.90291 2.56149 2.45984
threshold=0.40351634793337454 0.61622455274521915 0.26668723010487361 0.49420111042566334 0.18365206662553987 0.33923504009870464 0.76428130783467019 0.12998149290561387 0.44250462677359664
decision_type=2 2 2 2 2 2 2 2 2
left_child=2 3 4 8 7 -4 -3 -1 -2
right_child=1 6 5 -5 -6 -7 -8 -9 -10
leaf_value=-0.002411929442553867 0.00049920135943383318 0.0028531381477009165 -0.00054670984896296334 0.0015702012180054937 -0.0012349117065271983 4.1172000268970757e-05 0.0042519721555359224 -0.0018289423002342672 0.00092276130877940105
leaf_weight=1128 2604 1375 5952 3643 5349 5510 680 2271 2896
leaf_count=1128 2604 1375 5952 3643 5349 5510 680 2271 2896
internal_value=0 0.00147409 -0.000816768 0.0010601 -0.00154089 -0.000264104 0.00331601 -0.00202241 0.000722225
internal_weight=0 11198 20210 9143 8748 11462 2055 3399 5500
internal_count=31408 11198 20210 9143 8748 11462 2055 3399 5500
is_linear=0
shrinkage=0.01


Tree=10
num_leaves=10
num_cat=0
split_feature=23 23 23 23 23 23 23 23 23
split_gain=370.626 91.3241 70.4633 17.219 10.737 10.641 9.24265 2.68187 2.39759
threshold=0.39031462060456523 0.59895126465144988 0.24818013571869221 0.48038247995064781 0.7338062924120915 0.31196792103639737 0.16539173349784095 0.53146206045650846 0.43806292412091308
decision_type=2 2 2 2 2 2 2 2 2
left_child=2 3 6 8 -3 -4 -1 -5 -2
right_child=1 4 5 7 -6 -7 -8 -9 -10
leaf_value=-0.0021157346582615813 0.00042084476675550568 0.0026085297865853802 -0.00074209530908787684 0.0012225639850109021 0.004008519075285758 -0.00012976887560842298 -0.0013725595822932136 0.001737932703863021 0.00083440896464648977
leaf_weight=2524 3349 1381 4817 2402 908 6908 4966 1742 2411
leaf_count=2524 3349 1381 4817 2402 908 6908 4966 1742 2411
internal_value=0 0.00136368 -0.000865332 0.000947622 0.00316388 -0.000381332 -0.001623 0.00143921 0.000593953
internal_weight=0 12193 19215 9904 2289 11725 7490 4144 5760
internal_count=31408 12193 19215 9904 2289 11725 7490 4144 5760
is_linear=0
shrinkage=0.01


Tree=11
num_leaves=10
num_cat=0
split_feature=23 23 23 23 23 23 23 23 23
split_gain=363.313 81.2356 79.2439 13.7744 12.7994 10.1435 8.5792 2.76504 2.39456
threshold=0.40869833436150538 0.26841455891425059 0.61622455274521915 0.50123380629241221 0.18858729179518827 0.34207279457125239 0.76428130783467019 0.12998149290561387 0.45508945095619996
decision_type=2 2 2 2 2 2 2 2 2
left_child=1 4 3 8 7 -3 -4 -1 -2
right_child=2 5 6 -5 -6 -7 -8 -9 -10
leaf_value=-0.0023666527799944929 0.00056899841846316118 -0.00051627784734667957 0.0027962000686472112 0.0015821276270126031 -0.0011835531533032357 7.2970248093817897e-05 0.0041693672781043193 -0.0017712502179761667 0.00098768402434264613
leaf_weight=1128 2950 6070 1375 3276 5225 5632 680 2528 2544
leaf_count=1128 2950 6070 1375 3276 5225 5632 680 2528 2544
internal_value=0 -0.000779974 0.00148307 0.0010689 -0.00150111 -0.000232681 0.00325058 -0.00195495 0.000762871
internal_weight=0 20583 10825 8770 8881 11702 2055 3656 5494
internal_count=31408 20583 10825 8770 8881 11702 2055 3656 5494
is_linear=0
shrinkage=0.01


Tree=12
num_leaves=10
num_cat=0
split_feature=23 23 23 23 23 23 23 23 3
split_gain=356.156 87.7525 67.7427 16.5313 10.3368 10.2435 8.88233 2.75224 2.20318
threshold=0.39031462060456523 0.59895126465144988 0.24818013571869221 0.47803824799506484 0.7338062924120915 0.31752004935225175 0.16539173349784095 0.53146206045650846 0.39907464528069103
decision_type=2 2 2 2 2 2 2 2 2
left_child=2 3 6 8 -3 -4 -1 -5 -2
right_child=1 4 5 7 -6 -7 -8 -9 -10
leaf_value=-0.0020742039042399539 0.00037922974456611213 0.0025565397583493109 -0.0006981923984359852 0.0011877678977358834 0.0039301883256973678 -0.00010446730589240913 -0.0013456588005853357 0.00170473214146926 0.00077445682070867937
leaf_weight=2524 2863 1381 5317 2519 908 6408 4966 1742 2780
leaf_count=2524 2863 1381 5317 2519 908 6408 4966 1742 2780
internal_value=0 0.0013368 -0.000848272 0.000928953 0.00310144 -0.000373707 -0.00159117 0.00139912 0.000573937
internal_weight=0 12193 19215 9904 2289 11725 7490 4261 5643
internal_count=31408 12193 19215 9904 2289 11725 7490 4261 5643
is_linear=0
shrinkage=0.01


Tree=13
num_leaves=10
num_cat=0
split_feature=23 23 23 23 23 23 23 23 23
split_gain=349.148 78.0902 76.1418 13.2292 13.0481 9.08008 8.26732 2.6801 2.46449
threshold=0.40869833436150538 0.27186921653300444 0.61622455274521915 0.50370141887723641 0.18858729179518827 0.34207279457125239 0.76428130783467019 0.12998149290561387 0.45508945095619996
decision_type=2 2 2 2 2 2 2 2 2
left_child=1 4 3 8 7 -3 -4 -1 -2
right_child=2 5 6 -5 -6 -7 -8 -9 -10
leaf_value=-0.0023222441940918461 0.0005575775081433029 -0.00049157771403751552 0.0027403948040442033 0.0015658952405437809 -0.0011454699488041026 7.1708929388336823e-05 0.004088371726519921 -0.0017360580091871605 0.00097716390027129032
leaf_weight=1128 2950 5818 1375 3156 5477 5632 680 2528 2664
leaf_count=1128 2950 5818 1375 3156 5477 5632 680 2528 2664
internal_value=0 -0.000764617 0.00145387 0.00104789 -0.00145429 -0.00021451 0.00318644 -0.00191692 0.000756683
internal_weight=0 20583 10825 8770 9133 11450 2055 3656 5614
internal_count=31408 20583 10825 8770 9133 11450 2055 3656 5614
is_linear=0
shrinkage=0.01


Tree=14
num_leaves=10
num_cat=0
split_feature=23 23 23 23 23 23 23 23 23
split_gain=342.263 85.2291 64.1713 14.5975 12.0124 9.56837 8.5407 2.66866 2.56887
threshold=0.38858729179518825 0.58648982109808778 0.24818013571869221 0.46767427513880327 0.72029611351017908 0.31196792103639737 0.16267735965453431 0.52788402220851338 0.8311536088834055
decision_type=2 2 2 2 2 2 2 2 2
left_child=2 3 6 -2 -3 -4 -1 -5 -6
right_child=1 4 5 7 8 -7 -8 -9 -10
leaf_value=-0.002052253091837597 0.00051204365354794591 0.0023689521086689468 -0.00071345666056865848 0.0011081980617499601 0.0034219186883746532 -0.00013063545980804159 -0.0013283729264518143 0.0016106682469584413 0.0044865048248155983
leaf_weight=2397 5164 1498 4817 3000 684 6784 5093 1632 339
leaf_count=2397 5164 1498 4817 3000 684 6784 5093 1632 339
internal_value=0 0.00129964 -0.00083849 0.000877644 0.00293939 -0.000372636 -0.00156003 0.00128523 0.0037747
internal_weight=0 12317 19091 9796 2521 11601 7490 4632 1023
internal_count=31408 12317 19091 9796 2521 11601 7490 4632 1023
is_linear=0
shrinkage=0.01


Tree=15
num_leaves=10
num_cat=0
split_feature=23 23 23 23 23 23 23 23 3
split_gain=335.548 76.1933 72.263 12.5687 12.2892 9.04752 7.94317 2.59423 2.21541
threshold=0.41042566317088225 0.27186921653300444 0.61622455274521915 0.18858729179518827 0.50370141887723641 0.34602097470697113 0.76428130783467019 0.12998149290561387 0.41116594694632957
decision_type=2 2 2 2 2 2 2 2 2
left_child=1 3 4 7 8 -3 -4 -1 -2
right_child=2 5 6 -5 -6 -7 -8 -9 -10
leaf_value=-0.0022784992345734269 0.00054712442232984109 -0.00046492456422038669 0.0026866746584935618 -0.0011225761349506981 0.0015346944047178229 9.5451215000925515e-05 0.0040079615418525307 -0.0017017800126908512 0.00094916245051185799
leaf_weight=1128 2697 6190 1375 5477 3156 5390 680 2528 2787
leaf_count=1128 2697 6190 1375 5477 3156 5390 680 2528 2787
internal_value=0 -0.000742722 0.00143843 -0.00142566 0.00103755 -0.000204093 0.00312389 -0.00187972 0.000751442
internal_weight=0 20713 10695 9133 8640 11580 2055 3656 5484
internal_count=31408 20713 10695 9133 8640 11580 2055 3656 5484
is_linear=0
shrinkage=0.01


Tree=16
num_leaves=10
num_cat=0
split_feature=23 23 23 23 23 23 23 23 23
split_gain=328.919 74.2993 70.4103 12.8041 11.2759 8.66732 8.63402 2.29737 2.19202
threshold=0.40351634793337454 0.60653917334978424 0.26668723010487361 0.48951264651449738 0.18365206662553987 0.33923504009870464 0.74774830351634813 0.12541640962368913 0.54170265268352891
decision_type=2 2 2 2 2 2 2 2 2
left_child=2 3 4 -2 7 -4 -3 -1 -5
right_child=1 6 5 8 -6 -7 -8 -9 -10
leaf_value=-0.00229043983861804 0.00065626742389156788 0.0025563286064543586 -0.00051067342511849369 0.0012228337333682951 -0.0011511879222277151 3.9710033895559066e-05 0.0038651687186445939 -0.0017199128025792549 0.001715202153400525
leaf_weight=1000 5259 1380 5952 2256 5349 5510 794 2399 1509
leaf_count=1000 5259 1380 5952 2256 5349 5510 794 2399 1509
internal_value=0 0.00137479 -0.000761749 0.000974985 -0.00143738 -0.000246094 0.00303435 -0.00188776 0.00142017
internal_weight=0 11198 20210 9024 8748 11462 2174 3399 3765
internal_count=31408 11198 20210 9024 8748 11462 2174 3399 3765
is_linear=0
shrinkage=0.01


Tree=17
num_leaves=10
num_cat=0
split_feature=23 23 23 23 23 23 23 23 23
split_gain=322.465 80.3047 60.531 13.8023 11.3629 9.03685 8.04636 2.50627 2.46543
threshold=0.38858729179518825 0.58648982109808778 0.24818013571869221 0.46767427513880327 0.72029611351017908 0.31196792103639737 0.16267735965453431 0.53146206045650846 0.8311536088834055
decision_type=2 2 2 2 2 2 2 2 2
left_child=2 3 6 -2 -3 -4 -1 -5 -6
right_child=1 4 5 7 8 -7 -8 -9 -10
leaf_value=-0.0019924195243211204 0.00049636644344503225 0.0022983645106627241 -0.00069265021798962619 0.0010864308277028091 0.0033199758307017081 -0.0001262479944152651 -0.0012898008621923351 0.0015826722221658721 0.0043629083679137329
leaf_weight=2397 5164 1498 4817 3122 684 6784 5093 1510 339
leaf_count=2397 5164 1498 4817 3122 684 6784 5093 1510 339
internal_value=0 0.00126149 -0.000813878 0.000851869 0.00285317 -0.000361431 -0.00151466 0.0012482 0.00366558
internal_weight=0 12317 19091 9796 2521 11601 7490 4632 1023
internal_count=31408 12317 19091 9796 2521 11601 7490 4632 1023
is_linear=0
shrinkage=0.01


Tree=18
num_leaves=10
num_cat=0
split_feature=23 23 23 23 23 23 23 23 3
split_gain=316.128 71.7755 68.0888 11.8725 11.5605 8.54671 7.52138 2.46189 2.15995
threshold=0.41042566317088225 0.27186921653300444 0.61622455274521915 0.18858729179518827 0.50370141887723641 0.34700801974090079 0.77933374460209759 0.12998149290561387 0.41116594694632957
decision_type=2 2 2 2 2 2 2 2 2
left_child=1 3 4 7 8 -3 -4 -1 -2
right_child=2 5 6 -5 -6 -7 -8 -9 -10
leaf_value=-0.0022135330187090748 0.00052781600459288831 -0.00044631876500211712 0.0026592442976739921 -0.0010891820720643987 0.0014892340521888833 9.9247446801221286e-05 0.0040134950858860055 -0.0016517162591195369 0.00092478914193375953
leaf_weight=1128 2697 6312 1489 5477 3156 5268 566 2528 2787
leaf_count=1128 2697 6312 1489 5477 3156 5268 566 2528 2787
internal_value=0 -0.000720909 0.00139618 -0.00138376 0.00100705 -0.000198129 0.00303224 -0.00182506 0.00072956
internal_weight=0 20713 10695 9133 8640 11580 2055 3656 5484
internal_count=31408 20713 10695 9133 8640 11580 2055 3656 5484
is_linear=0
shrinkage=0.01


Tree=19
num_leaves=10
num_cat=0
split_feature=23 23 23 23 23 23 23 23 23
split_gain=309.876 77.194 58.2068 13.287 10.9543 8.70067 7.73103 2.41137 2.3742
threshold=0.38858729179518825 0.58648982109808778 0.24818013571869221 0.46767427513880327 0.72029611351017908 0.30863664404688473 0.16267735965453431 0.53146206045650846 0.8311536088834055
decision_type=2 2 2 2 2 2 2 2 2
left_child=2 3 6 -2 -3 -4 -1 -5 -6
right_child=1 4 5 7 8 -7 -8 -9 -10
leaf_value=-0.0019533342952013613 0.00048620925897004309 0.0022524281280321655 -0.00069415176880131769 0.0010651973736890657 0.00325568936699838 -0.00013356760241429034 -0.0012646204294008163 0.0015519530683361141 0.0042791444379671481
leaf_weight=2397 5164 1498 4565 3122 684 7036 5093 1510 339
leaf_count=2397 5164 1498 4565 3122 684 7036 5093 1510 339
internal_value=0 0.00123662 -0.000797833 0.000835012 0.00279717 -0.000354158 -0.00148503 0.00122388 0.00359484
internal_weight=0 12317 19091 9796 2521 11601 7490 4632 1023
internal_count=31408 12317 19091 9796 2521 11601 7490 4632 1023
is_linear=0
shrinkage=0.01


Tree=20
num_leaves=10
num_cat=0
split_feature=23 23 23 23 23 23 23 23 23
split_gain=303.812 68.9701 65.4461 11.4382 11.0982 8.23753 7.22853 2.38555 2.08479
threshold=0.41042566317088225 0.27186921653300444 0.61622455274521915 0.18858729179518827 0.49420111042566334 0.34700801974090079 0.77933374460209759 0.12541640962368913 0.54885872917951894
decision_type=2 2 2 2 2 2 2 2 2
left_child=1 3 4 7 -2 -3 -4 -1 -6
right_child=2 5 6 -5 8 -7 -8 -9 -10
leaf_value=-0.0022059425935149193 0.00068119541182049817 -0.00043792480797355288 0.0026070483001868466 -0.0010673553515424758 0.0012186284771577524 9.7682378314528959e-05 0.0039346732604630006 -0.0016329045027651521 0.0017108205753182152
leaf_weight=1000 4997 6312 1489 5477 2249 5268 566 2656 1394
leaf_count=1000 4997 6312 1489 5477 2249 5268 566 2656 1394
internal_value=0 -0.000706727 0.00136872 -0.00135649 0.000987212 -0.000194265 0.00297271 -0.00178964 0.00140697
internal_weight=0 20713 10695 9133 8640 11580 2055 3656 3643
internal_count=31408 20713 10695 9133 8640 11580 2055 3656 3643
is_linear=0
shrinkage=0.01


Tree=21
num_leaves=10
num_cat=0
split_feature=23 23 23 23 23 23 23 23 23
split_gain=297.797 71.8442 58.5319 13.1203 9.20093 8.78897 7.44186 2.28639 2.17749
threshold=0.39352251696483664 0.59895126465144988 0.24818013571869221 0.48038247995064781 0.31900061690314629 0.72029611351017908 0.15663170882171504 0.8311536088834055 0.53466995681677998
decision_type=2 2 2 2 2 2 2 2 2
left_child=2 3 6 -2 -4 -3 -1 -7 -5
right_child=1 5 4 8 -6 7 -8 -9 -10
leaf_value=-0.0019543683482595138 0.00054574848197767205 0.0022791339175137109 -0.00063276833997516523 0.0011064307036720115 -7.612196330141376e-05 0.0031926559088261502 -0.0012566216101748085 0.0041970062572344218 0.0015758923259260177
leaf_weight=2140 5507 1266 5441 2518 6537 684 5350 339 1626
leaf_count=2140 5507 1266 5441 2518 6537 684 5350 339 1626
internal_value=0 0.00124336 -0.000762573 0.000865592 -0.000328978 0.00283615 -0.00145598 0.00352548 0.00129064
internal_weight=0 11940 19468 9651 11978 2289 7490 1023 4144
internal_count=31408 11940 19468 9651 11978 2289 7490 1023 4144
is_linear=0
shrinkage=0.01


Tree=22
num_leaves=10
num_cat=0
split_feature=23 23 23 23 23 23 23 23 3
split_gain=291.974 66.2926 62.8776 11.0283 10.6615 7.93533 6.95517 2.53473 2.1013
threshold=0.41042566317088225 0.27186921653300444 0.61622455274521915 0.19253547193090689 0.50370141887723641 0.34207279457125239 0.76428130783467019 0.12998149290561387 0.41116594694632957
decision_type=2 2 2 2 2 2 2 2 2
left_child=1 3 4 7 8 -3 -4 -1 -2
right_child=2 5 6 -5 -6 -7 -8 -9 -10
leaf_value=-0.0021309115532917758 0.0005023694969663509 -0.00045091641869113807 0.0025048673450946807 -0.0010287846450540649 0.0014308950391772742 7.2639891558457602e-05 0.0037412528730928897 -0.0015691057257247365 0.00089391653466488368
leaf_weight=1128 2697 5818 1375 5217 3156 5762 680 2788 2787
leaf_count=1128 2697 5818 1375 5217 3156 5762 680 2788 2787
internal_value=0 -0.00069282 0.00134178 -0.00132985 0.00096784 -0.000190404 0.00291399 -0.00173093 0.000701356
internal_weight=0 20713 10695 9133 8640 11580 2055 3916 5484
internal_count=31408 20713 10695 9133 8640 11580 2055 3916 5484
is_linear=0
shrinkage=0.01


Tree=23
num_leaves=10
num_cat=0
split_feature=23 23 23 23 23 23 23 2 23
split_gain=286.247 72.0367 52.9886 12.6807 10.1744 7.83298 7.16184 2.27669 2.21441
threshold=0.38685996298581138 0.58648982109808778 0.24818013571869221 0.46767427513880327 0.72029611351017908 0.30863664404688473 0.16539173349784095 0.35934608266502166 0.52788402220851338
decision_type=2 2 2 2 2 2 2 2 2
left_child=2 3 6 -2 -3 -4 -1 -7 -5
right_child=1 4 5 8 -6 7 -8 -9 -10
leaf_value=-0.0018611997254074752 0.00046052834947235208 0.0021632114227348874 -0.00066764894720489651 0.0010158967057149859 0.0034569540150820449 -0.00028845353582470257 -0.0012070078678834964 7.9209785589868311e-05 0.0014736085000457057
leaf_weight=2524 5288 1498 4565 3000 1023 4006 4966 2906 1632
leaf_count=2524 5288 1498 4565 3000 1023 4006 4966 2906 1632
internal_value=0 0.00117875 -0.000773177 0.000795151 0.0026882 -0.000346186 -0.00142746 -0.000133877 0.00117716
internal_weight=0 12441 18967 9920 2521 11477 7490 6912 4632
internal_count=31408 12441 18967 9920 2521 11477 7490 6912 4632
is_linear=0
shrinkage=0.01


Tree=24
num_leaves=10
num_cat=0
split_feature=23 23 23 23 23 23 23 23 2
split_gain=280.607 63.7058 60.4355 10.2354 10.0303 8.19171 6.73622 2.24972 1.96752
threshold=0.41042566317088225 0.26841455891425059 0.61622455274521915 0.49420111042566334 0.18858729179518827 0.34207279457125239 0.77933374460209759 0.11511412708204817 0.31752004935225175
decision_type=2 2 2 2 2 2 2 2 2
left_child=1 4 3 -2 7 8 -4 -1 -3
right_child=2 5 6 -5 -6 -7 -8 -9 -10
leaf_value=-0.0022085588324339466 0.00065491666741259054 -0.00063512495127175249 0.0025037846845856766 0.0013519028420750521 -0.0010382112787832461 7.1337162895415891e-05 0.0037854025731448994 -0.0015948532475543419 -0.00027504790035694763
leaf_weight=752 4997 3035 1489 3643 5225 5762 566 2904 3035
leaf_count=752 4997 3035 1489 3643 5225 5762 566 2904 3035
internal_value=0 -0.0006792 0.00131541 0.000948796 -0.00131933 -0.000198726 0.00285678 -0.00172109 -0.000455086
internal_weight=0 20713 10695 8640 8881 11832 2055 3656 6070
internal_count=31408 20713 10695 8640 8881 11832 2055 3656 6070
is_linear=0
shrinkage=0.01


Tree=25
num_leaves=10
num_cat=0
split_feature=23 23 23 23 23 23 23 2 23
split_gain=275.093 69.2511 50.9545 12.1945 9.80645 8.43812 6.26512 2.21244 2.17484
threshold=0.38685996298581138 0.58648982109808778 0.24262800740283783 0.46767427513880327 0.72029611351017908 0.30863664404688473 0.15342381246144363 0.35934608266502166 0.8311536088834055
decision_type=2 2 2 2 2 2 2 2 2
left_child=2 3 6 -2 -3 -4 -1 -7 -6
right_child=1 4 5 -5 8 7 -8 -9 -10
leaf_value=-0.0018999614477364863 0.00045130076773447784 0.0021201247597070973 -0.00067199189811599546 0.0011540617352923167 0.003065656196565656 -0.00028349560363977801 -0.0012409687807888835 7.8942769304234171e-05 0.0040452000700970311
leaf_weight=2013 5288 1498 4950 4632 684 4006 5092 2906 339
leaf_count=2013 5288 1498 4950 4632 684 4006 5092 2906 339
internal_value=0 0.00115556 -0.000757962 0.000779445 0.00263553 -0.000356823 -0.00142768 -0.000131116 0.00339026
internal_weight=0 12441 18967 9920 2521 11862 7105 6912 1023
internal_count=31408 12441 18967 9920 2521 11862 7105 6912 1023
is_linear=0
shrinkage=0.01


Tree=26
num_leaves=10
num_cat=0
split_feature=23 23 23 23 23 23 23 23 2
split_gain=269.682 61.2363 58.088 11.4628 9.87963 6.47355 6.43351 2.47774 2.09425
threshold=0.41042566317088225 0.27927205428747692 0.61622455274521915 0.19487970388648987 0.50370141887723641 0.77933374460209759 0.35663170882171513 0.12998149290561387 0.30407156076496
decision_type=2 2 2 2 2 2 2 2 2
left_child=1 3 4 7 -2 -4 -3 -1 -5
right_child=2 6 5 8 -6 -7 -8 -9 -10
leaf_value=-0.0020519508981535618 0.00067360066374860209 -0.00035347192564641635 0.0024546435577425881 -0.0011060964793790345 0.0013758800936727379 0.0037110250472179992 0.00013950958904337591 -0.0015000723132568734 -0.00070717976625280551
leaf_weight=1128 5484 6689 1489 3481 3156 566 4381 2918 2116
leaf_count=1128 5484 6689 1489 3481 3156 566 4381 2918 2116
internal_value=0 -0.000665848 0.00128955 -0.00124842 0.000930128 0.00280068 -0.000158372 -0.00165393 -0.000955282
internal_weight=0 20713 10695 9643 8640 2055 11070 4046 5597
internal_count=31408 20713 10695 9643 8640 2055 11070 4046 5597
is_linear=0
shrinkage=0.01


Tree=27
num_leaves=10
num_cat=0
split_feature=23 23 23 23 23 23 23 23 2
split_gain=264.327 66.5916 49.016 11.1372 10.2405 8.99645 5.41935 2.42439 2.16105
threshold=0.38685996298581138 0.58044417026526851 0.23781616286243065 0.46767427513880327 0.70438001233806302 0.30863664404688473 0.15070943861813699 0.8311536088834055 0.35934608266502166
decision_type=2 2 2 2 2 2 2 2 2
left_child=2 3 6 -2 -3 -4 -1 -6 -7
right_child=1 4 5 -5 7 8 -8 -9 -10
leaf_value=-0.0018839104695051844 0.00044181522155529009 0.0020008479139208791 -0.00067490932335760936 0.0011180009772897433 0.0029581992204924276 -0.00027874910081250782 -0.0012517724174619849 0.0039676377414602096 7.9455559880744066e-05
leaf_weight=1884 5288 1500 5330 4516 798 4006 4841 339 2906
leaf_count=1884 5288 1500 5330 4516 798 4006 4841 339 2906
internal_value=0 0.00113272 -0.000742983 0.000753286 0.0025434 -0.000366201 -0.00142887 0.00325917 -0.00012815
internal_weight=0 12441 18967 9804 2637 12242 6725 1137 6912
internal_count=31408 12441 18967 9804 2637 12242 6725 1137 6912
is_linear=0
shrinkage=0.01


Tree=28
num_leaves=10
num_cat=0
split_feature=23 23 23 23 23 23 23 23 3
split_gain=259.184 58.8786 55.8585 10.2783 9.8813 7.09731 5.64949 2.38698 2.27291
threshold=0.41042566317088225 0.27186921653300444 0.62584824182603349 0.511104256631709 0.19487970388648987 0.34700801974090079 0.80166563849475647 0.12998149290561387 0.41116594694632957
decision_type=2 2 2 2 2 2 2 2 2
left_child=1 4 3 8 7 -3 -4 -1 -2
right_child=2 5 6 -5 -6 -7 -8 -9 -10
leaf_value=-0.0020125923089762319 0.00047722362349079576 -0.00040543779935646083 0.0025023411232389377 0.0014086012750686634 -0.00095976148729792429 9.1720553342757204e-05 0.0037789819350021077 -0.0014709160920561913 0.00087214458872181017
leaf_weight=1128 2813 6312 1487 2919 5087 5268 452 2918 3024
leaf_count=1128 2813 6312 1487 2919 5087 5268 452 2918 3024
internal_value=0 -0.000652758 0.0012642 0.000924109 -0.00125311 -0.000179269 0.00279994 -0.00162193 0.000681822
internal_weight=0 20713 10695 8756 9133 11580 1939 4046 5837
internal_count=31408 20713 10695 8756 9133 11580 1939 4046 5837
is_linear=0
shrinkage=0.01


Tree=29
num_leaves=10
num_cat=0
split_feature=23 23 23 23 23 23 23 23 3
split_gain=254.065 60.2797 52.7934 10.8263 9.97036 6.74849 5.0018 2.74708 2.20149
threshold=0.41573103022825431 0.27927205428747692 0.63374460209747085 0.20302282541640967 0.51640962368908094 0.35663170882171513 0.80166563849475647 0.13318938926588528 0.41116594694632957
decision_type=2 2 2 2 2 2 2 2 2
left_child=1 3 4 7 8 -3 -4 -1 -2
right_child=2 5 6 -5 -6 -7 -8 -9 -10
leaf_value=-0.0019646871714784314 0.00050434563597104808 -0.0003431775485204211 0.0025282797729460731 -0.00089461647616602294 0.0014426133352431602 0.00014973518398365404 0.0037411919935087185 -0.0014146788349387524 0.00089815093834364347
leaf_weight=1252 2667 6689 1372 5085 2800 4750 452 3306 3035
leaf_count=1252 2667 6689 1372 5085 2800 4750 452 3306 3035
internal_value=0 -0.000629452 0.00128512 -0.00121185 0.000953928 -0.000138497 0.00282885 -0.00156576 0.000713956
internal_weight=0 21082 10326 9643 8502 11439 1824 4558 5702
internal_count=31408 21082 10326 9643 8502 11439 1824 4558 5702
is_linear=0
shrinkage=0.01


Tree=30
num_leaves=10
num_cat=0
split_feature=23 23 23 23 23 23 23 23 2
split_gain=249.055 65.446 43.617 11.2084 10.4409 7.55152 5.10885 2.2756 2.00467
threshold=0.38093769278223333 0.57513880320789657 0.23781616286243065 0.45940777297964236 0.70438001233806302 0.30407156076496 0.15070943861813699 0.8311536088834055 0.35934608266502166
decision_type=2 2 2 2 2 2 2 2 2
left_child=2 3 6 -2 -3 -4 -1 -6 -7
right_child=1 4 5 -5 7 8 -8 -9 -10
leaf_value=-0.0018293172111952256 0.00037609444766794622 0.0019154573965460154 -0.00067466240524062038 0.0010401062793315313 0.0028747857449795667 -0.0003036452340655849 -0.001215555438830713 0.0038527596313341528 4.5891876893603647e-05
leaf_weight=1884 5305 1615 4950 4881 798 4025 4841 339 2770
leaf_count=1884 5305 1615 4950 4881 798 4025 4841 339 2770
internal_value=0 0.00106396 -0.000745293 0.00069428 0.00243228 -0.000377576 -0.0013875 0.00316637 -0.000161155
internal_weight=0 12938 18470 10186 2752 11745 6725 1137 6795
internal_count=31408 12938 18470 10186 2752 11745 6725 1137 6795
is_linear=0
shrinkage=0.01


Tree=31
num_leaves=10
num_cat=0
split_feature=23 23 23 23 23 23 23 23 3
split_gain=244.187 57.927 50.7607 10.4315 9.60907 6.48623 4.80366 2.26506 2.14799
threshold=0.41573103022825431 0.27927205428747692 0.63374460209747085 0.19487970388648987 0.51640962368908094 0.35663170882171513 0.80166563849475647 0.11511412708204817 0.41116594694632957
decision_type=2 2 2 2 2 2 2 2 2
left_child=1 3 4 7 8 -3 -4 -1 -2
right_child=2 5 6 -5 -6 -7 -8 -9 -10
leaf_value=-0.0020700491065199071 0.00049250375969093238 -0.0003364789353692118 0.0024790527538529465 -0.00090836906219301768 0.0014148849616326127 0.00014676082848042392 0.0036676975982510942 -0.0014617997551202302 0.00088149442750603104
leaf_weight=752 2667 6689 1372 5597 2800 4750 452 3294 3035
leaf_count=752 2667 6689 1372 5597 2800 4750 452 3294 3035
internal_value=0 -0.000617094 0.00125989 -0.00118801 0.000935135 -0.000135816 0.00277361 -0.00157485 0.000699552
internal_weight=0 21082 10326 9643 8502 11439 1824 4046 5702
internal_count=31408 21082 10326 9643 8502 11439 1824 4046 5702
is_linear=0
shrinkage=0.01


Tree=32
num_leaves=10
num_cat=0
split_feature=23 23 23 23 23 23 23 23 2
split_gain=239.372 54.8161 50.7414 9.79436 7.58251 6.98739 6.4898 2.0043 1.90454
threshold=0.40203578038248006 0.60653917334978424 0.25582973473164727 0.48247995064774846 0.33109191856878484 0.17612584824182606 0.7338062924120915 0.54170265268352891 0.29975323874151771
decision_type=2 2 2 2 2 2 2 2 2
left_child=2 3 5 -2 8 -1 -3 -5 -4
right_child=1 6 4 7 -6 -7 -8 -9 -10
leaf_value=-0.0016525908686982217 0.00052608242822355089 0.0021272806814425929 -0.00069459217845408274 0.0010167715758429409 -1.9282795815000124e-07 -0.0010430080494748543 0.0032351427367736593 0.0014739406638518916 -0.00033554799535905506
leaf_weight=3023 5010 1266 2743 2631 6141 4975 908 1509 3202
leaf_count=3023 5010 1266 2743 2631 6141 4975 908 1509 3202
internal_value=0 0.00116263 -0.000655528 0.000823495 -0.000246639 -0.00127341 0.00258999 0.00118341 -0.00050121
internal_weight=0 11324 20084 9150 12086 7998 2174 4140 5945
internal_count=31408 11324 20084 9150 12086 7998 2174 4140 5945
is_linear=0
shrinkage=0.01


Tree=33
num_leaves=10
num_cat=0
split_feature=23 23 23 23 23 23 23 23 2
split_gain=234.677 62.303 40.6041 10.8716 9.8724 7.88783 4.14354 2.16909 1.88156
threshold=0.37933374460209757 0.57513880320789657 0.22979642196175207 0.45940777297964236 0.70438001233806302 0.30407156076496 0.14454040715607661 0.8311536088834055 0.35934608266502166
decision_type=2 2 2 2 2 2 2 2 2
left_child=2 3 6 -2 -3 -4 -1 -6 -7
right_child=1 4 5 -5 7 8 -8 -9 -10
leaf_value=-0.0018196090395935338 0.00035970203854267523 0.0018586925998929854 -0.00067446017766449801 0.0010101031220850448 0.0027903919258063896 -0.00030018541264322012 -0.001232470931086244 0.0037452036458834083 4.1972436752801918e-05
leaf_weight=1628 5428 1615 5454 4881 798 3973 4593 339 2699
leaf_count=1628 5428 1615 5454 4881 798 3973 4593 339 2699
internal_value=0 0.00102449 -0.000729325 0.000667647 0.00236124 -0.000392368 -0.00138612 0.00307507 -0.000161774
internal_weight=0 13061 18347 10309 2752 12126 6221 1137 6672
internal_count=31408 13061 18347 10309 2752 12126 6221 1137 6672
is_linear=0
shrinkage=0.01


Tree=34
num_leaves=10
num_cat=0
split_feature=23 23 23 23 23 23 23 23 3
split_gain=230.118 56.1921 46.6674 10.1641 8.51924 6.34473 4.5555 2.52205 1.96555
threshold=0.41980259099321415 0.28112276372609513 0.63374460209747085 0.20302282541640967 0.51640962368908094 0.35922270203578044 0.80166563849475647 0.13318938926588528 0.41116594694632957
decision_type=2 2 2 2 2 2 2 2 2
left_child=1 3 4 7 8 -3 -4 -1 -2
right_child=2 5 6 -5 -6 -7 -8 -9 -10
leaf_value=-0.0018737537775652857 0.00049023447744426098 -0.00031211142866884175 0.0024060686376847261 -0.00084500414865269118 0.0013738029350717884 0.00016406179840440209 0.0035636041966159789 -0.0013467542355749429 0.00087106207211889032
leaf_weight=1252 2518 6810 1372 5213 2800 4750 452 3306 2935
leaf_count=1252 2518 6810 1372 5213 2800 4750 452 3306 2935
internal_value=0 -0.000588322 0.00124536 -0.00114659 0.000925436 -0.000116452 0.00269291 -0.00149151 0.00069521
internal_weight=0 21331 10077 9771 8253 11560 1824 4558 5453
internal_count=31408 21331 10077 9771 8253 11560 1824 4558 5453
is_linear=0
shrinkage=0.01


Tree=35
num_leaves=10
num_cat=0
split_feature=23 23 23 23 23 23 23 23 3
split_gain=225.548 53.5167 46.9164 9.68692 8.22417 5.99974 4.95337 2.47186 1.99218
threshold=0.41573103022825431 0.27927205428747692 0.62584824182603349 0.20302282541640967 0.51394201110425675 0.35663170882171513 0.77933374460209759 0.13318938926588528 0.45336212214682309
decision_type=2 2 2 2 2 2 2 2 2
left_child=1 3 4 7 8 -3 -4 -1 -2
right_child=2 5 6 -5 -6 -7 -8 -9 -10
leaf_value=-0.0018550162357739367 0.00050969729732709647 -0.00032347171631135206 0.0022882109780057191 -0.00084175329831630665 0.0013288444836758913 0.00014129261861355762 0.0033999324929587832 -0.0013332866847710048 0.00089470918516272374
leaf_weight=1252 3333 6689 1373 5085 2802 4750 566 3306 2252
leaf_count=1252 3333 6689 1373 5085 2802 4750 566 3306 2252
internal_value=0 -0.000593075 0.00121085 -0.00114183 0.000886745 -0.00013048 0.00261273 -0.0014766 0.000664943
internal_weight=0 21082 10326 9643 8387 11439 1939 4558 5585
internal_count=31408 21082 10326 9643 8387 11439 1939 4558 5585
is_linear=0
shrinkage=0.01


Tree=36
num_leaves=10
num_cat=0
split_feature=23 23 23 23 23 23 23 23 2
split_gain=221.116 55.8729 41.2146 9.4369 8.68237 7.5696 4.57217 2.04621 1.99916
threshold=0.38685996298581138 0.58044417026526851 0.23781616286243065 0.46767427513880327 0.70438001233806302 0.30863664404688473 0.15342381246144363 0.8311536088834055 0.38229487970388659
decision_type=2 2 2 2 2 2 2 2 2
left_child=2 3 6 -2 -3 -4 -1 -6 -7
right_child=1 4 5 -5 7 8 -8 -9 -10
leaf_value=-0.0017074102633741442 0.00040173729761846529 0.0018286029562602441 -0.00061721825627367513 0.0010241716369050427 0.0027107437162246918 -0.00023465467955668674 -0.0011380558755685194 0.003638116152940598 0.00012743137041877211
leaf_weight=2013 5288 1500 5330 4516 798 4641 4712 339 2271
leaf_count=2013 5288 1500 5330 4516 798 4641 4712 339 2271
internal_value=0 0.00103601 -0.000679546 0.000688448 0.00232818 -0.000334047 -0.00130848 0.00298724 -0.000115688
internal_weight=0 12441 18967 9804 2637 12242 6725 1137 6912
internal_count=31408 12441 18967 9804 2637 12242 6725 1137 6912
is_linear=0
shrinkage=0.01


Tree=37
num_leaves=10
num_cat=0
split_feature=23 23 23 23 23 23 23 23 2
split_gain=216.807 52.9318 43.9852 9.59079 8.04081 5.97805 4.29838 2.38437 1.89572
threshold=0.41980259099321415 0.28112276372609513 0.63374460209747085 0.20302282541640967 0.51640962368908094 0.35922270203578044 0.80166563849475647 0.12998149290561387 0.31752004935225175
decision_type=2 2 2 2 2 2 2 2 2
left_child=1 3 4 7 -2 8 -4 -1 -3
right_child=2 5 6 -5 -6 -7 -8 -9 -10
leaf_value=-0.001846769552889234 0.00067454140492036565 -0.00048094237440746981 0.0023355118289546438 -0.00081992657060553755 0.0013338050104085206 0.00015921116107588636 0.0034599059711383508 -0.00131677349395344 -0.00014655967883335172
leaf_weight=1128 5453 3186 1372 5213 2800 4750 452 3430 3624
leaf_count=1128 5453 3186 1372 5213 2800 4750 452 3430 3624
internal_value=0 -0.000571053 0.00120881 -0.00111288 0.00089821 -0.000113076 0.00261414 -0.00144794 -0.000302998
internal_weight=0 21331 10077 9771 8253 11560 1824 4558 6810
internal_count=31408 21331 10077 9771 8253 11560 1824 4558 6810
is_linear=0
shrinkage=0.01


Tree=38
num_leaves=10
num_cat=0
split_feature=23 23 23 23 23 23 23 2 3
split_gain=212.503 50.9119 42.6754 9.31043 6.88282 6.46753 5.42372 1.85787 1.84292
threshold=0.39524984577421352 0.59895126465144988 0.24818013571869221 0.48247995064774846 0.32492288710672435 0.72029611351017908 0.17612584824182606 0.29975323874151771 0.4578038247995066
decision_type=2 2 2 2 2 2 2 2 2
left_child=2 3 6 8 7 -3 -1 -4 -2
right_child=1 5 4 -5 -6 -7 -8 -9 -10
leaf_value=-0.001559117283417005 0.00034339795880923801 0.0019205581977680961 -0.00070026532784017899 0.0011029463535951493 -3.7178899352552881e-05 0.0029897055946079281 -0.0010106352748218378 -0.00034632726662450612 0.00073457284328702415
leaf_weight=3023 3720 1266 2821 4025 6155 1023 4467 3127 1781
leaf_count=3023 3720 1266 2821 4025 6155 1023 4467 3127 1781
internal_value=0 0.00105924 -0.000638747 0.000737463 -0.000271606 0.00239838 -0.00123201 -0.000514192 0.000470044
internal_weight=0 11815 19593 9526 12103 2289 7490 5948 5501
internal_count=31408 11815 19593 9526 12103 2289 7490 5948 5501
is_linear=0
shrinkage=0.01


Tree=39
num_leaves=10
num_cat=0
split_feature=23 23 23 23 23 23 23 23 3
split_gain=208.375 50.8798 42.2743 9.22778 7.74506 5.75042 4.16573 2.31809 1.86053
threshold=0.41980259099321415 0.28112276372609513 0.63374460209747085 0.20302282541640967 0.51640962368908094 0.35922270203578044 0.80166563849475647 0.12541640962368913 0.41116594694632957
decision_type=2 2 2 2 2 2 2 2 2
left_child=1 3 4 7 8 -3 -4 -1 -2
right_child=2 5 6 -5 -6 -7 -8 -9 -10
leaf_value=-0.0018450958350300789 0.00046162995855954524 -0.00029709661370154602 0.0022885015181675771 -0.00080370277370791262 0.001308079660465176 0.00015622691938250156 0.0033954098698707807 -0.0013001548549570793 0.00083214405624059491
leaf_weight=1000 2518 6810 1372 5213 2800 4750 452 3558 2935
leaf_count=1000 2518 6810 1372 5213 2800 4750 452 3558 2935
internal_value=0 -0.000559838 0.00118506 -0.00109106 0.000880571 -0.000110826 0.0025628 -0.00141971 0.000661054
internal_weight=0 21331 10077 9771 8253 11560 1824 4558 5453
internal_count=31408 21331 10077 9771 8253 11560 1824 4558 5453
is_linear=0
shrinkage=0.01


Tree=40
num_leaves=10
num_cat=0
split_feature=23 23 23 23 23 23 23 23 2
split_gain=204.273 54.4383 35.51 9.89173 8.63337 6.88307 3.63533 2.17523 1.76808
threshold=0.37933374460209757 0.56650215916101188 0.22979642196175207 0.69136335595311549 0.45508945095619996 0.30407156076496 0.14454040715607661 0.8311536088834055 0.35934608266502166
decision_type=2 2 2 2 2 2 2 2 2
left_child=2 4 6 -3 -2 -4 -1 -5 -7
right_child=1 3 5 7 -6 8 -8 -9 -10
leaf_value=-0.0017006933128035626 0.00032019697499382035 0.0016526777459124711 -0.00062884432832390695 0.002565247982675118 0.00090588125172354455 -0.0002840956596047468 -0.0011507393602113915 0.0035032847840174111 4.7583332211142054e-05
leaf_weight=1628 5186 1733 5454 913 4890 3973 4593 339 2699
leaf_count=1628 5186 1733 5454 913 4890 3973 4593 339 2699
internal_value=0 0.000955829 -0.000680442 0.00214197 0.000604436 -0.000365331 -0.00129466 0.00281924 -0.000149923
internal_weight=0 13061 18347 2985 10076 12126 6221 1252 6672
internal_count=31408 13061 18347 2985 10076 12126 6221 1252 6672
is_linear=0
shrinkage=0.01


Tree=41
num_leaves=10
num_cat=0
split_feature=23 23 23 23 23 23 23 23 2
split_gain=200.264 48.9005 40.6414 8.88292 7.46204 5.5241 4.00246 2.17421 1.84087
threshold=0.41980259099321415 0.28112276372609513 0.63374460209747085 0.20117211597779158 0.51640962368908094 0.35922270203578044 0.80166563849475647 0.11511412708204817 0.30407156076496
decision_type=2 2 2 2 2 2 2 2 2
left_child=1 3 4 7 -2 -3 -4 -1 -5
right_child=2 5 6 8 -6 -7 -8 -9 -10
leaf_value=-0.001890748053630616 0.00064774964912326911 -0.00029121162022945318 0.0022437686451409369 -0.00094333448275042643 0.0012828435200632419 0.00015310187893090093 0.0033287679338085967 -0.0013006041453511813 -0.0005626507007325778
leaf_weight=752 5453 6810 1372 3263 2800 4750 452 3676 2080
leaf_count=752 5453 6810 1372 3263 2800 4750 452 3676 2080
internal_value=0 -0.000548835 0.00116177 -0.00106962 0.000863218 -0.000108643 0.00251264 -0.00140083 -0.000795136
internal_weight=0 21331 10077 9771 8253 11560 1824 4428 5343
internal_count=31408 21331 10077 9771 8253 11560 1824 4428 5343
is_linear=0
shrinkage=0.01


Tree=42
num_leaves=10
num_cat=0
split_feature=23 23 23 23 23 23 23 23 2
split_gain=196.29 51.83 34.6422 8.97113 8.33748 6.82448 3.51035 1.86672 1.78765
threshold=0.38093769278223333 0.57513880320789657 0.22979642196175207 0.45940777297964236 0.70438001233806302 0.30407156076496 0.15070943861813699 0.85694016039481813 0.35934608266502166
decision_type=2 2 2 2 2 2 2 2 2
left_child=2 3 6 -2 -3 -4 -1 -6 -7
right_child=1 4 5 -5 7 8 -8 -9 -10
leaf_value=-0.001629762880686047 0.00033090517630993035 0.0017004058440633972 -0.00061647681174518238 0.00092496249813717234 0.0026164190013178356 -0.00027609942349479536 -0.001112787296452446 0.0036317474573059421 5.3976348378374176e-05
leaf_weight=1884 5305 1615 5454 4881 911 4025 4337 226 2770
leaf_count=1884 5305 1615 5454 4881 911 4025 4337 226 2770
internal_value=0 0.000944557 -0.00066165 0.00061557 0.00216224 -0.000353013 -0.00126935 0.00281823 -0.000141543
internal_weight=0 12938 18470 10186 2752 12249 6221 1137 6795
internal_count=31408 12938 18470 10186 2752 12249 6221 1137 6795
is_linear=0
shrinkage=0.01


Tree=43
num_leaves=10
num_cat=0
split_feature=23 23 23 23 23 23 23 2 23
split_gain=192.479 46.9985 39.0747 8.33455 7.19232 5.48509 3.85254 1.91836 1.91164
threshold=0.41980259099321415 0.27927205428747692 0.63374460209747085 0.19487970388648987 0.51640962368908094 0.35663170882171513 0.80166563849475647 0.30407156076496 0.11511412708204817
decision_type=2 2 2 2 2 2 2 2 2
left_child=1 3 4 8 -2 -3 -4 -5 -1
right_child=2 5 6 7 -6 -7 -8 -9 -10
leaf_value=-0.0018555429334098355 0.00063468505736604005 -0.0002989812051367055 0.0021997535328649571 -0.00094921741238199317 0.0012581954256930788 0.00013888327984081512 0.0032642394884497719 -0.00056742027968781751 -0.001296757653595356
leaf_weight=752 5453 6689 1372 3481 2800 4999 452 2116 3294
leaf_count=752 5453 6689 1372 3481 2800 4999 452 2116 3294
internal_value=0 -0.000538061 0.00113897 -0.00105484 0.000846224 -0.000111705 0.00246354 -0.000804875 -0.00140061
internal_weight=0 21331 10077 9643 8253 11688 1824 5597 4046
internal_count=31408 21331 10077 9643 8253 11688 1824 5597 4046
is_linear=0
shrinkage=0.01


Tree=44
num_leaves=10
num_cat=0
split_feature=23 23 23 23 23 23 23 2 2
split_gain=188.676 42.4647 41.3326 6.90492 6.8415 5.59253 5.2362 1.94786 1.73036
threshold=0.40869833436150538 0.25582973473164727 0.60653917334978424 0.48951264651449738 0.33923504009870464 0.17612584824182606 0.7338062924120915 0.29975323874151771 0.40869833436150538
decision_type=2 2 2 2 2 2 2 2 2
left_child=1 5 3 -2 7 -1 -4 -3 -6
right_child=2 4 6 -5 8 -7 -8 -9 -10
leaf_value=-0.0014710713341570911 0.0005109921310317262 -0.00060672829793754677 0.0018857657072821404 0.0010808326355048676 -6.563471130386336e-05 -0.00092571638943099519 0.0028808921808582046 -0.00026407956561196928 0.00030573387816628972
leaf_weight=3023 4886 3019 1266 3765 4069 4975 908 3683 1814
leaf_count=3023 4886 3019 1266 3765 4069 4975 908 3683 1814
internal_value=0 -0.000562079 0.00106875 0.000758992 -0.000199983 -0.00113184 0.00230139 -0.00041843 4.88753e-05
internal_weight=0 20583 10825 8651 12585 7998 2174 6702 5883
internal_count=31408 20583 10825 8651 12585 7998 2174 6702 5883
is_linear=0
shrinkage=0.01


Tree=45
num_leaves=10
num_cat=0
split_feature=23 23 23 23 23 23 23 23 3
split_gain=184.957 49.4413 32.2387 8.9915 7.86046 6.24945 3.3313 1.99418 1.67716
threshold=0.37933374460209757 0.56650215916101188 0.22979642196175207 0.69136335595311549 0.45508945095619996 0.30407156076496 0.14454040715607661 0.8311536088834055 0.38167797655768054
decision_type=2 2 2 2 2 2 2 2 2
left_child=2 4 6 -3 -2 -4 -1 -5 -6
right_child=1 3 5 7 8 -7 -8 -9 -10
leaf_value=-0.0016213973292151893 0.00030341908842794441 0.0015734089038238592 -0.00059831658064332866 0.0024424299919265776 0.00057603836146392711 -0.00014197087454656724 -0.0010949422036768653 0.0033405799939569122 0.00098209606484862062
leaf_weight=1628 5186 1733 5454 913 1443 6672 4593 339 3447
leaf_count=1628 5186 1733 5454 913 1443 6672 4593 339 3447
internal_value=0 0.000909513 -0.000647471 0.0020399 0.000574637 -0.000347225 -0.00123271 0.00268562 0.000862272
internal_weight=0 13061 18347 2985 10076 12126 6221 1252 4890
internal_count=31408 13061 18347 2985 10076 12126 6221 1252 4890
is_linear=0
shrinkage=0.01


Tree=46
num_leaves=10
num_cat=0
split_feature=23 23 23 23 23 23 23 23 3
split_gain=181.362 44.316 36.8496 8.31585 7.3764 4.84004 3.25634 2.07694 1.96173
threshold=0.41980259099321415 0.28272671190623078 0.64447871684145608 0.20302282541640967 0.52455274521900075 0.35922270203578044 0.80166563849475647 0.11511412708204817 0.41116594694632957
decision_type=2 2 2 2 2 2 2 2 2
left_child=1 3 4 7 8 -3 -4 -1 -2
right_child=2 5 6 -5 -6 -7 -8 -9 -10
leaf_value=-0.0018060628168205632 0.00043291409745634059 -0.00027161504778052195 0.002181937979651332 -0.00074435566427999249 0.0012793823309011441 0.00014592571536003801 0.003171627816571071 -0.0012309461091331848 0.00080219047834346969
leaf_weight=752 2627 6681 1257 5342 2561 4750 452 3806 3180
leaf_count=752 2627 6681 1257 5342 2561 4750 452 3806 3180
internal_value=0 -0.000522292 0.00110559 -0.00101207 0.000832305 -9.81115e-05 0.00244369 -0.00132583 0.000635135
internal_weight=0 21331 10077 9900 8368 11431 1709 4558 5807
internal_count=31408 21331 10077 9900 8368 11431 1709 4558 5807
is_linear=0
shrinkage=0.01


Tree=47
num_leaves=10
num_cat=0
split_feature=23 23 23 23 23 23 23 2 3
split_gain=177.76 40.3921 38.4332 7.22793 5.92092 5.29195 4.94696 1.77199 1.7615
threshold=0.40351634793337454 0.60653917334978424 0.25582973473164727 0.48247995064774846 0.33109191856878484 0.17612584824182606 0.7338062924120915 0.40869833436150538 0.54972239358420749
decision_type=2 2 2 2 2 2 2 2 2
left_child=2 3 5 -2 -4 -1 -3 -6 -5
right_child=1 6 4 8 7 -7 -8 -9 -10
leaf_value=-0.0014288359137361038 0.00045531704682679635 0.0018303082996941103 -0.00043315858593828097 0.00090994319580735142 -9.8904750555143414e-05 -0.0008983387905741626 0.0027975596713993517 0.00027341291792992364 0.001398699650579753
leaf_weight=3023 4884 1266 5945 3180 4478 4975 908 1789 960
leaf_count=3023 4884 1266 5945 3180 4478 4975 908 1789 960
internal_value=0 0.00101067 -0.000559995 0.000715884 -0.000207082 -0.00109885 0.00223429 7.37837e-06 0.00102328
internal_weight=0 11198 20210 9024 12212 7998 2174 6267 4140
internal_count=31408 11198 20210 9024 12212 7998 2174 6267 4140
is_linear=0
shrinkage=0.01


Tree=48
num_leaves=10
num_cat=0
split_feature=23 23 23 23 23 23 23 3 23
split_gain=174.287 42.6069 35.4262 7.7892 7.11189 4.81282 3.15151 2.05265 2.02034
threshold=0.41980259099321415 0.28112276372609513 0.64447871684145608 0.20302282541640967 0.53146206045650846 0.35922270203578044 0.80166563849475647 0.40438001233806303 0.11511412708204817
decision_type=2 2 2 2 2 2 2 2 2
left_child=1 3 4 8 7 -3 -4 -2 -1
right_child=2 5 6 -5 -6 -7 -8 -9 -10
leaf_value=-0.0017737138045436523 0.00042111804817760085 -0.00027152274346774256 0.0021383066680474992 -0.00073411240917126076 0.00128627362140253 0.00014320067870190542 0.0031119359261562343 0.00079378335298014343 -0.0012064878337010125
leaf_weight=752 2573 6810 1257 5213 2322 4750 452 3473 3806
leaf_count=752 2573 6810 1257 5213 2322 4750 452 3473 3806
internal_value=0 -0.000512002 0.00108381 -0.000998122 0.000815855 -0.000101113 0.00239581 0.000635188 -0.00130007
internal_weight=0 21331 10077 9771 8368 11560 1709 6046 4558
internal_count=31408 21331 10077 9771 8368 11560 1709 6046 4558
is_linear=0
shrinkage=0.01


Tree=49
num_leaves=10
num_cat=0
split_feature=23 23 23 23 23 23 23 23 3
split_gain=170.853 44.1547 32.9543 7.84714 6.18884 5.1771 3.0888 2.05177 1.72969
threshold=0.42757557063541035 0.28272671190623078 0.64447871684145608 0.20512029611351021 0.53146206045650846 0.35922270203578044 0.80166563849475647 0.13318938926588528 0.4578038247995066
decision_type=2 2 2 2 2 2 2 2 2
left_child=1 3 4 7 8 -3 -4 -1 -2
right_child=2 5 6 -5 -6 -7 -8 -9 -10
leaf_value=-0.0016258760419088059 0.00050721664560110177 -0.00026349567001181663 0.0021169236052837655 -0.00071544955732201422 0.0012734108690202917 0.00015626044353771415 0.0030808165662847787 -0.0011529821719578046 0.00086444387399887696
leaf_weight=1252 3199 6681 1257 5214 2322 5245 452 3434 2352
leaf_count=1252 3199 6681 1257 5214 2322 5245 452 3434 2352
internal_value=0 -0.000488689 0.00111314 -0.000982353 0.000839911 -7.88889e-05 0.00237186 -0.00127933 0.000658576
internal_weight=0 21826 9582 9900 7873 11926 1709 4686 5551
internal_count=31408 21826 9582 9900 7873 11926 1709 4686 5551
is_linear=0
shrinkage=0.01


Tree=50
num_leaves=10
num_cat=0
split_feature=23 23 23 23 23 23 23 23 2
split_gain=167.513 44.8843 29.3123 8.18046 7.17061 5.67743 3.04969 1.85638 1.61424
threshold=0.37933374460209757 0.56650215916101188 0.22979642196175207 0.69136335595311549 0.45508945095619996 0.30555212831585454 0.15070943861813699 0.85694016039481813 0.28938926588525615
decision_type=2 2 2 2 2 2 2 2 2
left_child=2 4 6 -3 -2 8 -1 -5 -4
right_child=1 3 5 7 -6 -7 -8 -9 -10
leaf_value=-0.0015101631716953594 0.0002874479107254108 0.0014976415051436466 -0.00073952122281174251 0.0023777829621125153 0.00082121462315718071 -0.00013017663133189905 -0.0010283007376507554 0.0033789534266807338 -0.0003991423472168171
leaf_weight=1884 5186 1733 2707 1026 4890 6548 4337 226 2871
leaf_count=1884 5186 1733 2707 1026 4890 6548 4337 226 2871
internal_value=0 0.000865562 -0.000616183 0.0019426 0.000546491 -0.000329888 -0.00117423 0.00255851 -0.000564328
internal_weight=0 13061 18347 2985 10076 12126 6221 1252 5578
internal_count=31408 13061 18347 2985 10076 12126 6221 1252 5578
is_linear=0
shrinkage=0.01


Tree=51
num_leaves=10
num_cat=0
split_feature=23 23 23 23 23 23 23 17 2
split_gain=164.202 40.8877 31.7544 6.78235 6.54175 5.46672 3.88707 1.69802 1.65542
threshold=0.39031462060456523 0.58044417026526851 0.24262800740283783 0.46767427513880327 0.72029611351017908 0.31752004935225175 0.15663170882171504 0.45508945095619996 0.38858729179518825
decision_type=2 2 2 2 2 2 2 2 2
left_child=2 3 6 -2 7 -4 -1 -3 -7
right_child=1 4 5 -5 -6 8 -8 -9 -10
leaf_value=-0.0014629757924475404 0.00035130270619989219 0.0019864926605130269 -0.00048983252145605764 0.00088492737372004046 0.0026356583060232427 -0.00017377917206695833 -0.00095314448674026296 0.0013314450568680664 0.00017152370703061936
leaf_weight=2140 5040 695 5702 4516 1023 4374 4965 919 2034
leaf_count=2140 5040 695 5702 4516 1023 4374 4965 919 2034
internal_value=0 0.000907684 -0.000575976 0.000603484 0.00201005 -0.000264596 -0.0011067 0.00161351 -6.41746e-05
internal_weight=0 12193 19215 9556 2637 12110 7105 1614 6408
internal_count=31408 12193 19215 9556 2637 12110 7105 1614 6408
is_linear=0
shrinkage=0.01


Tree=52
num_leaves=10
num_cat=0
split_feature=23 23 23 23 23 23 23 23 3
split_gain=161.028 41.6155 31.0937 7.42169 6.9318 4.8793 2.24957 2.07707 1.74533
threshold=0.42757557063541035 0.28272671190623078 0.66656384947563252 0.20931523750771139 0.53146206045650846 0.35922270203578044 0.8311536088834055 0.13318938926588528 0.55823565700185085
decision_type=2 2 2 2 2 2 2 2 2
left_child=1 3 4 7 -2 -3 -4 -1 -6
right_child=2 5 6 -5 8 -7 -8 -9 -10
leaf_value=-0.0015798859083995271 0.00063890572207537361 -0.00025580629029530626 0.0022009804778904585 -0.00068033113448366905 0.0010870214825861896 0.00015169834666711062 0.0031287458824724576 -0.0011085159728293455 0.0016453176652002767
leaf_weight=1252 5551 6681 1141 4958 1721 5245 339 3690 830
leaf_count=1252 5551 6681 1141 4958 1721 5245 339 3690 830
internal_value=0 -0.00047443 0.00108066 -0.000953689 0.000837194 -7.65876e-05 0.00241349 -0.00122793 0.00126867
internal_weight=0 21826 9582 9900 8102 11926 1480 4942 2551
internal_count=31408 21826 9582 9900 8102 11926 1480 4942 2551
is_linear=0
shrinkage=0.01


Tree=53
num_leaves=10
num_cat=0
split_feature=23 23 23 23 23 23 23 2 2
split_gain=157.826 38.1073 32.5546 5.86686 5.74289 5.37629 3.61225 1.75775 1.74578
threshold=0.41782850092535484 0.26841455891425059 0.62584824182603349 0.18365206662553987 0.511104256631709 0.34207279457125239 0.76428130783467019 0.40869833436150538 0.28778531770512039
decision_type=2 2 2 2 2 2 2 2 2
left_child=1 3 4 -1 -2 -3 -4 -7 -5
right_child=2 5 6 8 -6 7 -8 -9 -10
leaf_value=-0.0013174778333842913 0.0005535267358696528 -0.00034385235914923581 0.0018709254763706797 -0.00093489774336726766 0.0011050756512624225 -4.1909779051105501e-05 0.0027754299101584094 0.00031654472754367156 -0.00057088355343159819
leaf_weight=3399 5344 6070 1259 3280 2919 4234 680 2021 2202
leaf_count=3399 5344 6070 1259 3280 2919 4234 680 2021 2202
internal_value=0 -0.000491679 0.00102201 -0.000991066 0.000748368 -0.000131837 0.00218813 7.39074e-05 -0.000788681
internal_weight=0 21206 10202 8881 8263 12325 1939 6255 5482
internal_count=31408 21206 10202 8881 8263 12325 1939 6255 5482
is_linear=0
shrinkage=0.01


Tree=54
num_leaves=10
num_cat=0
split_feature=23 23 23 23 23 23 23 23 2
split_gain=154.745 40.6798 27.9151 8.44694 5.69256 5.57511 2.84654 1.76247 1.67234
threshold=0.38229487970388659 0.55712523133867997 0.22979642196175207 0.69136335595311549 0.45077112893275767 0.30555212831585454 0.14454040715607661 0.85694016039481813 0.35934608266502166
decision_type=2 2 2 2 2 2 2 2 2
left_child=2 4 6 -3 -2 -4 -1 -5 -7
right_child=1 3 5 7 -6 8 -8 -9 -10
leaf_value=-0.0014884610575250823 0.0002707255430057031 0.0014095743589887294 -0.0005422527834664894 0.0022842480622043155 0.00075794398809555337 -0.00024695293856300335 -0.0010018145874972585 0.0032597653073283424 7.1808345065755498e-05
leaf_weight=1628 4703 1967 5578 1026 4893 3995 4593 226 2799
leaf_count=1628 4703 1967 5578 1026 4893 3995 4593 226 2799
internal_value=0 0.00084548 -0.000582737 0.00181826 0.000519158 -0.000307975 -0.00112917 0.00246034 -0.000115629
internal_weight=0 12815 18593 3219 9596 12372 6221 1252 6794
internal_count=31408 12815 18593 3219 9596 12372 6221 1252 6794
is_linear=0
shrinkage=0.01


Tree=55
num_leaves=10
num_cat=0
split_feature=23 23 23 23 23 23 23 2 4
split_gain=151.713 39.2257 29.3342 7.02052 6.53903 4.60126 2.1353 1.86829 1.70454
threshold=0.42757557063541035 0.28272671190623078 0.66656384947563252 0.19487970388648987 0.53146206045650846 0.35922270203578044 0.8311536088834055 0.30703269586674903 0.60037014188772386
decision_type=2 2 2 2 2 2 2 2 2
left_child=1 3 4 -1 -2 -3 -4 -5 -6
right_child=2 5 6 7 8 -7 -8 -9 -10
leaf_value=-0.0012461144721998226 0.00061987048452106738 -0.00024829015490457595 0.0021364635398887313 -0.00084212163143616685 0.0010983713029410922 0.00014743379523741402 0.0030403581740757707 -0.00047265920767550641 0.0017333169605965927
leaf_weight=4046 5551 6681 1141 3672 2016 5245 339 2182 535
leaf_count=4046 5551 6681 1141 3672 2016 5245 339 2182 535
internal_value=0 -0.000460503 0.00104894 -0.000925797 0.000812459 -7.42526e-05 0.0023435 -0.000704409 0.00123153
internal_weight=0 21826 9582 9900 8102 11926 1480 5854 2551
internal_count=31408 21826 9582 9900 8102 11926 1480 5854 2551
is_linear=0
shrinkage=0.01


Tree=56
num_leaves=10
num_cat=0
split_feature=23 23 23 23 23 23 23 23 4
split_gain=148.713 39.9455 26.1033 8.11604 5.79076 5.0497 2.76578 1.69874 1.61851
threshold=0.37933374460209757 0.55712523133867997 0.22979642196175207 0.69136335595311549 0.45077112893275767 0.30407156076496 0.14133251079580508 0.85694016039481813 0.60037014188772386
decision_type=2 2 2 2 2 2 2 2 2
left_child=2 4 6 8 -2 -4 -1 -5 -3
right_child=1 3 5 7 -6 -7 -8 -9 -10
leaf_value=-0.0014806044273118072 0.00025808310790609198 0.0012104367539723675 -0.00053611358266964762 0.0022390454458562949 0.00074321864121304829 -0.00012590368822399411 -0.0009881315300810504 0.0031967640945077995 0.0018617066680579573
leaf_weight=1504 4949 1449 5454 1026 4893 6672 4717 226 518
leaf_count=1504 4949 1449 5454 1026 4893 6672 4717 226 518
internal_value=0 0.000815545 -0.000580577 0.00178255 0.000499271 -0.000310407 -0.00110719 0.00241192 0.00138195
internal_weight=0 13061 18347 3219 9842 12126 6221 1252 1967
internal_count=31408 13061 18347 3219 9842 12126 6221 1252 1967
is_linear=0
shrinkage=0.01


Tree=57
num_leaves=10
num_cat=0
split_feature=23 23 23 23 23 23 23 2 2
split_gain=145.794 33.6439 31.198 5.90892 4.9342 4.53878 4.26351 1.65714 1.55676
threshold=0.40203578038248006 0.59895126465144988 0.2534855027760643 0.48247995064774846 0.32813078346699576 0.72029611351017908 0.17612584824182606 0.38858729179518825 0.29975323874151771
decision_type=2 2 2 2 2 2 2 2 2
left_child=2 3 6 -2 8 -3 -1 -6 -4
right_child=1 5 4 -5 7 -7 -8 -9 -10
leaf_value=-0.0012975129620931497 0.00040377612316889371 0.0015899831210196866 -0.00058097051546933105 0.00091831279908370081 -0.00012008633913191208 0.0024856321424799347 -0.00081888130292290424 0.00021889085972154611 -0.00025329148121509311
leaf_weight=3023 5010 1266 2713 4025 4194 1023 4842 2198 3114
leaf_count=3023 5010 1266 2713 4025 4194 1023 4842 2198 3114
internal_value=0 0.000907351 -0.000511594 0.000632997 -0.000195388 0.00199027 -0.00100285 -3.52315e-06 -0.000405856
internal_weight=0 11324 20084 9035 12219 2289 7865 6392 5827
internal_count=31408 11324 20084 9035 12219 2289 7865 6392 5827
is_linear=0
shrinkage=0.01


Tree=58
num_leaves=10
num_cat=0
split_feature=23 23 23 23 23 23 23 23 3
split_gain=142.975 37.4585 27.3133 6.65123 5.99994 4.47004 2.03959 1.93871 1.64551
threshold=0.42905613818630484 0.28272671190623078 0.66656384947563252 0.20931523750771139 0.53146206045650846 0.35922270203578044 0.8311536088834055 0.11511412708204817 0.55823565700185085
decision_type=2 2 2 2 2 2 2 2 2
left_child=1 3 4 7 -2 -3 -4 -1 -6
right_child=2 5 6 -5 8 -7 -8 -9 -10
leaf_value=-0.0016258859509562559 0.00060828122405369954 -0.00024110745648646116 0.0020729183431104233 -0.00063996381669082501 0.0010198450637648488 0.00014648173406296976 0.0029563230592592627 -0.0010744539297103599 0.0015619411652526224
leaf_weight=752 5431 6681 1141 4958 1721 5365 339 4190 830
leaf_count=752 5431 6681 1141 4958 1721 5365 339 4190 830
internal_value=0 -0.000443021 0.00102753 -0.000898744 0.000796184 -6.84845e-05 0.00227527 -0.00115836 0.00119622
internal_weight=0 21946 9462 9900 7982 12046 1480 4942 2551
internal_count=31408 21946 9462 9900 7982 12046 1480 4942 2551
is_linear=0
shrinkage=0.01


Tree=59
num_leaves=10
num_cat=0
split_feature=23 23 23 23 23 23 23 23 3
split_gain=140.158 39.6567 22.8449 7.63886 6.20436 4.16881 2.53799 1.63049 1.58367
threshold=0.37217766810610742 0.55712523133867997 0.22769895126465153 0.69136335595311549 0.45077112893275767 0.30407156076496 0.14133251079580508 0.85694016039481813 0.39265885256014821
decision_type=2 2 2 2 2 2 2 2 2
left_child=2 4 6 -3 8 -4 -1 -5 -2
right_child=1 3 5 7 -6 -7 -8 -9 -10
leaf_value=-0.0014393215272773771 7.7695681815960699e-05 0.0013422245329627544 -0.0005241866099535865 0.0021720955669734679 0.00072151553647551705 -0.00014515440918305304 -0.00096602739067900266 0.003110376986782108 0.00041588325894791295
leaf_weight=1504 3005 1967 5578 1026 4893 6048 4593 226 2568
leaf_count=1504 3005 1967 5578 1026 4893 6048 4593 226 2568
internal_value=0 0.000760213 -0.000587006 0.00173087 0.00046167 -0.000327009 -0.00108278 0.00234147 0.00023353
internal_weight=0 13685 17723 3219 10466 11626 6097 1252 5573
internal_count=31408 13685 17723 3219 10466 11626 6097 1252 5573
is_linear=0
shrinkage=0.01


Tree=60
num_leaves=10
num_cat=0
split_feature=23 23 23 23 23 23 23 2 3
split_gain=137.399 36.473 25.9263 6.40328 5.60662 4.41603 1.96299 1.79962 1.70491
threshold=0.43078346699568182 0.28272671190623078 0.66656384947563252 0.19487970388648987 0.54170265268352891 0.35922270203578044 0.8311536088834055 0.30703269586674903 0.43867982726711913
decision_type=2 2 2 2 2 2 2 2 2
left_child=1 3 4 -1 8 -3 -4 -5 -2
right_child=2 5 6 7 -6 -7 -8 -9 -10
leaf_value=-0.0011869873555337535 0.00044994003846298954 -0.00023623782719800449 0.0020321264864973181 -0.00080480038909827318 0.0012159090332688593 0.00014667745695815562 0.002898783616084265 -0.00044219217502528468 0.00079708205269865117
leaf_weight=4046 2866 6681 1141 3672 2203 5484 339 2182 2794
leaf_count=4046 2866 6681 1141 3672 2203 5484 339 2182 2794
internal_value=0 -0.000430391 0.00101644 -0.000881075 0.000787896 -6.36191e-05 0.00223064 -0.000669643 0.000621303
internal_weight=0 22065 9343 9900 7863 12165 1480 5854 5660
internal_count=31408 22065 9343 9900 7863 12165 1480 5854 5660
is_linear=0
shrinkage=0.01


Tree=61
num_leaves=10
num_cat=0
split_feature=23 23 23 23 23 23 23 2 17
split_gain=134.695 32.5593 27.3232 5.49776 4.99937 4.4854 3.62939 1.57557 1.52214
threshold=0.39524984577421352 0.58648982109808778 0.24818013571869221 0.4759407772979643 0.72029611351017908 0.32492288710672435 0.15663170882171504 0.29975323874151771 0.45508945095619996
decision_type=2 2 2 2 2 2 2 2 2
left_child=2 3 6 -2 8 7 -1 -4 -3
right_child=1 4 5 -5 -6 -7 -8 -9 -10
leaf_value=-0.0013312906078889826 0.00035145150862789286 0.0018493305718751147 -0.00058195051059279192 0.00084068898494970418 0.0023901322159191499 -2.5518963607742704e-05 -0.00084401584770063369 -0.00025600985231524201 0.0012056836139568141
leaf_weight=2140 5144 646 2821 4150 1023 6155 5350 3127 852
leaf_count=2140 5144 646 2821 4150 1023 6155 5350 3127 852
internal_value=0 0.000843313 -0.000508536 0.000569908 0.00185126 -0.000214764 -0.000983237 -0.000410596 0.00148325
internal_weight=0 11815 19593 9294 2521 12103 7490 5948 1498
internal_count=31408 11815 19593 9294 2521 12103 7490 5948 1498
is_linear=0
shrinkage=0.01


Tree=62
num_leaves=10
num_cat=0
split_feature=23 23 23 23 23 2 23 23 23
split_gain=132.073 34.1447 25.6062 6.18463 4.83798 4.17574 2.49768 1.84373 1.57037
threshold=0.42757557063541035 0.28272671190623078 0.64447871684145608 0.20931523750771139 0.52208513263417655 0.3608266502159162 0.80166563849475647 0.11511412708204817 0.33923504009870464
decision_type=2 2 2 2 2 2 2 2 2
left_child=1 3 4 7 -2 8 -4 -1 -3
right_child=2 5 6 -5 -6 -7 -8 -9 -10
leaf_value=-0.0015700510821919493 0.00055971126682860365 -0.00039453439415202757 0.0018589888113590112 -0.00061423953755146779 0.001082813101488141 0.00014135215188686734 0.0027257569173795987 -0.0010322969809301234 -8.7370535800289606e-05
leaf_weight=752 5192 3215 1257 4958 2681 5260 452 4190 3451
leaf_count=752 5192 3215 1257 4958 2681 5260 452 4190 3451
internal_value=0 -0.000429663 0.000978693 -0.000863778 0.000737844 -6.92966e-05 0.00208823 -0.00111412 -0.000235515
internal_weight=0 21826 9582 9900 7873 11926 1709 4942 6666
internal_count=31408 21826 9582 9900 7873 11926 1709 4942 6666
is_linear=0
shrinkage=0.01


Tree=63
num_leaves=10
num_cat=0
split_feature=23 23 23 23 23 23 23 23 4
split_gain=129.583 36.6612 21.1419 7.06522 5.72839 3.83987 2.38169 1.54159 1.53332
threshold=0.37217766810610742 0.55712523133867997 0.22769895126465153 0.69136335595311549 0.45077112893275767 0.30407156076496 0.13775447254781006 0.85694016039481813 0.60037014188772386
decision_type=2 2 2 2 2 2 2 2 2
left_child=2 4 6 8 -2 -4 -1 -5 -3
right_child=1 3 5 7 -6 -7 -8 -9 -10
leaf_value=-0.0014069435850293677 0.00022471137750708868 0.0011235474626963677 -0.000503546875103038 0.002086783712457495 0.00069360505567935481 -0.00013977572837582951 -0.00093451089482153788 0.002999126429183293 0.0017574452040681047
leaf_weight=1379 5573 1449 5578 1026 4893 6048 4718 226 518
leaf_count=1379 5573 1449 5578 1026 4893 6048 4718 226 518
internal_value=0 0.000730972 -0.000564427 0.00166425 0.000443926 -0.000314308 -0.00104136 0.00225147 0.00129048
internal_weight=0 13685 17723 3219 10466 11626 6097 1252 1967
internal_count=31408 13685 17723 3219 10466 11626 6097 1252 1967
is_linear=0
shrinkage=0.01


Tree=64
num_leaves=10
num_cat=0
split_feature=23 23 23 23 23 2 23 3 4
split_gain=127.005 35.9317 20.7212 6.92462 5.61439 3.80392 2.33663 1.52605 1.52465
threshold=0.37217766810610742 0.55712523133867997 0.22769895126465153 0.69136335595311549 0.45077112893275767 0.31752004935225175 0.14133251079580508 0.39265885256014821 0.55305367057372012
decision_type=2 2 2 2 2 2 2 2 2
left_child=2 4 6 -3 7 -4 -1 -2 -5
right_child=1 3 5 8 -6 -7 -8 -9 -10
leaf_value=-0.0013730570123322865 6.9491194327718159e-05 0.0012775765703048844 -0.00049183157251815406 0.0017923206339788731 0.00068666900693521477 -0.00013006318226668474 -0.00091892615982425293 0.00040146896265616213 0.0025078556946044818
leaf_weight=1504 3005 1967 5820 488 4893 5806 4593 2568 764
leaf_count=1504 3005 1967 5820 488 4893 5806 4593 2568 764
internal_value=0 0.000723662 -0.000558783 0.00164761 0.000439486 -0.000311165 -0.00103095 0.000222464 0.00222896
internal_weight=0 13685 17723 3219 10466 11626 6097 5573 1252
internal_count=31408 13685 17723 3219 10466 11626 6097 5573 1252
is_linear=0
shrinkage=0.01


Tree=65
num_leaves=10
num_cat=0
split_feature=23 23 23 23 23 23 23 2 3
split_gain=124.489 28.6182 27.114 4.94224 4.77427 3.83675 3.26739 1.66434 1.49867
threshold=0.41042566317088225 0.25582973473164727 0.61622455274521915 0.49420111042566334 0.33923504009870464 0.17612584824182606 0.76428130783467019 0.31752004935225175 0.55823565700185085
decision_type=2 2 2 2 2 2 2 2 2
left_child=1 5 3 -2 7 -1 -4 -3 -5
right_child=2 4 6 8 -6 -7 -8 -9 -10
leaf_value=-0.0012020375402018878 0.00042637706002895335 -0.00049285534312206261 0.001628157596940344 0.0007989795460533203 4.6985725352138594e-05 -0.00075033031179219103 0.0024755808844724122 -0.00017745584573876182 0.0012789274152710964
leaf_weight=3023 4997 3478 1375 2795 6013 4975 680 3224 848
leaf_count=3023 4997 3478 1375 2795 6013 4975 680 3224 848
internal_value=0 -0.000452392 0.000876147 0.000630588 -0.000157589 -0.000921062 0.00190857 -0.000341132 0.0009107
internal_weight=0 20713 10695 8640 12715 7998 2055 6702 3643
internal_count=31408 20713 10695 8640 12715 7998 2055 6702 3643
is_linear=0
shrinkage=0.01


Tree=66
num_leaves=10
num_cat=0
split_feature=23 23 23 23 23 23 23 4 3
split_gain=122.074 34.5513 19.9304 7.00153 5.15778 3.67971 2.26137 1.5556 1.53926
threshold=0.37217766810610742 0.55206662553979047 0.22769895126465153 0.69136335595311549 0.44250462677359664 0.30259099321406546 0.13775447254781006 0.60037014188772386 0.38167797655768054
decision_type=2 2 2 2 2 2 2 2 2
left_child=2 4 6 7 -2 -4 -1 -3 -6
right_child=1 3 5 -5 8 -7 -8 -9 -10
leaf_value=-0.001367123204136863 0.00019740838221902609 0.0010777090843187116 -0.00049426974923583546 0.002185783314521606 0.00039043596231971817 -0.00013777279376031072 -0.00090677891384697998 0.0017013732858554081 0.0007593627288234793
leaf_weight=1379 5091 1542 5453 1252 1646 6173 4718 540 3614
leaf_count=1379 5091 1542 5453 1252 1646 6173 4718 540 3614
internal_value=0 0.000709475 -0.000547829 0.00159483 0.000424307 -0.000304982 -0.0010109 0.00123947 0.000643915
internal_weight=0 13685 17723 3334 10351 11626 6097 2082 5260
internal_count=31408 13685 17723 3334 10351 11626 6097 2082 5260
is_linear=0
shrinkage=0.01


Tree=67
num_leaves=10
num_cat=0
split_feature=23 23 23 23 23 23 23 17 3
split_gain=119.657 31.5358 21.677 5.48384 5.15359 3.96976 2.58047 1.58131 1.53196
threshold=0.38229487970388659 0.57513880320789657 0.23571869216533012 0.46557680444170274 0.72029611351017908 0.30863664404688473 0.15070943861813699 0.45508945095619996 0.39265885256014821
decision_type=2 2 2 2 2 2 2 2 2
left_child=2 3 6 8 7 -4 -1 -3 -2
right_child=1 4 5 -5 -6 -7 -8 -9 -10
leaf_value=-0.0012854552660888801 0.00010992556630585592 0.0017035038164689403 -0.00045830370364641069 0.00074241010863542291 0.002254657994369491 -9.2902789484705542e-05 -0.0008476635200250223 0.0010935689863504569 0.00044256624854618578
leaf_weight=1884 2822 753 5453 4523 1023 6538 4718 976 2718
leaf_count=1884 2822 753 5453 4523 1023 6538 4718 976 2718
internal_value=0 0.000743473 -0.00051243 0.000484053 0.00169207 -0.000259072 -0.000972595 0.0013592 0.000273124
internal_weight=0 12815 18593 10063 2752 11991 6602 1729 5540
internal_count=31408 12815 18593 10063 2752 11991 6602 1729 5540
is_linear=0
shrinkage=0.01


Tree=68
num_leaves=10
num_cat=0
split_feature=23 23 23 23 23 2 23 2 23
split_gain=117.325 31.2413 22.2265 5.52657 4.81722 4.05757 1.77528 1.74236 1.57326
threshold=0.43078346699568182 0.28272671190623078 0.66656384947563252 0.19253547193090689 0.53146206045650846 0.37217766810610742 0.8311536088834055 0.30407156076496 0.34207279457125239
decision_type=2 2 2 2 2 2 2 2 2
left_child=1 3 4 -1 -2 8 -4 -5 -3
right_child=2 5 6 7 -6 -7 -8 -9 -10
leaf_value=-0.0011068879883827697 0.00055612118849361343 -0.00035827158350501201 0.0018747047124647656 -0.00075685273769880886 0.0010848196069361759 0.00016476740002612793 0.0026988833624001451 -0.00040503494679031523 -6.4219730940702418e-05
leaf_weight=3916 5312 3556 1141 3719 2551 4883 339 2265 3726
leaf_count=3916 5312 3556 1141 3719 2551 4883 339 2265 3726
internal_value=0 -0.000397709 0.000939254 -0.000814819 0.000727647 -5.82604e-05 0.00206349 -0.000623686 -0.000207813
internal_weight=0 22065 9343 9900 7863 12165 1480 5984 7282
internal_count=31408 22065 9343 9900 7863 12165 1480 5984 7282
is_linear=0
shrinkage=0.01


Tree=69
num_leaves=10
num_cat=0
split_feature=23 23 23 23 23 2 1 21 4
split_gain=115.088 32.5678 18.7863 6.27892 5.08076 3.57421 2.18356 1.50209 1.47251
threshold=0.37217766810610742 0.55712523133867997 0.22769895126465153 0.69136335595311549 0.45077112893275767 0.31752004935225175 0.21523750771128944 0.3920419494139421 0.55305367057372012
decision_type=2 2 2 2 2 2 2 2 2
left_child=2 4 6 -3 7 -4 -1 -2 -5
right_child=1 3 5 8 -6 -7 -8 -9 -10
leaf_value=-0.001147601131130205 0.00040392995143552317 0.0012161521862597638 -0.00047127503026513453 0.0016929846557742748 0.00065347079423869376 -0.00012059983436505575 -0.00076588493490181275 7.1536031686247377e-05 0.0023961788625578291
leaf_weight=3444 2353 1967 5820 488 4893 5806 2653 3220 764
leaf_count=3444 2353 1967 5820 488 4893 5806 2653 3220 764
internal_value=0 0.000688875 -0.000531922 0.00156851 0.000418328 -0.000296149 -0.000981504 0.000211877 0.00212209
internal_weight=0 13685 17723 3219 10466 11626 6097 5573 1252
internal_count=31408 13685 17723 3219 10466 11626 6097 5573 1252
is_linear=0
shrinkage=0.01


Tree=70
num_leaves=10
num_cat=0
split_feature=23 23 23 23 23 23 23 4 2
split_gain=112.813 27.3092 22.9449 4.92622 3.90209 3.83788 3.1191 1.49294 1.40948
threshold=0.39524984577421352 0.59253547193090705 0.24818013571869221 0.47803824799506484 0.74774830351634813 0.32492288710672435 0.15971622455274534 0.56255397902529314 0.29259716224552756
decision_type=2 2 2 2 2 2 2 2 2
left_child=2 3 6 -2 7 8 -1 -3 -4
right_child=1 4 5 -5 -6 -7 -8 -9 -10
leaf_value=-0.0012100576660045582 0.00032571202851631081 0.0011808077545489566 -0.00054947705356047142 0.00078659478400928203 0.0022965243157534215 -2.1138149067546447e-05 -0.00076592179321980909 0.0017975455627087474 -0.00023967768285282752
leaf_weight=2268 5265 934 2643 4145 794 6155 5222 677 3305
leaf_count=2268 5265 934 2643 4145 794 6155 5222 677 3305
internal_value=0 0.000771778 -0.000465399 0.000528726 0.00172277 -0.000196192 -0.000900408 0.00143998 -0.000377337
internal_weight=0 11815 19593 9410 2405 12103 7490 1611 5948
internal_count=31408 11815 19593 9410 2405 12103 7490 1611 5948
is_linear=0
shrinkage=0.01


Tree=71
num_leaves=10
num_cat=0
split_feature=23 23 23 23 23 2 1 23 3
split_gain=110.614 31.3309 18.0675 6.3484 4.66825 3.46051 2.12644 1.5692 1.48904
threshold=0.37217766810610742 0.55206662553979047 0.22769895126465153 0.67853177051202973 0.44250462677359664 0.31752004935225175 0.21523750771128944 0.85694016039481813 0.38167797655768054
decision_type=2 2 2 2 2 2 2 2 2
left_child=2 4 6 -3 -2 -4 -1 -5 -6
right_child=1 3 5 7 8 -7 -8 -9 -10
leaf_value=-0.0011262877682786659 0.00018793560540303816 0.001154891140210041 -0.00046257951063412712 0.0018912954092548603 0.00036341528848075574 -0.00011752691017971943 -0.00074959756859763898 0.0028034288515295601 0.00072627344852388843
leaf_weight=3444 5091 1968 5820 1140 1646 5806 2653 226 3614
leaf_count=3444 5091 1968 5820 1140 1646 5806 2653 226 3614
internal_value=0 0.000675352 -0.00052148 0.00151844 0.000403798 -0.000290261 -0.000962378 0.0020422 0.000612725
internal_weight=0 13685 17723 3334 10351 11626 6097 1366 5260
internal_count=31408 13685 17723 3334 10351 11626 6097 1366 5260
is_linear=0
shrinkage=0.01


Tree=72
num_leaves=10
num_cat=0
split_feature=23 23 23 23 23 2 3 2 3
split_gain=108.448 26.067 22.8052 4.22896 4.06394 3.86712 2.83383 1.52009 1.36393
threshold=0.41573103022825431 0.26668723010487361 0.62584824182603349 0.50370141887723641 0.1788402220851327 0.33923504009870464 0.58797038864898232 0.28630475015422585 0.55823565700185085
decision_type=2 2 2 2 2 2 2 2 2
left_child=1 4 3 -2 -1 -3 -4 -6 -5
right_child=2 5 6 8 7 -7 -8 -9 -10
leaf_value=-0.0011162465449429699 0.00043405670856077916 -0.00029483921105851916 0.0013810981198049382 0.00077461108773809188 -0.00080139628768887067 5.9337739364362131e-05 0.0021522792721044843 -0.00046493923044528291 0.0012423679486432764
leaf_weight=3148 5115 6075 843 2434 3366 6259 1096 2234 838
leaf_count=3148 5115 6075 843 2434 3366 6259 1096 2234 838
internal_value=0 -0.000411245 0.000839616 0.000613653 -0.000828774 -0.000115109 0.001817 -0.000667174 0.000894409
internal_weight=0 21082 10326 8387 8748 12334 1939 5600 3272
internal_count=31408 21082 10326 8387 8748 12334 1939 5600 3272
is_linear=0
shrinkage=0.01


Tree=73
num_leaves=10
num_cat=0
split_feature=23 23 23 23 23 2 23 17 3
split_gain=106.415 30.1015 17.3612 6.12526 4.47135 3.24409 2.14486 1.4527 1.45218
threshold=0.37217766810610742 0.55206662553979047 0.22979642196175207 0.69136335595311549 0.44250462677359664 0.31752004935225175 0.13775447254781006 0.45508945095619996 0.38167797655768054
decision_type=2 2 2 2 2 2 2 2 2
left_child=2 4 6 7 -2 -4 -1 -3 -6
right_child=1 3 5 -5 8 -7 -8 -9 -10
leaf_value=-0.0012850005145065159 0.00018497765889367941 0.0014441911922376447 -0.00044971927800081552 0.0020415274846477629 0.00035450745927954885 -0.00011383363415304805 -0.00083797257630318137 0.0009139543131356483 0.00071284621565405142
leaf_weight=1379 5091 952 5735 1252 1646 5767 4842 1130 3614
leaf_count=1379 5091 952 5735 1252 1646 5767 4842 1130 3614
internal_value=0 0.000662411 -0.000511488 0.00148879 0.000396239 -0.000281309 -0.000937065 0.00115641 0.000600712
internal_weight=0 13685 17723 3334 10351 11502 6221 2082 5260
internal_count=31408 13685 17723 3334 10351 11502 6221 2082 5260
is_linear=0
shrinkage=0.01


Tree=74
num_leaves=10
num_cat=0
split_feature=23 23 23 23 23 23 1 23 3
split_gain=104.297 29.5025 17.018 6.00649 4.38237 3.29175 2.04972 1.52765 1.42328
threshold=0.37217766810610742 0.55206662553979047 0.22769895126465153 0.67853177051202973 0.44250462677359664 0.30259099321406546 0.21523750771128944 0.85694016039481813 0.38167797655768054
decision_type=2 2 2 2 2 2 2 2 2
left_child=2 4 6 -3 -2 -4 -1 -5 -6
right_child=1 3 5 7 8 -7 -8 -9 -10
leaf_value=-0.0010951991091540413 0.00018312788254079841 0.0011202805827521317 -0.00046100120068323799 0.0018344714801693171 0.0003509623845712819 -0.00012382034697206479 -0.00072536687363581795 0.002734446128648994 0.00070571775318131898
leaf_weight=3444 5091 1968 5453 1140 1646 6173 2653 226 3614
leaf_count=3444 5091 1968 5453 1140 1646 6173 2653 226 3614
internal_value=0 0.000655787 -0.000506373 0.0014739 0.000392276 -0.00028197 -0.000934273 0.00198337 0.000594705
internal_weight=0 13685 17723 3334 10351 11626 6097 1366 5260
internal_count=31408 13685 17723 3334 10351 11626 6097 1366 5260
is_linear=0
shrinkage=0.01


Tree=75
num_leaves=10
num_cat=0
split_feature=23 23 23 23 23 23 1 17 3
split_gain=102.228 27.2202 18.271 4.81519 4.45739 3.32566 2.43043 1.50025 1.47395
threshold=0.38093769278223333 0.57513880320789657 0.23781616286243065 0.46557680444170274 0.72029611351017908 0.30863664404688473 0.22165330043183226 0.45508945095619996 0.39265885256014821
decision_type=2 2 2 2 2 2 2 2 2
left_child=2 3 6 8 7 -4 -1 -3 -2
right_child=1 4 5 -5 -6 -7 -8 -9 -10
leaf_value=-0.0010599298698657786 9.1120835687559838e-05 0.0015898970675816732 -0.00042410243166203856 0.00068652411511343635 0.0020873144520983785 -8.6112564827222528e-05 -0.00067645857766430843 0.00099580058152405702 0.00041386207191207425
leaf_weight=3800 2894 753 5330 4523 1023 6415 2925 976 2769
leaf_count=3800 2894 753 5330 4523 1023 6415 2925 976 2769
internal_value=0 0.000681655 -0.000477491 0.000443239 0.0015641 -0.000239496 -0.000893141 0.00125454 0.00024893
internal_weight=0 12938 18470 10186 2752 11745 6725 1729 5663
internal_count=31408 12938 18470 10186 2752 11745 6725 1729 5663
is_linear=0
shrinkage=0.01


Tree=76
num_leaves=10
num_cat=0
split_feature=23 23 23 23 2 2 23 23 4
split_gain=100.217 28.3674 16.3607 5.77943 4.2162 3.30349 1.95494 1.66248 1.4889
threshold=0.37217766810610742 0.55206662553979047 0.22572486119679222 0.67853177051202973 0.45940777297964236 0.29259716224552756 0.12541640962368913 0.44250462677359664 0.55305367057372012
decision_type=2 2 2 2 2 2 2 2 2
left_child=2 4 6 -3 7 -4 -1 -2 -5
right_child=1 3 5 8 -6 -7 -8 -9 -10
leaf_value=-0.0013261406295746565 9.5490447643021658e-05 0.0010981808669676251 -0.00048149698484187964 0.0015371026431318794 0.00064363429088237333 -0.00014047275102159427 -0.00084154057560382588 0.00042303322780180185 0.0022121482584512597
leaf_weight=1000 3851 1968 4804 541 3907 6950 4969 2593 825
leaf_count=1000 3851 1968 4804 541 3907 6950 4969 2593 825
internal_value=0 0.000642832 -0.000496369 0.00144506 0.00038444 -0.000279853 -0.000922727 0.00022729 0.0019448
internal_weight=0 13685 17723 3334 10351 11754 5969 6444 1366
internal_count=31408 13685 17723 3334 10351 11754 5969 6444 1366
is_linear=0
shrinkage=0.01


Tree=77
num_leaves=10
num_cat=0
split_feature=23 23 23 23 23 2 3 2 3
split_gain=98.267 22.4508 21.7468 4.11538 3.73825 3.33604 2.83145 1.41821 1.34508
threshold=0.40869833436150538 0.26668723010487361 0.61622455274521915 0.49420111042566334 0.1788402220851327 0.34491054904380025 0.58797038864898232 0.28630475015422585 0.54972239358420749
decision_type=2 2 2 2 2 2 2 2 2
left_child=1 4 3 -2 -1 -3 -4 -6 -5
right_child=2 5 6 8 7 -7 -8 -9 -10
leaf_value=-0.0010654967265343236 0.00037173544190825998 -0.00028162340835657869 0.0012816786365951165 0.00069906270292496213 -0.00076444064721789735 5.4558795665173276e-05 0.0020287981268575809 -0.00043945400404442835 0.0011402257860406125
leaf_weight=3148 5127 6205 912 2716 3366 5630 1143 2234 927
leaf_count=3148 5127 6205 912 2716 3366 5630 1143 2234 927
internal_value=0 -0.000405642 0.000771301 0.000554337 -0.000789784 -0.000121699 0.00169723 -0.000634794 0.000811321
internal_weight=0 20583 10825 8770 8748 11835 2055 5600 3643
internal_count=31408 20583 10825 8770 8748 11835 2055 5600 3643
is_linear=0
shrinkage=0.01


Tree=78
num_leaves=10
num_cat=0
split_feature=23 23 23 23 23 2 23 4 3
split_gain=96.3931 27.2634 15.7257 5.32278 4.27681 3.11647 1.95684 1.52363 1.51517
threshold=0.37217766810610742 0.55712523133867997 0.22769895126465153 0.70438001233806302 0.45940777297964236 0.31752004935225175 0.13318938926588528 0.60037014188772386 0.39265885256014821
decision_type=2 2 2 2 2 2 2 2 2
left_child=2 4 6 7 8 -4 -1 -3 -2
right_child=1 3 5 -5 -6 -7 -8 -9 -10
leaf_value=-0.0012505624774165048 6.0501217917555924e-05 0.00096966917265495743 -0.00043462069429684607 0.0019855274919915221 0.00061961453031416833 -0.00010716972686053937 -0.00080706987964236328 0.0015780331687589664 0.00037743272782824274
leaf_weight=1252 3192 1517 5820 1137 4414 5806 4845 565 2860
leaf_count=1252 3192 1517 5820 1137 4414 5806 4845 565 2860
internal_value=0 0.000630448 -0.000486807 0.00143527 0.000382912 -0.000271092 -0.00089814 0.00113476 0.000210274
internal_weight=0 13685 17723 3219 10466 11626 6097 2082 6052
internal_count=31408 13685 17723 3219 10466 11626 6097 2082 6052
is_linear=0
shrinkage=0.01


Tree=79
num_leaves=10
num_cat=0
split_feature=23 23 23 23 23 2 23 2 23
split_gain=94.4901 25.6077 17.9976 4.91397 3.90291 3.2775 1.58876 1.42928 1.39243
threshold=0.43078346699568182 0.28938926588525615 0.66656384947563252 0.20117211597779158 0.53146206045650846 0.37217766810610742 0.8311536088834055 0.28778531770512039 0.11511412708204817
decision_type=2 2 2 2 2 2 2 2 2
left_child=1 3 4 8 -2 -3 -4 -5 -1
right_child=2 5 6 7 -6 -7 -8 -9 -10
leaf_value=-0.0013620245640978534 0.00049810364556398634 -0.00017376923722570135 0.0016759651062861541 -0.00067116300630949092 0.00097399123003105324 0.00016761659160549649 0.0024556466998603842 -0.00036058895252328297 -0.00088975095351936527
leaf_weight=752 5312 6919 1141 3271 2551 4738 339 2709 3676
leaf_count=752 5312 6919 1141 3271 2551 4738 339 2709 3676
internal_value=0 -0.000356915 0.000842911 -0.000717446 0.000652496 -3.50126e-05 0.00185455 -0.00053047 -0.000969956
internal_weight=0 22065 9343 10408 7863 11657 1480 5980 4428
internal_count=31408 22065 9343 10408 7863 11657 1480 5980 4428
is_linear=0
shrinkage=0.01


Tree=80
num_leaves=10
num_cat=0
split_feature=23 23 23 23 2 2 1 23 17
split_gain=92.73 26.1894 15.1054 5.36956 3.99434 2.93357 1.97398 1.50413 1.37712
threshold=0.37217766810610742 0.55206662553979047 0.22979642196175207 0.69136335595311549 0.45940777297964236 0.29975323874151771 0.21523750771128944 0.44250462677359664 0.45508945095619996
decision_type=2 2 2 2 2 2 2 2 2
left_child=2 4 6 8 7 -4 -1 -2 -3
right_child=1 3 5 -5 -6 -7 -8 -9 -10
leaf_value=-0.0010322161010522396 9.1753261979580093e-05 0.0013581574518045708 -0.00044559025328182812 0.001906681907937502 0.00062236116956162102 -0.00012326044029002152 -0.00067332789169106651 0.00040330678279057523 0.00084189690160951423
leaf_weight=3486 3851 952 4978 1252 3907 6524 2735 2593 1130
leaf_count=3486 3851 952 4978 1252 3907 6524 2735 2593 1130
internal_value=0 0.000618353 -0.000477468 0.00138916 0.000370078 -0.000262763 -0.000874435 0.000217119 0.00107796
internal_weight=0 13685 17723 3334 10351 11502 6221 6444 2082
internal_count=31408 13685 17723 3334 10351 11502 6221 6444 2082
is_linear=0
shrinkage=0.01


Tree=81
num_leaves=10
num_cat=0
split_feature=23 23 23 23 2 23 23 23 4
split_gain=90.8847 25.6709 14.8159 5.02022 4.08264 3.29776 1.72865 1.51327 1.47564
threshold=0.37217766810610742 0.55712523133867997 0.22152991980259104 0.70438001233806302 0.45940777297964236 0.29679210363972863 0.11511412708204817 0.44645280690931538 0.60037014188772386
decision_type=2 2 2 2 2 2 2 2 2
left_child=2 4 6 8 7 -4 -1 -2 -3
right_child=1 3 5 -5 -6 -7 -8 -9 -10
leaf_value=-0.0013385450772624066 9.6717415964242518e-05 0.00093881745928130742 -0.00045844095277686869 0.0019275210789923302 0.00062384784463024733 -0.00012493216186187272 -0.00082405694020333444 0.00041105983727927192 0.0015375225745734916
leaf_weight=752 3999 1517 5338 1137 3985 6669 4964 2482 565
leaf_count=752 3999 1517 5338 1137 3985 6669 4964 2482 565
internal_value=0 0.000612169 -0.000472693 0.00139313 0.000371972 -0.000273201 -0.000891743 0.0002171 0.00110129
internal_weight=0 13685 17723 3219 10466 12007 5716 6481 2082
internal_count=31408 13685 17723 3219 10466 12007 5716 6481 2082
is_linear=0
shrinkage=0.01


Tree=82
num_leaves=10
num_cat=0
split_feature=23 23 23 23 3 2 1 23 21
split_gain=89.1025 22.7885 16.9351 4.27926 3.48646 2.84613 2.61814 1.41808 1.35767
threshold=0.38685996298581138 0.58648982109808778 0.24818013571869221 0.47384330660086377 0.58797038864898232 0.32973473164713152 0.22165330043183226 0.77933374460209759 0.38685996298581138
decision_type=2 2 2 2 2 2 2 2 2
left_child=2 3 6 8 -3 -4 -1 -6 -2
right_child=1 4 5 -5 7 -7 -8 -9 -10
leaf_value=-0.00097287466607967556 0.00050080398218850107 0.0011295553748529594 -0.0003455887728139505 0.00068076067029900975 0.0016345239427576275 -3.0615119774802046e-05 -0.00059757603522048956 0.0023379205019655315 0.00016095258599498492
leaf_weight=4065 1668 1243 5807 4271 844 5670 3425 434 3981
leaf_count=4065 1668 1243 5807 4271 844 5670 3425 434 3981
internal_value=0 0.000657653 -0.000431373 0.000441897 0.00150664 -0.000189982 -0.000801259 0.00187339 0.000261302
internal_weight=0 12441 18967 9920 2521 11477 7490 1278 5649
internal_count=31408 12441 18967 9920 2521 11477 7490 1278 5649
is_linear=0
shrinkage=0.01


Tree=83
num_leaves=10
num_cat=0
split_feature=23 23 23 23 2 2 2 23 23
split_gain=87.4016 23.7527 16.664 4.7888 3.68279 2.95968 1.68712 1.52947 1.14573
threshold=0.43078346699568182 0.29259716224552756 0.66656384947563252 0.18858729179518827 0.51406539173349797 0.38858729179518825 0.28445404071560776 0.85694016039481813 0.49420111042566334
decision_type=2 2 2 2 2 2 2 2 2
left_child=1 3 4 -1 8 -3 -5 -4 -2
right_child=2 5 7 6 -6 -7 -8 -9 -10
leaf_value=-0.00097590432631035784 0.00034230732860505932 -0.0001441257537239664 0.0016476470524329318 -0.00067083069883357464 0.00093616204113159969 0.00019372063405618953 -0.00035917036298514191 0.0025413602372977586 0.00063861269968467195
leaf_weight=3656 2898 7413 1254 3829 2591 3988 3179 226 2374
leaf_count=3656 2898 7413 1254 3829 2591 3988 3179 226 2374
internal_value=0 -0.000343266 0.000810678 -0.000682513 0.000627454 -2.59492e-05 -0.000529454 0.00178412 0.000475735
internal_weight=0 22065 9343 10664 7863 11401 7008 1480 5272
internal_count=31408 22065 9343 10664 7863 11401 7008 1480 5272
is_linear=0
shrinkage=0.01


Tree=84
num_leaves=10
num_cat=0
split_feature=23 23 23 23 2 2 23 23 17
split_gain=85.7851 25.2175 13.1291 4.96662 4.01035 2.83942 1.67501 1.3504 1.32752
threshold=0.36637877853177059 0.55206662553979047 0.22152991980259104 0.69136335595311549 0.44250462677359664 0.29259716224552756 0.11511412708204817 0.44645280690931538 0.45508945095619996
decision_type=2 2 2 2 2 2 2 2 2
left_child=2 4 6 8 7 -4 -1 -2 -3
right_child=1 3 5 -5 -6 -7 -8 -9 -10
leaf_value=-0.0013061210144548975 7.2824268087649281e-05 0.0013120165316215834 -0.000464772238620753 0.0018339327442200896 0.00056866031649219998 -0.00014629271465867885 -0.00079967810985629654 0.00038012299430935424 0.00080513911380082777
leaf_weight=752 4135 952 4822 1252 4541 6674 4964 2186 1130
leaf_count=752 4135 952 4822 1252 4541 6674 4964 2186 1130
internal_value=0 0.000575465 -0.000474628 0.00133621 0.000341959 -0.000279879 -0.000866306 0.000179098 0.00103691
internal_weight=0 14196 17212 3334 10862 11496 5716 6321 2082
internal_count=31408 14196 17212 3334 10862 11496 5716 6321 2082
is_linear=0
shrinkage=0.01


Tree=85
num_leaves=10
num_cat=0
split_feature=23 23 23 23 2 2 23 4 23
split_gain=84.078 24.7157 12.8678 4.87381 3.9307 2.78419 1.64168 1.46391 1.28069
threshold=0.36637877853177059 0.55206662553979047 0.22152991980259104 0.70438001233806302 0.43806292412091308 0.2560764959901296 0.11511412708204817 0.60037014188772386 0.43621221468229499
decision_type=2 2 2 2 2 2 2 2 2
left_child=2 4 6 7 8 -4 -1 -3 -2
right_child=1 3 5 -5 -6 -7 -8 -9 -10
leaf_value=-0.0012930598079742112 5.5207971467364108e-05 0.00089193200991707358 -0.0005107178699916557 0.0018543289254502235 0.00055705276204356577 -0.00017342059522882348 -0.00079168132727802589 0.0014752961915411576 0.00034899308007727074
leaf_weight=752 3703 1610 3533 1137 4683 7963 4964 587 2476
leaf_count=752 3703 1610 3533 1137 4683 7963 4964 587 2476
internal_value=0 0.00056971 -0.000469882 0.00132285 0.00033854 -0.00027708 -0.000857643 0.0010478 0.000172931
internal_weight=0 14196 17212 3334 10862 11496 5716 2197 6179
internal_count=31408 14196 17212 3334 10862 11496 5716 2197 6179
is_linear=0
shrinkage=0.01


Tree=86
num_leaves=10
num_cat=0
split_feature=23 23 23 23 3 2 4 2 23
split_gain=82.4365 21.9089 16.1413 4.3198 3.25931 2.80137 1.91935 1.52678 1.2119
threshold=0.42757557063541035 0.28938926588525615 0.64447871684145608 0.18858729179518827 0.51172115977791499 0.37217766810610742 0.55305367057372012 0.28630475015422585 0.48951264651449738
decision_type=2 2 2 2 2 2 2 2 2
left_child=1 3 4 -1 8 -3 -4 -5 -2
right_child=2 5 6 7 -6 -7 -8 -9 -10
leaf_value=-0.00094815871589397111 0.00030927415909916001 -0.0001654118227252319 0.001271564455381582 -0.00065544636487281389 0.00089287263766920841 0.00015404490683380314 0.0019476995726559992 -0.00035271365137763813 0.00060637723034919627
leaf_weight=3656 2923 6827 742 3762 2361 4591 967 2990 2589
leaf_count=3656 2923 6827 742 3762 2361 4591 967 2990 2589
internal_value=0 -0.000339454 0.000773212 -0.000671298 0.000581988 -3.69632e-05 0.00165414 -0.000521387 0.000448824
internal_weight=0 21826 9582 10408 7873 11418 1709 6752 5512
internal_count=31408 21826 9582 10408 7873 11418 1709 6752 5512
is_linear=0
shrinkage=0.01


Tree=87
num_leaves=10
num_cat=0
split_feature=23 23 23 23 2 2 23 4 23
split_gain=80.8852 23.7791 12.3662 4.68994 3.78462 2.68917 1.59845 1.59175 1.41638
threshold=0.36637877853177059 0.55206662553979047 0.22152991980259104 0.72029611351017908 0.45940777297964236 0.29259716224552756 0.11511412708204817 0.60037014188772386 0.44250462677359664
decision_type=2 2 2 2 2 2 2 2 2
left_child=2 4 6 7 8 -4 -1 -3 -2
right_child=1 3 5 -5 -6 -7 -8 -9 -10
leaf_value=-0.0012706476132920447 7.7901476131988191e-05 0.00088643782601390605 -0.0004518026684694005 0.0018612396430846884 0.00057686419977938744 -0.00014186384085202412 -0.00077591417482245127 0.0014743520374607853 0.00037412254148224951
leaf_weight=752 4276 1676 4822 1023 3993 6674 4964 635 2593
leaf_count=752 4276 1676 4822 1023 3993 6674 4964 635 2593
internal_value=0 0.000558788 -0.000460874 0.00129752 0.000332041 -0.000271868 -0.000841002 0.00104798 0.000189723
internal_weight=0 14196 17212 3334 10862 11496 5716 2311 6869
internal_count=31408 14196 17212 3334 10862 11496 5716 2311 6869
is_linear=0
shrinkage=0.01


Tree=88
num_leaves=10
num_cat=0
split_feature=23 23 23 23 23 2 3 2 19
split_gain=79.2758 18.8524 17.1544 3.72562 3.39558 2.47339 2.33085 1.48367 1.23812
threshold=0.41227637260950045 0.28112276372609513 0.62584824182603349 0.1788402220851327 0.50123380629241221 0.38858729179518825 0.58797038864898232 0.28630475015422585 0.44645280690931538
decision_type=2 2 2 2 2 2 2 2 2
left_child=1 3 4 -1 -2 -3 -4 -5 -6
right_child=2 5 6 7 8 -7 -8 -9 -10
leaf_value=-0.00096115754201280175 0.0003548645157529141 -0.00017724627263583718 0.0011600262595479812 -0.00067099933057178764 0.0010374915201121766 0.00014380052120667103 0.0018594285354602837 -0.00036787211734407786 0.00062896678814027549
leaf_weight=3148 5239 7549 843 3833 1096 3518 1096 2790 2296
leaf_count=3148 5239 7549 843 3833 1096 3518 1096 2790 2296
internal_value=0 -0.000357816 0.000705409 -0.000677927 0.000514463 -7.51913e-05 0.00155536 -0.000543304 0.000760967
internal_weight=0 20838 10570 9771 8631 11067 1939 6623 3392
internal_count=31408 20838 10570 9771 8631 11067 1939 6623 3392
is_linear=0
shrinkage=0.01


Tree=89
num_leaves=10
num_cat=0
split_feature=23 23 23 23 2 2 23 23 18
split_gain=77.8046 22.8619 11.8886 4.74808 3.50616 2.60166 1.5538 1.3645 1.21312
threshold=0.36637877853177059 0.54885872917951894 0.22152991980259104 0.67853177051202973 0.43806292412091308 0.2560764959901296 0.11511412708204817 0.85694016039481813 0.45508945095619996
decision_type=2 2 2 2 2 2 2 2 2
left_child=2 4 6 8 -2 -4 -1 -5 -3
right_child=1 3 5 7 -6 -7 -8 -9 -10
leaf_value=-0.0012483295721021739 0.00016454268084979923 0.0012563745965189421 -0.00049254087299056891 0.0015738825488247369 0.00052962003359519158 -0.00016648765547191532 -0.00076055502485186319 0.0024244445120602583 0.00076209928232402302
leaf_weight=752 6150 817 3533 1140 4597 7963 4964 226 1266
leaf_count=752 6150 817 3533 1140 4597 7963 4964 226 1266
internal_value=0 0.000548044 -0.000452012 0.00125643 0.000320704 -0.000266692 -0.000824727 0.00171461 0.000955965
internal_weight=0 14196 17212 3449 10747 11496 5716 1366 2083
internal_count=31408 14196 17212 3449 10747 11496 5716 1366 2083
is_linear=0
shrinkage=0.01


Tree=90
num_leaves=10
num_cat=0
split_feature=23 23 23 23 3 2 2 23 23
split_gain=76.3141 21.4803 14.1393 4.15511 3.21873 2.71954 1.47963 1.43529 1.28217
threshold=0.43448488587291806 0.29259716224552756 0.66656384947563252 0.18858729179518827 0.54972239358420749 0.38858729179518825 0.28272671190623078 0.85694016039481813 0.51394201110425675
decision_type=2 2 2 2 2 2 2 2 2
left_child=1 3 4 -1 8 -3 -5 -4 -2
right_child=2 5 7 6 -6 -7 -8 -9 -10
leaf_value=-0.00091220997839679423 0.00037797384293042276 -0.00013118183665021649 0.0015344405060773642 -0.00063066162251246673 0.00099171915548899739 0.00018805038575936517 -0.00033915278351922813 0.0024002000267526742 0.00068087370186687194
leaf_weight=3656 3749 7515 1254 3779 1634 4138 3229 226 2228
leaf_count=3656 3749 7515 1254 3779 1634 4138 3229 226 2228
internal_value=0 -0.000314608 0.000772315 -0.000638919 0.000598408 -1.78219e-05 -0.000496346 0.00166664 0.000490883
internal_weight=0 22317 9091 10664 7611 11653 7008 1480 5977
internal_count=31408 22317 9091 10664 7611 11653 7008 1480 5977
is_linear=0
shrinkage=0.01


Tree=91
num_leaves=10
num_cat=0
split_feature=23 23 23 23 2 2 23 4 23
split_gain=74.855 21.9836 11.4248 4.36036 3.5336 2.52056 1.5129 1.50292 1.29546
threshold=0.36637877853177059 0.55206662553979047 0.22152991980259104 0.72029611351017908 0.45731030228254171 0.31752004935225175 0.11511412708204817 0.60857495373226422 0.44250462677359664
decision_type=2 2 2 2 2 2 2 2 2
left_child=2 4 6 7 8 -4 -1 -3 -2
right_child=1 3 5 -5 -6 -7 -8 -9 -10
leaf_value=-0.0012267241571990257 7.2711877640794121e-05 0.0008546930377595069 -0.00040615052648754869 0.0017914005174490015 0.00055267336908627451 -0.00010991469663461351 -0.00074541212888119574 0.0014335618681337054 0.00035770072786956786
leaf_weight=752 4237 1702 5890 1023 4067 5606 4964 609 2558
leaf_count=752 4237 1702 5890 1023 4067 5606 4964 609 2558
internal_value=0 0.000537555 -0.000443361 0.00124785 0.000319536 -0.000261692 -0.000808734 0.00100724 0.000179997
internal_weight=0 14196 17212 3334 10862 11496 5716 2311 6795
internal_count=31408 14196 17212 3334 10862 11496 5716 2311 6795
is_linear=0
shrinkage=0.01


Tree=92
num_leaves=10
num_cat=0
split_feature=23 23 23 23 3 1 23 21 23
split_gain=73.3765 19.3683 13.3948 3.65788 3.21373 2.31675 2.27814 1.3202 1.29959
threshold=0.38229487970388659 0.58044417026526851 0.24818013571869221 0.46767427513880327 0.58797038864898232 0.22165330043183226 0.31900061690314629 0.38685996298581138 0.80166563849475647
decision_type=2 2 2 2 2 2 2 2 2
left_child=2 3 5 7 -3 -1 -4 -2 -6
right_child=1 4 6 -5 8 -7 -8 -9 -10
